<?xml version="1.0"?>
<opencv_storage>
<cascade>
  <stageType>BOOST</stageType>
  <featureType>HAAR</featureType>
  <height>40</height>
  <width>40</width>
  <stageParams>
    <boostType>GAB</boostType>
    <minHitRate>9.9500000476837158e-01</minHitRate>
    <maxFalseAlarm>5.0000000000000000e-01</maxFalseAlarm>
    <weightTrimRate>9.4999999999999996e-01</weightTrimRate>
    <maxDepth>1</maxDepth>
    <maxWeakCount>100</maxWeakCount></stageParams>
  <featureParams>
    <maxCatCount>0</maxCatCount>
    <featSize>1</featSize>
    <mode>BASIC</mode></featureParams>
  <stageNum>12</stageNum>
  <stages>
    <!-- stage 0 -->
    <_>
      <maxWeakCount>1</maxWeakCount>
      <stageThreshold>8.5323113203048706e-01</stageThreshold>
      <weakClassifiers>
        <_>
          <internalNodes>
            0 -1 15 1.4453969197347760e-03</internalNodes>
          <leafValues>
            -9.9531340599060059e-01 8.5323113203048706e-01</leafValues></_></weakClassifiers></_>
    <!-- stage 1 -->
    <_>
      <maxWeakCount>1</maxWeakCount>
      <stageThreshold>9.9882423877716064e-01</stageThreshold>
      <weakClassifiers>
        <_>
          <internalNodes>
            0 -1 4 -2.8137040138244629e-01</internalNodes>
          <leafValues>
            -1. 9.9882423877716064e-01</leafValues></_></weakClassifiers></_>
    <!-- stage 2 -->
    <_>
      <maxWeakCount>2</maxWeakCount>
      <stageThreshold>-5.0407189130783081e-01</stageThreshold>
      <weakClassifiers>
        <_>
          <internalNodes>
            0 -1 34 2.8893675189465284e-03</internalNodes>
          <leafValues>
            -9.1550213098526001e-01 4.5168748497962952e-01</leafValues></_>
        <_>
          <internalNodes>
            0 -1 16 -2.3184407036751509e-03</internalNodes>
          <leafValues>
            4.8085910081863403e-01 -9.5575940608978271e-01</leafValues></_></weakClassifiers></_>
    <!-- stage 3 -->
    <_>
      <maxWeakCount>4</maxWeakCount>
      <stageThreshold>-9.8815709352493286e-01</stageThreshold>
      <weakClassifiers>
        <_>
          <internalNodes>
            0 -1 6 -2.8115441091358662e-03</internalNodes>
          <leafValues>
            3.8091069459915161e-01 -9.1677945852279663e-01</leafValues></_>
        <_>
          <internalNodes>
            0 -1 17 -5.9073559939861298e-02</internalNodes>
          <leafValues>
            -6.7183071374893188e-01 5.1594245433807373e-01</leafValues></_>
        <_>
          <internalNodes>
            0 -1 27 8.6946422234177589e-03</internalNodes>
          <leafValues>
            -9.4080114364624023e-01 2.7194723486900330e-01</leafValues></_>
        <_>
          <internalNodes>
            0 -1 1 -2.1711967419832945e-03</internalNodes>
          <leafValues>
            3.2850581407546997e-01 -9.1272091865539551e-01</leafValues></_></weakClassifiers></_>
    <!-- stage 4 -->
    <_>
      <maxWeakCount>4</maxWeakCount>
      <stageThreshold>-1.0563590526580811e+00</stageThreshold>
      <weakClassifiers>
        <_>
          <internalNodes>
            0 -1 18 -5.1968500018119812e-02</internalNodes>
          <leafValues>
            -7.1679472923278809e-01 4.8370927572250366e-01</leafValues></_>
        <_>
          <internalNodes>
            0 -1 36 1.6988796414807439e-03</internalNodes>
          <leafValues>
            -9.4301307201385498e-01 2.3007124662399292e-01</leafValues></_>
        <_>
          <internalNodes>
            0 -1 3 -2.4446545168757439e-02</internalNodes>
          <leafValues>
            3.0516862869262695e-01 -7.7694064378738403e-01</leafValues></_>
        <_>
          <internalNodes>
            0 -1 0 -1.9625194370746613e-02</internalNodes>
          <leafValues>
            2.9828014969825745e-01 -8.7288272380828857e-01</leafValues></_></weakClassifiers></_>
    <!-- stage 5 -->
    <_>
      <maxWeakCount>4</maxWeakCount>
      <stageThreshold>-1.1510139703750610e+00</stageThreshold>
      <weakClassifiers>
        <_>
          <internalNodes>
            0 -1 22 -7.1880351752042770e-03</internalNodes>
          <leafValues>
            -6.1814081668853760e-01 5.0200158357620239e-01</leafValues></_>
        <_>
          <internalNodes>
            0 -1 5 -1.9135351758450270e-03</internalNodes>
          <leafValues>
            2.4327276647090912e-01 -9.6570962667465210e-01</leafValues></_>
        <_>
          <internalNodes>
            0 -1 26 -4.8389479161414783e-06</internalNodes>
          <leafValues>
            -9.7345840930938721e-01 1.9288067519664764e-01</leafValues></_>
        <_>
          <internalNodes>
            0 -1 30 -5.1088950385747012e-06</internalNodes>
          <leafValues>
            -9.6902656555175781e-01 2.0051088929176331e-01</leafValues></_></weakClassifiers></_>
    <!-- stage 6 -->
    <_>
      <maxWeakCount>3</maxWeakCount>
      <stageThreshold>-3.8378587365150452e-01</stageThreshold>
      <weakClassifiers>
        <_>
          <internalNodes>
            0 -1 21 -8.6556188762187958e-03</internalNodes>
          <leafValues>
            -6.4147990942001343e-01 4.4365191459655762e-01</leafValues></_>
        <_>
          <internalNodes>
            0 -1 12 8.1923226389335468e-06</internalNodes>
          <leafValues>
            1.7023454606533051e-01 -9.8280054330825806e-01</leafValues></_>
        <_>
          <internalNodes>
            0 -1 11 4.3215845835220534e-06</internalNodes>
          <leafValues>
            1.5536276996135712e-01 -1.</leafValues></_></weakClassifiers></_>
    <!-- stage 7 -->
    <_>
      <maxWeakCount>5</maxWeakCount>
      <stageThreshold>-1.4101830720901489e+00</stageThreshold>
      <weakClassifiers>
        <_>
          <internalNodes>
            0 -1 23 -7.1684950962662697e-03</internalNodes>
          <leafValues>
            -5.7288938760757446e-01 5.4975843429565430e-01</leafValues></_>
        <_>
          <internalNodes>
            0 -1 9 -2.6341085322201252e-03</internalNodes>
          <leafValues>
            -9.3550151586532593e-01 2.1952687203884125e-01</leafValues></_>
        <_>
          <internalNodes>
            0 -1 11 -8.3947934399475344e-06</internalNodes>
          <leafValues>
            -6.3758438825607300e-01 4.6979302167892456e-01</leafValues></_>
        <_>
          <internalNodes>
            0 -1 25 2.3626649635843933e-05</internalNodes>
          <leafValues>
            2.1709120273590088e-01 -9.0639960765838623e-01</leafValues></_>
        <_>
          <internalNodes>
            0 -1 13 3.4876465797424316e-03</internalNodes>
          <leafValues>
            -6.3632732629776001e-01 2.7755340933799744e-01</leafValues></_></weakClassifiers></_>
    <!-- stage 8 -->
    <_>
      <maxWeakCount>5</maxWeakCount>
      <stageThreshold>-1.5202772617340088e+00</stageThreshold>
      <weakClassifiers>
        <_>
          <internalNodes>
            0 -1 19 -6.1386236920952797e-03</internalNodes>
          <leafValues>
            -5.2899038791656494e-01 6.7658472061157227e-01</leafValues></_>
        <_>
          <internalNodes>
            0 -1 11 -9.3083381216274574e-06</internalNodes>
          <leafValues>
            -5.6677210330963135e-01 3.6968758702278137e-01</leafValues></_>
        <_>
          <internalNodes>
            0 -1 33 2.0500496029853821e-03</internalNodes>
          <leafValues>
            -9.3515288829803467e-01 2.1483206748962402e-01</leafValues></_>
        <_>
          <internalNodes>
            0 -1 2 -2.6891015004366636e-03</internalNodes>
          <leafValues>
            2.9021722078323364e-01 -8.4469199180603027e-01</leafValues></_>
        <_>
          <internalNodes>
            0 -1 37 -2.6297979056835175e-03</internalNodes>
          <leafValues>
            -9.2956411838531494e-01 1.8073928356170654e-01</leafValues></_></weakClassifiers></_>
    <!-- stage 9 -->
    <_>
      <maxWeakCount>3</maxWeakCount>
      <stageThreshold>-1.7860136926174164e-01</stageThreshold>
      <weakClassifiers>
        <_>
          <internalNodes>
            0 -1 24 -3.9096968248486519e-03</internalNodes>
          <leafValues>
            -4.8889836668968201e-01 8.0935251712799072e-01</leafValues></_>
        <_>
          <internalNodes>
            0 -1 7 1.5978318697307259e-04</internalNodes>
          <leafValues>
            1.8112179636955261e-01 -9.6207374334335327e-01</leafValues></_>
        <_>
          <internalNodes>
            0 -1 29 -4.3946060941379983e-06</internalNodes>
          <leafValues>
            -1. 1.2917521595954895e-01</leafValues></_></weakClassifiers></_>
    <!-- stage 10 -->
    <_>
      <maxWeakCount>5</maxWeakCount>
      <stageThreshold>-6.6555309295654297e-01</stageThreshold>
      <weakClassifiers>
        <_>
          <internalNodes>
            0 -1 20 -2.9350961558520794e-03</internalNodes>
          <leafValues>
            -4.7588831186294556e-01 8.0078125000000000e-01</leafValues></_>
        <_>
          <internalNodes>
            0 -1 8 -4.4329549382382538e-06</internalNodes>
          <leafValues>
            -1. 1.5518105030059814e-01</leafValues></_>
        <_>
          <internalNodes>
            0 -1 29 8.3955746958963573e-06</internalNodes>
          <leafValues>
            3.6214756965637207e-01 -5.8394622802734375e-01</leafValues></_>
        <_>
          <internalNodes>
            0 -1 38 -2.5708065368235111e-03</internalNodes>
          <leafValues>
            -8.6698251962661743e-01 2.8005388379096985e-01</leafValues></_>
        <_>
          <internalNodes>
            0 -1 31 -4.3381655814300757e-06</internalNodes>
          <leafValues>
            -1. 1.5998916327953339e-01</leafValues></_></weakClassifiers></_>
    <!-- stage 11 -->
    <_>
      <maxWeakCount>6</maxWeakCount>
      <stageThreshold>-7.6822227239608765e-01</stageThreshold>
      <weakClassifiers>
        <_>
          <internalNodes>
            0 -1 10 -2.4833115749061108e-03</internalNodes>
          <leafValues>
            -8.5628741979598999e-01 -7.8460179269313812e-02</leafValues></_>
        <_>
          <internalNodes>
            0 -1 29 8.5473184299189597e-06</internalNodes>
          <leafValues>
            2.6898822188377380e-01 -6.1425876617431641e-01</leafValues></_>
        <_>
          <internalNodes>
            0 -1 32 8.8657625383348204e-06</internalNodes>
          <leafValues>
            3.5816904902458191e-01 -5.7293969392776489e-01</leafValues></_>
        <_>
          <internalNodes>
            0 -1 35 3.0992175452411175e-03</internalNodes>
          <leafValues>
            -6.7593324184417725e-01 2.7749139070510864e-01</leafValues></_>
        <_>
          <internalNodes>
            0 -1 28 -2.6481640525162220e-03</internalNodes>
          <leafValues>
            -9.4073128700256348e-01 1.7734281718730927e-01</leafValues></_>
        <_>
          <internalNodes>
            0 -1 14 2.6879287324845791e-03</internalNodes>
          <leafValues>
            -8.1832891702651978e-01 1.9054172933101654e-01</leafValues></_></weakClassifiers></_></stages>
  <features>
    <_>
      <rects>
        <_>
          0 0 10 39 -1.</_>
        <_>
          5 0 5 39 2.</_></rects>
      <tilted>0</tilted></_>
    <_>
      <rects>
        <_>
          0 0 36 2 -1.</_>
        <_>
          0 1 36 1 2.</_></rects>
      <tilted>0</tilted></_>
    <_>
      <rects>
        <_>
          0 0 39 2 -1.</_>
        <_>
          0 1 39 1 2.</_></rects>
      <tilted>0</tilted></_>
    <_>
      <rects>
        <_>
          0 0 40 10 -1.</_>
        <_>
          0 5 40 5 2.</_></rects>
      <tilted>0</tilted></_>
    <_>
      <rects>
        <_>
          0 1 38 9 -1.</_>
        <_>
          0 4 38 3 2.</_></rects>
      <tilted>0</tilted></_>
    <_>
      <rects>
        <_>
          0 2 2 36 -1.</_>
        <_>
          1 2 1 36 2.</_></rects>
      <tilted>0</tilted></_>
    <_>
      <rects>
        <_>
          0 2 2 37 -1.</_>
        <_>
          1 2 1 37 2.</_></rects>
      <tilted>0</tilted></_>
    <_>
      <rects>
        <_>
          0 16 6 6 -1.</_>
        <_>
          3 16 3 6 2.</_></rects>
      <tilted>0</tilted></_>
    <_>
      <rects>
        <_>
          0 34 9 6 -1.</_>
        <_>
          0 37 9 3 2.</_></rects>
      <tilted>0</tilted></_>
    <_>
      <rects>
        <_>
          0 37 1 3 -1.</_>
        <_>
          0 38 1 1 2.</_></rects>
      <tilted>0</tilted></_>
    <_>
      <rects>
        <_>
          1 39 3 1 -1.</_>
        <_>
          2 39 1 1 2.</_></rects>
      <tilted>0</tilted></_>
    <_>
      <rects>
        <_>
          1 39 4 1 -1.</_>
        <_>
          3 39 2 1 2.</_></rects>
      <tilted>0</tilted></_>
    <_>
      <rects>
        <_>
          2 0 4 4 -1.</_>
        <_>
          4 0 2 4 2.</_></rects>
      <tilted>0</tilted></_>
    <_>
      <rects>
        <_>
          2 38 35 2 -1.</_>
        <_>
          2 39 35 1 2.</_></rects>
      <tilted>0</tilted></_>
    <_>
      <rects>
        <_>
          3 38 34 2 -1.</_>
        <_>
          3 39 34 1 2.</_></rects>
      <tilted>0</tilted></_>
    <_>
      <rects>
        <_>
          3 38 36 2 -1.</_>
        <_>
          3 39 36 1 2.</_></rects>
      <tilted>0</tilted></_>
    <_>
      <rects>
        <_>
          4 0 34 2 -1.</_>
        <_>
          4 1 34 1 2.</_></rects>
      <tilted>0</tilted></_>
    <_>
      <rects>
        <_>
          9 14 22 6 -1.</_>
        <_>
          9 16 22 2 2.</_></rects>
      <tilted>0</tilted></_>
    <_>
      <rects>
        <_>
          10 16 21 6 -1.</_>
        <_>
          10 18 21 2 2.</_></rects>
      <tilted>0</tilted></_>
    <_>
      <rects>
        <_>
          12 18 9 3 -1.</_>
        <_>
          12 19 9 1 2.</_></rects>
      <tilted>0</tilted></_>
    <_>
      <rects>
        <_>
          16 21 6 3 -1.</_>
        <_>
          16 22 6 1 2.</_></rects>
      <tilted>0</tilted></_>
    <_>
      <rects>
        <_>
          17 17 3 9 -1.</_>
        <_>
          18 17 1 9 2.</_></rects>
      <tilted>0</tilted></_>
    <_>
      <rects>
        <_>
          21 14 3 8 -1.</_>
        <_>
          22 14 1 8 2.</_></rects>
      <tilted>0</tilted></_>
    <_>
      <rects>
        <_>
          21 17 3 9 -1.</_>
        <_>
          22 17 1 9 2.</_></rects>
      <tilted>0</tilted></_>
    <_>
      <rects>
        <_>
          22 16 7 3 -1.</_>
        <_>
          22 17 7 1 2.</_></rects>
      <tilted>0</tilted></_>
    <_>
      <rects>
        <_>
          29 0 6 6 -1.</_>
        <_>
          29 3 6 3 2.</_></rects>
      <tilted>0</tilted></_>
    <_>
      <rects>
        <_>
          33 0 6 1 -1.</_>
        <_>
          36 0 3 1 2.</_></rects>
      <tilted>0</tilted></_>
    <_>
      <rects>
        <_>
          34 1 6 39 -1.</_>
        <_>
          37 1 3 39 2.</_></rects>
      <tilted>0</tilted></_>
    <_>
      <rects>
        <_>
          35 39 3 1 -1.</_>
        <_>
          36 39 1 1 2.</_></rects>
      <tilted>0</tilted></_>
    <_>
      <rects>
        <_>
          35 39 4 1 -1.</_>
        <_>
          37 39 2 1 2.</_></rects>
      <tilted>0</tilted></_>
    <_>
      <rects>
        <_>
          37 34 3 4 -1.</_>
        <_>
          37 36 3 2 2.</_></rects>
      <tilted>0</tilted></_>
    <_>
      <rects>
        <_>
          38 0 2 3 -1.</_>
        <_>
          39 0 1 3 2.</_></rects>
      <tilted>0</tilted></_>
    <_>
      <rects>
        <_>
          38 0 2 4 -1.</_>
        <_>
          39 0 1 4 2.</_></rects>
      <tilted>0</tilted></_>
    <_>
      <rects>
        <_>
          38 0 2 38 -1.</_>
        <_>
          39 0 1 38 2.</_></rects>
      <tilted>0</tilted></_>
    <_>
      <rects>
        <_>
          38 0 2 39 -1.</_>
        <_>
          39 0 1 39 2.</_></rects>
      <tilted>0</tilted></_>
    <_>
      <rects>
        <_>
          38 1 2 38 -1.</_>
        <_>
          39 1 1 38 2.</_></rects>
      <tilted>0</tilted></_>
    <_>
      <rects>
        <_>
          38 5 2 35 -1.</_>
        <_>
          39 5 1 35 2.</_></rects>
      <tilted>0</tilted></_>
    <_>
      <rects>
        <_>
          39 0 1 3 -1.</_>
        <_>
          39 1 1 1 2.</_></rects>
      <tilted>0</tilted></_>
    <_>
      <rects>
        <_>
          39 37 1 3 -1.</_>
        <_>
          39 38 1 1 2.</_></rects>
      <tilted>0</tilted></_></features></cascade>
</opencv_storage>
