<?xml version="1.0"?>
<opencv_storage>
<stage8>
  <maxWeakCount>5</maxWeakCount>
  <stageThreshold>-1.4331164360046387e+00</stageThreshold>
  <weakClassifiers>
    <_>
      <internalNodes>
        0 -1 57683 -1.9876938313245773e-02</internalNodes>
      <leafValues>
        -7.2482836246490479e-01 3.9793577790260315e-01</leafValues></_>
    <_>
      <internalNodes>
        0 -1 207893 -3.7307333968783496e-06</internalNodes>
      <leafValues>
        -7.6514035463333130e-01 2.9344010353088379e-01</leafValues></_>
    <_>
      <internalNodes>
        0 -1 214200 -4.4385642468114384e-06</internalNodes>
      <leafValues>
        -7.9400724172592163e-01 1.6778525710105896e-01</leafValues></_>
    <_>
      <internalNodes>
        0 -1 207864 -2.3340076040767599e-06</internalNodes>
      <leafValues>
        -9.8311513662338257e-01 1.6409529745578766e-01</leafValues></_>
    <_>
      <internalNodes>
        0 -1 560505 -9.6002637292258441e-05</internalNodes>
      <leafValues>
        -3.7181618809700012e-01 4.6306708455085754e-01</leafValues></_></weakClassifiers></stage8>
</opencv_storage>
