<?xml version="1.0"?>
<opencv_storage>
<stage10>
  <maxWeakCount>8</maxWeakCount>
  <stageThreshold>-1.1229892969131470e+00</stageThreshold>
  <weakClassifiers>
    <_>
      <internalNodes>
        0 -1 90883 -1.7918782308697701e-02</internalNodes>
      <leafValues>
        -7.3868125677108765e-01 3.0323243141174316e-01</leafValues></_>
    <_>
      <internalNodes>
        0 -1 6050219 2.1129368178662844e-05</internalNodes>
      <leafValues>
        6.4010873436927795e-02 -1.</leafValues></_>
    <_>
      <internalNodes>
        0 -1 89659 8.1220492720603943e-02</internalNodes>
      <leafValues>
        1.1123136430978775e-01 -9.1161477565765381e-01</leafValues></_>
    <_>
      <internalNodes>
        0 -1 5630745 -2.1903395008848747e-06</internalNodes>
      <leafValues>
        -9.0944236516952515e-01 1.3138152658939362e-01</leafValues></_>
    <_>
      <internalNodes>
        0 -1 57683 -2.2846713662147522e-02</internalNodes>
      <leafValues>
        -5.1604199409484863e-01 2.6191115379333496e-01</leafValues></_>
    <_>
      <internalNodes>
        0 -1 6197511 2.1334210487111704e-06</internalNodes>
      <leafValues>
        1.7815798521041870e-01 -8.1249833106994629e-01</leafValues></_>
    <_>
      <internalNodes>
        0 -1 27911 -6.0157437110319734e-04</internalNodes>
      <leafValues>
        -7.9536545276641846e-01 1.3186240196228027e-01</leafValues></_>
    <_>
      <internalNodes>
        0 -1 3247176 -7.4802100658416748e-02</internalNodes>
      <leafValues>
        7.3450076580047607e-01 -2.2203941643238068e-01</leafValues></_></weakClassifiers></stage10>
</opencv_storage>
