<?xml version="1.0"?>
<opencv_storage>
<stage9>
  <maxWeakCount>11</maxWeakCount>
  <stageThreshold>-1.2690205574035645e+00</stageThreshold>
  <weakClassifiers>
    <_>
      <internalNodes>
        0 -1 215280 -2.5715812807902694e-04</internalNodes>
      <leafValues>
        8.2435002550482750e-03 -5.6425201892852783e-01</leafValues></_>
    <_>
      <internalNodes>
        0 -1 343749 2.0656552806030959e-05</internalNodes>
      <leafValues>
        -7.5793391466140747e-01 9.9331036210060120e-02</leafValues></_>
    <_>
      <internalNodes>
        0 -1 123716 -2.2514796000905335e-05</internalNodes>
      <leafValues>
        1.7454037070274353e-01 -6.9339764118194580e-01</leafValues></_>
    <_>
      <internalNodes>
        0 -1 1729 -6.4750062301754951e-03</internalNodes>
      <leafValues>
        -8.3335250616073608e-01 8.0223374068737030e-02</leafValues></_>
    <_>
      <internalNodes>
        0 -1 61594 6.5445447035017423e-06</internalNodes>
      <leafValues>
        8.9568771421909332e-02 -9.7745275497436523e-01</leafValues></_>
    <_>
      <internalNodes>
        0 -1 61455 -7.6422574929893017e-03</internalNodes>
      <leafValues>
        -8.6589992046356201e-01 9.0543501079082489e-02</leafValues></_>
    <_>
      <internalNodes>
        0 -1 1231794 1.1103171345894225e-05</internalNodes>
      <leafValues>
        -5.7403910160064697e-01 1.9116057455539703e-01</leafValues></_>
    <_>
      <internalNodes>
        0 -1 1227794 3.2350845634937286e-02</internalNodes>
      <leafValues>
        1.1310168355703354e-01 -7.4163734912872314e-01</leafValues></_>
    <_>
      <internalNodes>
        0 -1 164975 2.1015295351389796e-04</internalNodes>
      <leafValues>
        -4.1579222679138184e-01 2.1247518062591553e-01</leafValues></_>
    <_>
      <internalNodes>
        0 -1 2371 3.3452224731445312e-01</internalNodes>
      <leafValues>
        1.2554486095905304e-01 -9.1330671310424805e-01</leafValues></_>
    <_>
      <internalNodes>
        0 -1 1239295 6.5598169385339133e-06</internalNodes>
      <leafValues>
        8.2287088036537170e-02 -8.5858446359634399e-01</leafValues></_></weakClassifiers></stage9>
</opencv_storage>
