<?xml version="1.0"?>
<opencv_storage>
<stage1>
  <maxWeakCount>5</maxWeakCount>
  <stageThreshold>-1.9492610692977905e+00</stageThreshold>
  <weakClassifiers>
    <_>
      <internalNodes>
        0 -1 999021 9.5112738199532032e-04</internalNodes>
      <leafValues>
        -7.5365114212036133e-01 4.6099290251731873e-01</leafValues></_>
    <_>
      <internalNodes>
        0 -1 6650 -8.2568649668246508e-04</internalNodes>
      <leafValues>
        6.2497186660766602e-01 -7.0953792333602905e-01</leafValues></_>
    <_>
      <internalNodes>
        0 -1 214516 -2.0107798278331757e-02</internalNodes>
      <leafValues>
        4.1762703657150269e-01 -6.5261113643646240e-01</leafValues></_>
    <_>
      <internalNodes>
        0 -1 6236727 4.6035153791308403e-03</internalNodes>
      <leafValues>
        -3.5039058327674866e-01 6.5993261337280273e-01</leafValues></_>
    <_>
      <internalNodes>
        0 -1 39592 -4.3672160245478153e-04</internalNodes>
      <leafValues>
        4.7652852535247803e-01 -5.5330848693847656e-01</leafValues></_></weakClassifiers></stage1>
</opencv_storage>
