<?xml version="1.0"?>
<opencv_storage>
<cascade>
  <stageType>BOOST</stageType>
  <featureType>HAAR</featureType>
  <height>24</height>
  <width>24</width>
  <stageParams>
    <boostType>GAB</boostType>
    <minHitRate>9.9500000476837158e-01</minHitRate>
    <maxFalseAlarm>5.0000000000000000e-01</maxFalseAlarm>
    <weightTrimRate>9.4999999999999996e-01</weightTrimRate>
    <maxDepth>1</maxDepth>
    <maxWeakCount>100</maxWeakCount></stageParams>
  <featureParams>
    <maxCatCount>0</maxCatCount>
    <featSize>1</featSize>
    <mode>BASIC</mode></featureParams>
  <stageNum>11</stageNum>
  <stages>
    <!-- stage 0 -->
    <_>
      <maxWeakCount>2</maxWeakCount>
      <stageThreshold>-2.3401753604412079e-01</stageThreshold>
      <weakClassifiers>
        <_>
          <internalNodes>
            0 -1 11 4.0215468034148216e-03</internalNodes>
          <leafValues>
            -9.9242866039276123e-01 8.6821705102920532e-01</leafValues></_>
        <_>
          <internalNodes>
            0 -1 3 -2.0057617221027613e-03</internalNodes>
          <leafValues>
            7.5841110944747925e-01 -9.8621088266372681e-01</leafValues></_></weakClassifiers></_>
    <!-- stage 1 -->
    <_>
      <maxWeakCount>1</maxWeakCount>
      <stageThreshold>9.9530518054962158e-01</stageThreshold>
      <weakClassifiers>
        <_>
          <internalNodes>
            0 -1 18 -4.4765138626098633e-01</internalNodes>
          <leafValues>
            -1. 9.9530518054962158e-01</leafValues></_></weakClassifiers></_>
    <!-- stage 2 -->
    <_>
      <maxWeakCount>2</maxWeakCount>
      <stageThreshold>-5.7867360115051270e-01</stageThreshold>
      <weakClassifiers>
        <_>
          <internalNodes>
            0 -1 10 -6.0214698314666748e-03</internalNodes>
          <leafValues>
            3.9772728085517883e-01 -9.3157184123992920e-01</leafValues></_>
        <_>
          <internalNodes>
            0 -1 25 4.7621577978134155e-03</internalNodes>
          <leafValues>
            -9.7215062379837036e-01 3.5289821028709412e-01</leafValues></_></weakClassifiers></_>
    <!-- stage 3 -->
    <_>
      <maxWeakCount>4</maxWeakCount>
      <stageThreshold>-1.1433758735656738e+00</stageThreshold>
      <weakClassifiers>
        <_>
          <internalNodes>
            0 -1 15 -1.3501627743244171e-01</internalNodes>
          <leafValues>
            -6.8918144702911377e-01 3.2531499862670898e-01</leafValues></_>
        <_>
          <internalNodes>
            0 -1 1 -4.7287079505622387e-03</internalNodes>
          <leafValues>
            2.5157597661018372e-01 -9.6102344989776611e-01</leafValues></_>
        <_>
          <internalNodes>
            0 -1 11 5.5665010586380959e-03</internalNodes>
          <leafValues>
            -8.9508843421936035e-01 3.1486082077026367e-01</leafValues></_>
        <_>
          <internalNodes>
            0 -1 21 -1.6430050891358405e-05</internalNodes>
          <leafValues>
            -1. 1.8931804597377777e-01</leafValues></_></weakClassifiers></_>
    <!-- stage 4 -->
    <_>
      <maxWeakCount>3</maxWeakCount>
      <stageThreshold>-5.6420814990997314e-01</stageThreshold>
      <weakClassifiers>
        <_>
          <internalNodes>
            0 -1 8 6.1573004350066185e-03</internalNodes>
          <leafValues>
            -9.1624009609222412e-01 4.1734065860509872e-02</leafValues></_>
        <_>
          <internalNodes>
            0 -1 13 -5.2098371088504791e-03</internalNodes>
          <leafValues>
            1.9658580422401428e-01 -9.0565150976181030e-01</leafValues></_>
        <_>
          <internalNodes>
            0 -1 25 6.2078954651951790e-03</internalNodes>
          <leafValues>
            -8.0252802371978760e-01 3.8633710145950317e-01</leafValues></_></weakClassifiers></_>
    <!-- stage 5 -->
    <_>
      <maxWeakCount>3</maxWeakCount>
      <stageThreshold>-3.4239369630813599e-01</stageThreshold>
      <weakClassifiers>
        <_>
          <internalNodes>
            0 -1 16 -4.3432779610157013e-02</internalNodes>
          <leafValues>
            -6.6783624887466431e-01 2.4395604431629181e-01</leafValues></_>
        <_>
          <internalNodes>
            0 -1 0 1.2357534615148325e-05</internalNodes>
          <leafValues>
            1.7555977404117584e-01 -1.</leafValues></_>
        <_>
          <internalNodes>
            0 -1 9 1.2848054211644921e-05</internalNodes>
          <leafValues>
            1.4988279342651367e-01 -1.</leafValues></_></weakClassifiers></_>
    <!-- stage 6 -->
    <_>
      <maxWeakCount>3</maxWeakCount>
      <stageThreshold>-5.2667862176895142e-01</stageThreshold>
      <weakClassifiers>
        <_>
          <internalNodes>
            0 -1 19 -1.9811961799860001e-02</internalNodes>
          <leafValues>
            -6.6196370124816895e-01 2.5976231694221497e-01</leafValues></_>
        <_>
          <internalNodes>
            0 -1 22 -1.3870547263650224e-05</internalNodes>
          <leafValues>
            -1. 1.7417377233505249e-01</leafValues></_>
        <_>
          <internalNodes>
            0 -1 7 -8.0996947363018990e-03</internalNodes>
          <leafValues>
            -9.6061468124389648e-01 1.2170846760272980e-01</leafValues></_></weakClassifiers></_>
    <!-- stage 7 -->
    <_>
      <maxWeakCount>5</maxWeakCount>
      <stageThreshold>-8.7944084405899048e-01</stageThreshold>
      <weakClassifiers>
        <_>
          <internalNodes>
            0 -1 9 -2.5298981199739501e-05</internalNodes>
          <leafValues>
            -6.8686264753341675e-01 2.3609653115272522e-01</leafValues></_>
        <_>
          <internalNodes>
            0 -1 0 -2.6467158022569492e-05</internalNodes>
          <leafValues>
            -5.6610214710235596e-01 3.5586181282997131e-01</leafValues></_>
        <_>
          <internalNodes>
            0 -1 20 1.9841820001602173e-02</internalNodes>
          <leafValues>
            -8.8030850887298584e-01 2.1429622173309326e-01</leafValues></_>
        <_>
          <internalNodes>
            0 -1 24 1.3124447832524311e-05</internalNodes>
          <leafValues>
            1.8976943194866180e-01 -9.9149411916732788e-01</leafValues></_>
        <_>
          <internalNodes>
            0 -1 12 -2.9572043567895889e-03</internalNodes>
          <leafValues>
            1.4209908246994019e-01 -9.7229653596878052e-01</leafValues></_></weakClassifiers></_>
    <!-- stage 8 -->
    <_>
      <maxWeakCount>4</maxWeakCount>
      <stageThreshold>-7.3421108722686768e-01</stageThreshold>
      <weakClassifiers>
        <_>
          <internalNodes>
            0 -1 6 2.0510395988821983e-02</internalNodes>
          <leafValues>
            -8.8306671380996704e-01 -6.9740295410156250e-02</leafValues></_>
        <_>
          <internalNodes>
            0 -1 14 -1.3130219485901762e-05</internalNodes>
          <leafValues>
            -1. 9.6709169447422028e-02</leafValues></_>
        <_>
          <internalNodes>
            0 -1 26 2.4546191561967134e-03</internalNodes>
          <leafValues>
            -9.1337078809738159e-01 1.6474188864231110e-01</leafValues></_>
        <_>
          <internalNodes>
            0 -1 2 2.6010820874944329e-04</internalNodes>
          <leafValues>
            1.5219084918498993e-01 -9.2224520444869995e-01</leafValues></_></weakClassifiers></_>
    <!-- stage 9 -->
    <_>
      <maxWeakCount>7</maxWeakCount>
      <stageThreshold>-9.5749872922897339e-01</stageThreshold>
      <weakClassifiers>
        <_>
          <internalNodes>
            0 -1 17 -2.5781165808439255e-02</internalNodes>
          <leafValues>
            -5.3336489200592041e-01 4.0828403830528259e-01</leafValues></_>
        <_>
          <internalNodes>
            0 -1 29 -1.3695723282580730e-05</internalNodes>
          <leafValues>
            -1. 1.1882658302783966e-01</leafValues></_>
        <_>
          <internalNodes>
            0 -1 27 -2.5613218895159662e-05</internalNodes>
          <leafValues>
            -9.7833961248397827e-01 1.2814782559871674e-01</leafValues></_>
        <_>
          <internalNodes>
            0 -1 5 1.3941010365670081e-05</internalNodes>
          <leafValues>
            1.3087721168994904e-01 -8.2998657226562500e-01</leafValues></_>
        <_>
          <internalNodes>
            0 -1 27 2.6729532692115754e-05</internalNodes>
          <leafValues>
            3.6962443590164185e-01 -3.7244206666946411e-01</leafValues></_>
        <_>
          <internalNodes>
            0 -1 22 2.5886743969749659e-05</internalNodes>
          <leafValues>
            3.9808097481727600e-01 -3.7575715780258179e-01</leafValues></_>
        <_>
          <internalNodes>
            0 -1 11 3.6968286149203777e-03</internalNodes>
          <leafValues>
            -9.6079319715499878e-01 1.6501106321811676e-01</leafValues></_></weakClassifiers></_>
    <!-- stage 10 -->
    <_>
      <maxWeakCount>5</maxWeakCount>
      <stageThreshold>-7.7172780036926270e-01</stageThreshold>
      <weakClassifiers>
        <_>
          <internalNodes>
            0 -1 30 -7.8722350299358368e-03</internalNodes>
          <leafValues>
            -9.3538463115692139e-01 -1.5837563574314117e-01</leafValues></_>
        <_>
          <internalNodes>
            0 -1 3 -2.1644150838255882e-03</internalNodes>
          <leafValues>
            9.2653684318065643e-02 -9.1476410627365112e-01</leafValues></_>
        <_>
          <internalNodes>
            0 -1 23 -1.2540912393887993e-05</internalNodes>
          <leafValues>
            -1. 1.0429335385560989e-01</leafValues></_>
        <_>
          <internalNodes>
            0 -1 4 2.5498082322883420e-05</internalNodes>
          <leafValues>
            9.4397142529487610e-02 -9.8252856731414795e-01</leafValues></_>
        <_>
          <internalNodes>
            0 -1 28 -2.9186567189753987e-05</internalNodes>
          <leafValues>
            -9.9539959430694580e-01 1.0272143781185150e-01</leafValues></_></weakClassifiers></_></stages>
  <features>
    <_>
      <rects>
        <_>
          0 0 1 4 -1.</_>
        <_>
          0 2 1 2 2.</_></rects>
      <tilted>0</tilted></_>
    <_>
      <rects>
        <_>
          0 0 2 24 -1.</_>
        <_>
          1 0 1 24 2.</_></rects>
      <tilted>0</tilted></_>
    <_>
      <rects>
        <_>
          0 3 6 6 -1.</_>
        <_>
          3 3 3 6 2.</_></rects>
      <tilted>0</tilted></_>
    <_>
      <rects>
        <_>
          0 4 2 16 -1.</_>
        <_>
          1 4 1 16 2.</_></rects>
      <tilted>0</tilted></_>
    <_>
      <rects>
        <_>
          0 11 2 2 -1.</_>
        <_>
          1 11 1 2 2.</_></rects>
      <tilted>0</tilted></_>
    <_>
      <rects>
        <_>
          0 15 6 3 -1.</_>
        <_>
          3 15 3 3 2.</_></rects>
      <tilted>0</tilted></_>
    <_>
      <rects>
        <_>
          0 18 24 6 -1.</_>
        <_>
          0 21 24 3 2.</_></rects>
      <tilted>0</tilted></_>
    <_>
      <rects>
        <_>
          0 21 1 3 -1.</_>
        <_>
          0 22 1 1 2.</_></rects>
      <tilted>0</tilted></_>
    <_>
      <rects>
        <_>
          0 22 24 2 -1.</_>
        <_>
          0 23 24 1 2.</_></rects>
      <tilted>0</tilted></_>
    <_>
      <rects>
        <_>
          0 23 4 1 -1.</_>
        <_>
          2 23 2 1 2.</_></rects>
      <tilted>0</tilted></_>
    <_>
      <rects>
        <_>
          1 0 22 2 -1.</_>
        <_>
          1 1 22 1 2.</_></rects>
      <tilted>0</tilted></_>
    <_>
      <rects>
        <_>
          1 22 22 2 -1.</_>
        <_>
          1 23 22 1 2.</_></rects>
      <tilted>0</tilted></_>
    <_>
      <rects>
        <_>
          2 0 19 2 -1.</_>
        <_>
          2 1 19 1 2.</_></rects>
      <tilted>0</tilted></_>
    <_>
      <rects>
        <_>
          2 0 21 2 -1.</_>
        <_>
          2 1 21 1 2.</_></rects>
      <tilted>0</tilted></_>
    <_>
      <rects>
        <_>
          3 22 2 2 -1.</_>
        <_>
          3 23 2 1 2.</_></rects>
      <tilted>0</tilted></_>
    <_>
      <rects>
        <_>
          7 4 6 17 -1.</_>
        <_>
          9 4 2 17 2.</_></rects>
      <tilted>0</tilted></_>
    <_>
      <rects>
        <_>
          7 10 12 3 -1.</_>
        <_>
          7 11 12 1 2.</_></rects>
      <tilted>0</tilted></_>
    <_>
      <rects>
        <_>
          7 11 10 3 -1.</_>
        <_>
          7 12 10 1 2.</_></rects>
      <tilted>0</tilted></_>
    <_>
      <rects>
        <_>
          12 3 9 21 -1.</_>
        <_>
          15 3 3 21 2.</_></rects>
      <tilted>0</tilted></_>
    <_>
      <rects>
        <_>
          12 9 3 6 -1.</_>
        <_>
          13 9 1 6 2.</_></rects>
      <tilted>0</tilted></_>
    <_>
      <rects>
        <_>
          18 0 6 24 -1.</_>
        <_>
          21 0 3 24 2.</_></rects>
      <tilted>0</tilted></_>
    <_>
      <rects>
        <_>
          20 0 4 1 -1.</_>
        <_>
          22 0 2 1 2.</_></rects>
      <tilted>0</tilted></_>
    <_>
      <rects>
        <_>
          20 22 4 2 -1.</_>
        <_>
          22 22 2 2 2.</_></rects>
      <tilted>0</tilted></_>
    <_>
      <rects>
        <_>
          22 0 2 1 -1.</_>
        <_>
          23 0 1 1 2.</_></rects>
      <tilted>0</tilted></_>
    <_>
      <rects>
        <_>
          22 0 2 4 -1.</_>
        <_>
          22 2 2 2 2.</_></rects>
      <tilted>0</tilted></_>
    <_>
      <rects>
        <_>
          22 1 2 23 -1.</_>
        <_>
          23 1 1 23 2.</_></rects>
      <tilted>0</tilted></_>
    <_>
      <rects>
        <_>
          22 4 2 17 -1.</_>
        <_>
          23 4 1 17 2.</_></rects>
      <tilted>0</tilted></_>
    <_>
      <rects>
        <_>
          22 8 2 2 -1.</_>
        <_>
          23 8 1 2 2.</_></rects>
      <tilted>0</tilted></_>
    <_>
      <rects>
        <_>
          22 17 2 3 -1.</_>
        <_>
          23 17 1 3 2.</_></rects>
      <tilted>0</tilted></_>
    <_>
      <rects>
        <_>
          22 22 2 2 -1.</_>
        <_>
          22 23 2 1 2.</_></rects>
      <tilted>0</tilted></_>
    <_>
      <rects>
        <_>
          23 21 1 3 -1.</_>
        <_>
          23 22 1 1 2.</_></rects>
      <tilted>0</tilted></_></features></cascade>
</opencv_storage>
