<?xml version="1.0"?>
<opencv_storage>
<stage15>
  <maxWeakCount>10</maxWeakCount>
  <stageThreshold>-1.0842815637588501e+00</stageThreshold>
  <weakClassifiers>
    <_>
      <internalNodes>
        0 -1 3913357 9.2122994363307953e-02</internalNodes>
      <leafValues>
        -4.9824970960617065e-01 3.0890053510665894e-01</leafValues></_>
    <_>
      <internalNodes>
        0 -1 6856 -1.9916319288313389e-03</internalNodes>
      <leafValues>
        9.0100392699241638e-02 -9.6522575616836548e-01</leafValues></_>
    <_>
      <internalNodes>
        0 -1 2888374 1.4382211957126856e-03</internalNodes>
      <leafValues>
        -8.5420292615890503e-01 1.5849208831787109e-01</leafValues></_>
    <_>
      <internalNodes>
        0 -1 611808 -2.7843850851058960e-01</internalNodes>
      <leafValues>
        1.2929755449295044e-01 -5.6754863262176514e-01</leafValues></_>
    <_>
      <internalNodes>
        0 -1 99349 -1.6504797339439392e-01</internalNodes>
      <leafValues>
        7.7036464214324951e-01 -1.3310541212558746e-01</leafValues></_>
    <_>
      <internalNodes>
        0 -1 3836566 -1.9151100423187017e-04</internalNodes>
      <leafValues>
        -5.3285944461822510e-01 2.2893206775188446e-01</leafValues></_>
    <_>
      <internalNodes>
        0 -1 806197 3.3581187017261982e-03</internalNodes>
      <leafValues>
        -1.9258515536785126e-01 5.3878891468048096e-01</leafValues></_>
    <_>
      <internalNodes>
        0 -1 1659153 1.0006599128246307e-01</internalNodes>
      <leafValues>
        -3.4798854589462280e-01 4.9414712190628052e-01</leafValues></_>
    <_>
      <internalNodes>
        0 -1 3871341 5.7731801643967628e-03</internalNodes>
      <leafValues>
        -3.5199692845344543e-01 2.8067889809608459e-01</leafValues></_>
    <_>
      <internalNodes>
        0 -1 6176812 7.7165494440123439e-04</internalNodes>
      <leafValues>
        1.1414296925067902e-01 -9.4389897584915161e-01</leafValues></_></weakClassifiers></stage15>
</opencv_storage>
