<?xml version="1.0"?>
<opencv_storage>
<stage14>
  <maxWeakCount>9</maxWeakCount>
  <stageThreshold>-1.0390911102294922e+00</stageThreshold>
  <weakClassifiers>
    <_>
      <internalNodes>
        0 -1 610053 2.7540174778550863e-03</internalNodes>
      <leafValues>
        -5.2797925472259521e-01 1.4347825944423676e-01</leafValues></_>
    <_>
      <internalNodes>
        0 -1 1005030 -2.1490408107638359e-03</internalNodes>
      <leafValues>
        3.7818866968154907e-01 -3.7347120046615601e-01</leafValues></_>
    <_>
      <internalNodes>
        0 -1 1622418 -6.6052712500095367e-02</internalNodes>
      <leafValues>
        5.6358206272125244e-01 -2.2882570326328278e-01</leafValues></_>
    <_>
      <internalNodes>
        0 -1 6261164 -2.8817580641771201e-06</internalNodes>
      <leafValues>
        -9.8105639219284058e-01 1.2423779815435410e-01</leafValues></_>
    <_>
      <internalNodes>
        0 -1 1868459 3.6080442368984222e-02</internalNodes>
      <leafValues>
        -1.4418807625770569e-01 7.9403114318847656e-01</leafValues></_>
    <_>
      <internalNodes>
        0 -1 90820 2.5487340735708131e-06</internalNodes>
      <leafValues>
        1.2652128934860229e-01 -9.5336407423019409e-01</leafValues></_>
    <_>
      <internalNodes>
        0 -1 1056749 -1.8125088536180556e-04</internalNodes>
      <leafValues>
        -2.6915761828422546e-01 3.6117610335350037e-01</leafValues></_>
    <_>
      <internalNodes>
        0 -1 3990737 1.1805674061179161e-02</internalNodes>
      <leafValues>
        -5.7232201099395752e-01 1.7477057874202728e-01</leafValues></_>
    <_>
      <internalNodes>
        0 -1 6198604 2.5298063519585412e-06</internalNodes>
      <leafValues>
        1.8691562116146088e-01 -6.7265880107879639e-01</leafValues></_></weakClassifiers></stage14>
</opencv_storage>
