<?xml version="1.0"?>
<opencv_storage>
<stage16>
  <maxWeakCount>10</maxWeakCount>
  <stageThreshold>-1.3072626590728760e+00</stageThreshold>
  <weakClassifiers>
    <_>
      <internalNodes>
        0 -1 3997625 -1.8813629867509007e-04</internalNodes>
      <leafValues>
        -7.4060559272766113e-02 -6.5506201982498169e-01</leafValues></_>
    <_>
      <internalNodes>
        0 -1 359090 -6.6047005020664074e-06</internalNodes>
      <leafValues>
        -5.6638079881668091e-01 1.6648590564727783e-01</leafValues></_>
    <_>
      <internalNodes>
        0 -1 812600 -4.1330038220621645e-04</internalNodes>
      <leafValues>
        1.2720723450183868e-01 -7.7828001976013184e-01</leafValues></_>
    <_>
      <internalNodes>
        0 -1 1734940 1.5364029677584767e-03</internalNodes>
      <leafValues>
        -7.4550175666809082e-01 1.8636041879653931e-01</leafValues></_>
    <_>
      <internalNodes>
        0 -1 206458 2.5868266675388440e-06</internalNodes>
      <leafValues>
        9.3389153480529785e-02 -9.8845070600509644e-01</leafValues></_>
    <_>
      <internalNodes>
        0 -1 3927193 8.3061210811138153e-02</internalNodes>
      <leafValues>
        -1.8796983361244202e-01 7.0986235141754150e-01</leafValues></_>
    <_>
      <internalNodes>
        0 -1 880809 -2.5274612198700197e-06</internalNodes>
      <leafValues>
        -5.5989903211593628e-01 2.2482702136039734e-01</leafValues></_>
    <_>
      <internalNodes>
        0 -1 1262606 8.2752808928489685e-02</internalNodes>
      <leafValues>
        -1.6848465800285339e-01 8.5072875022888184e-01</leafValues></_>
    <_>
      <internalNodes>
        0 -1 1255038 -1.6992862219922245e-04</internalNodes>
      <leafValues>
        -2.9057341814041138e-01 3.9413386583328247e-01</leafValues></_>
    <_>
      <internalNodes>
        0 -1 6261959 -5.8011664077639580e-03</internalNodes>
      <leafValues>
        -8.6963284015655518e-01 1.0204482823610306e-01</leafValues></_></weakClassifiers></stage16>
</opencv_storage>
