<?xml version="1.0"?>
<opencv_storage>
<stage11>
  <maxWeakCount>5</maxWeakCount>
  <stageThreshold>-8.0167049169540405e-01</stageThreshold>
  <weakClassifiers>
    <_>
      <internalNodes>
        0 -1 3 -1.0267817415297031e-03</internalNodes>
      <leafValues>
        -5.8284991979598999e-01 3.6941176652908325e-01</leafValues></_>
    <_>
      <internalNodes>
        0 -1 207884 -4.7081584853003733e-06</internalNodes>
      <leafValues>
        -7.4094712734222412e-01 2.5805088877677917e-01</leafValues></_>
    <_>
      <internalNodes>
        0 -1 6261946 -3.6871679185424000e-05</internalNodes>
      <leafValues>
        -7.8249263763427734e-01 1.7737005650997162e-01</leafValues></_>
    <_>
      <internalNodes>
        0 -1 2923095 -1.0831418633460999e-01</internalNodes>
      <leafValues>
        -1. 1.7082914710044861e-01</leafValues></_>
    <_>
      <internalNodes>
        0 -1 811600 -2.0247778138582362e-06</internalNodes>
      <leafValues>
        -8.2507061958312988e-01 1.8291023373603821e-01</leafValues></_></weakClassifiers></stage11>
</opencv_storage>
