<?xml version="1.0"?>
<opencv_storage>
<stage11>
  <maxWeakCount>7</maxWeakCount>
  <stageThreshold>-1.3071736097335815e+00</stageThreshold>
  <weakClassifiers>
    <_>
      <internalNodes>
        0 -1 5012 -4.9307070672512054e-02</internalNodes>
      <leafValues>
        -8.4737175703048706e-01 2.8081122785806656e-02</leafValues></_>
    <_>
      <internalNodes>
        0 -1 562 -8.4501922130584717e-02</internalNodes>
      <leafValues>
        -8.7682747840881348e-01 -4.0349257178604603e-03</leafValues></_>
    <_>
      <internalNodes>
        0 -1 159731 1.3488973308994900e-05</internalNodes>
      <leafValues>
        4.9379236996173859e-02 -9.8129272460937500e-01</leafValues></_>
    <_>
      <internalNodes>
        0 -1 126401 -4.2477816343307495e-02</internalNodes>
      <leafValues>
        -6.7394518852233887e-01 1.4155754446983337e-01</leafValues></_>
    <_>
      <internalNodes>
        0 -1 126087 1.4783689752221107e-02</internalNodes>
      <leafValues>
        -4.4565302133560181e-01 2.6858401298522949e-01</leafValues></_>
    <_>
      <internalNodes>
        0 -1 162232 1.3742293958785012e-05</internalNodes>
      <leafValues>
        1.0590318590402603e-01 -1.</leafValues></_>
    <_>
      <internalNodes>
        0 -1 29452 5.6415805593132973e-03</internalNodes>
      <leafValues>
        -1.4839835464954376e-01 7.8149574995040894e-01</leafValues></_></weakClassifiers></stage11>
</opencv_storage>
