<?xml version="1.0"?>
<opencv_storage>
<stage6>
  <maxWeakCount>5</maxWeakCount>
  <stageThreshold>-1.2397729158401489e+00</stageThreshold>
  <weakClassifiers>
    <_>
      <internalNodes>
        0 -1 104902 2.2466078400611877e-02</internalNodes>
      <leafValues>
        -6.7649173736572266e-01 6.8539327383041382e-01</leafValues></_>
    <_>
      <internalNodes>
        0 -1 136716 1.1096799373626709e-01</internalNodes>
      <leafValues>
        -5.6196880340576172e-01 5.2304947376251221e-01</leafValues></_>
    <_>
      <internalNodes>
        0 -1 152044 -1.3452787243295461e-05</internalNodes>
      <leafValues>
        -1. 3.1690511107444763e-01</leafValues></_>
    <_>
      <internalNodes>
        0 -1 2562 -1.5711820125579834e-01</internalNodes>
      <leafValues>
        3.9274510741233826e-01 -5.7319229841232300e-01</leafValues></_>
    <_>
      <internalNodes>
        0 -1 159638 -1.6068684999481775e-05</internalNodes>
      <leafValues>
        -9.9788564443588257e-01 2.5497484207153320e-01</leafValues></_></weakClassifiers></stage6>
</opencv_storage>
