<?xml version="1.0"?>
<opencv_storage>
<cascade>
  <stageType>BOOST</stageType>
  <featureType>HAAR</featureType>
  <height>24</height>
  <width>24</width>
  <stageParams>
    <boostType>GAB</boostType>
    <minHitRate>9.9500000476837158e-01</minHitRate>
    <maxFalseAlarm>5.0000000000000000e-01</maxFalseAlarm>
    <weightTrimRate>9.4999999999999996e-01</weightTrimRate>
    <maxDepth>1</maxDepth>
    <maxWeakCount>100</maxWeakCount></stageParams>
  <featureParams>
    <maxCatCount>0</maxCatCount>
    <featSize>1</featSize>
    <mode>BASIC</mode></featureParams>
  <stageNum>18</stageNum>
  <stages>
    <!-- stage 0 -->
    <_>
      <maxWeakCount>2</maxWeakCount>
      <stageThreshold>-2.1341048181056976e-01</stageThreshold>
      <weakClassifiers>
        <_>
          <internalNodes>
            0 -1 6 -1.3487842807080597e-04</internalNodes>
          <leafValues>
            7.5322282314300537e-01 -9.1439032554626465e-01</leafValues></_>
        <_>
          <internalNodes>
            0 -1 240 5.4675160208716989e-04</internalNodes>
          <leafValues>
            -9.0140229463577271e-01 7.0097982883453369e-01</leafValues></_></weakClassifiers></_>
    <!-- stage 1 -->
    <_>
      <maxWeakCount>3</maxWeakCount>
      <stageThreshold>-8.5067558288574219e-01</stageThreshold>
      <weakClassifiers>
        <_>
          <internalNodes>
            0 -1 73 3.0522387474775314e-02</internalNodes>
          <leafValues>
            -8.0364108085632324e-01 2.1482889354228973e-01</leafValues></_>
        <_>
          <internalNodes>
            0 -1 78 4.9667656421661377e-03</internalNodes>
          <leafValues>
            -5.6910991668701172e-01 4.5232883095741272e-01</leafValues></_>
        <_>
          <internalNodes>
            0 -1 84 -6.1256196349859238e-03</internalNodes>
          <leafValues>
            6.8795764446258545e-01 -4.9639457464218140e-01</leafValues></_></weakClassifiers></_>
    <!-- stage 2 -->
    <_>
      <maxWeakCount>7</maxWeakCount>
      <stageThreshold>-1.4461283683776855e+00</stageThreshold>
      <weakClassifiers>
        <_>
          <internalNodes>
            0 -1 7 -1.2871969491243362e-02</internalNodes>
          <leafValues>
            4.8788198828697205e-01 -5.8685892820358276e-01</leafValues></_>
        <_>
          <internalNodes>
            0 -1 227 1.2775589711964130e-02</internalNodes>
          <leafValues>
            -5.8936369419097900e-01 4.0396395325660706e-01</leafValues></_>
        <_>
          <internalNodes>
            0 -1 2 2.6439585781190544e-05</internalNodes>
          <leafValues>
            2.2218567132949829e-01 -9.4913464784622192e-01</leafValues></_>
        <_>
          <internalNodes>
            0 -1 68 -3.0517335981130600e-02</internalNodes>
          <leafValues>
            3.5603645443916321e-01 -5.4548186063766479e-01</leafValues></_>
        <_>
          <internalNodes>
            0 -1 244 1.0371522046625614e-02</internalNodes>
          <leafValues>
            -2.8200781345367432e-01 6.5398633480072021e-01</leafValues></_>
        <_>
          <internalNodes>
            0 -1 252 -1.1670953972497955e-04</internalNodes>
          <leafValues>
            -8.9203029870986938e-01 1.9622169435024261e-01</leafValues></_>
        <_>
          <internalNodes>
            0 -1 56 -1.0174046474276111e-04</internalNodes>
          <leafValues>
            -9.6985530853271484e-01 1.3917657732963562e-01</leafValues></_></weakClassifiers></_>
    <!-- stage 3 -->
    <_>
      <maxWeakCount>10</maxWeakCount>
      <stageThreshold>-1.7938101291656494e+00</stageThreshold>
      <weakClassifiers>
        <_>
          <internalNodes>
            0 -1 22 -2.3494970053434372e-02</internalNodes>
          <leafValues>
            6.6123187541961670e-02 -7.2880214452743530e-01</leafValues></_>
        <_>
          <internalNodes>
            0 -1 89 8.0480333417654037e-04</internalNodes>
          <leafValues>
            -6.5848225355148315e-01 1.8559856712818146e-01</leafValues></_>
        <_>
          <internalNodes>
            0 -1 16 -6.4092343673110008e-03</internalNodes>
          <leafValues>
            4.8523139953613281e-01 -3.9984712004661560e-01</leafValues></_>
        <_>
          <internalNodes>
            0 -1 161 -3.7184751126915216e-03</internalNodes>
          <leafValues>
            4.1888770461082458e-01 -3.6336183547973633e-01</leafValues></_>
        <_>
          <internalNodes>
            0 -1 265 -2.6045534468721598e-05</internalNodes>
          <leafValues>
            -9.8915719985961914e-01 1.5355025231838226e-01</leafValues></_>
        <_>
          <internalNodes>
            0 -1 235 -3.1122050131671131e-05</internalNodes>
          <leafValues>
            -8.6909586191177368e-01 1.1250576376914978e-01</leafValues></_>
        <_>
          <internalNodes>
            0 -1 248 5.0567612051963806e-03</internalNodes>
          <leafValues>
            -3.6011800169944763e-01 3.7202727794647217e-01</leafValues></_>
        <_>
          <internalNodes>
            0 -1 21 -1.0018995031714439e-02</internalNodes>
          <leafValues>
            5.2969241142272949e-01 -2.9136791825294495e-01</leafValues></_>
        <_>
          <internalNodes>
            0 -1 207 4.2727321386337280e-02</internalNodes>
          <leafValues>
            -2.9203277826309204e-01 4.3561911582946777e-01</leafValues></_>
        <_>
          <internalNodes>
            0 -1 60 1.0072816803585738e-04</internalNodes>
          <leafValues>
            1.4906744658946991e-01 -8.5955095291137695e-01</leafValues></_></weakClassifiers></_>
    <!-- stage 4 -->
    <_>
      <maxWeakCount>7</maxWeakCount>
      <stageThreshold>-1.1780860424041748e+00</stageThreshold>
      <weakClassifiers>
        <_>
          <internalNodes>
            0 -1 29 -6.0393549501895905e-03</internalNodes>
          <leafValues>
            5.5926114320755005e-02 -6.5892910957336426e-01</leafValues></_>
        <_>
          <internalNodes>
            0 -1 237 1.8517543139751069e-05</internalNodes>
          <leafValues>
            9.6110932528972626e-02 -8.7986868619918823e-01</leafValues></_>
        <_>
          <internalNodes>
            0 -1 254 -6.2127197452355176e-05</internalNodes>
          <leafValues>
            -9.0681868791580200e-01 1.1909107118844986e-01</leafValues></_>
        <_>
          <internalNodes>
            0 -1 243 2.2145512048155069e-03</internalNodes>
          <leafValues>
            -5.3384619951248169e-01 2.0428003370761871e-01</leafValues></_>
        <_>
          <internalNodes>
            0 -1 0 1.6578558643232100e-05</internalNodes>
          <leafValues>
            9.2866353690624237e-02 -9.7232145071029663e-01</leafValues></_>
        <_>
          <internalNodes>
            0 -1 159 6.0639404691755772e-03</internalNodes>
          <leafValues>
            -4.4583958387374878e-01 2.2216522693634033e-01</leafValues></_>
        <_>
          <internalNodes>
            0 -1 119 6.4438595436513424e-03</internalNodes>
          <leafValues>
            -2.3924629390239716e-01 4.1358494758605957e-01</leafValues></_></weakClassifiers></_>
    <!-- stage 5 -->
    <_>
      <maxWeakCount>10</maxWeakCount>
      <stageThreshold>-1.2681207656860352e+00</stageThreshold>
      <weakClassifiers>
        <_>
          <internalNodes>
            0 -1 17 -2.4139949679374695e-01</internalNodes>
          <leafValues>
            -1.5151515603065491e-01 -9.4838708639144897e-01</leafValues></_>
        <_>
          <internalNodes>
            0 -1 67 -4.9709621816873550e-03</internalNodes>
          <leafValues>
            2.1856705844402313e-01 -4.5440301299095154e-01</leafValues></_>
        <_>
          <internalNodes>
            0 -1 101 8.2199322059750557e-03</internalNodes>
          <leafValues>
            -3.1887635588645935e-01 4.3442997336387634e-01</leafValues></_>
        <_>
          <internalNodes>
            0 -1 176 4.7878380864858627e-03</internalNodes>
          <leafValues>
            -2.8897663950920105e-01 4.0260508656501770e-01</leafValues></_>
        <_>
          <internalNodes>
            0 -1 43 -2.9124522209167480e-01</internalNodes>
          <leafValues>
            1.5237420797348022e-01 -8.2149714231491089e-01</leafValues></_>
        <_>
          <internalNodes>
            0 -1 38 -1.2571685016155243e-02</internalNodes>
          <leafValues>
            3.5251250863075256e-01 -3.2554697990417480e-01</leafValues></_>
        <_>
          <internalNodes>
            0 -1 241 1.3178220950067043e-02</internalNodes>
          <leafValues>
            -2.3504805564880371e-01 4.9645754694938660e-01</leafValues></_>
        <_>
          <internalNodes>
            0 -1 189 -1.0932162404060364e-03</internalNodes>
          <leafValues>
            7.3368513584136963e-01 -1.6334670782089233e-01</leafValues></_>
        <_>
          <internalNodes>
            0 -1 61 1.9053915821132250e-05</internalNodes>
          <leafValues>
            1.5066410601139069e-01 -8.1265914440155029e-01</leafValues></_>
        <_>
          <internalNodes>
            0 -1 28 -1.3052061200141907e-02</internalNodes>
          <leafValues>
            5.3664237260818481e-01 -2.4104993045330048e-01</leafValues></_></weakClassifiers></_>
    <!-- stage 6 -->
    <_>
      <maxWeakCount>12</maxWeakCount>
      <stageThreshold>-1.3026006221771240e+00</stageThreshold>
      <weakClassifiers>
        <_>
          <internalNodes>
            0 -1 153 -7.7776843681931496e-03</internalNodes>
          <leafValues>
            -3.4658510237932205e-02 -6.0658794641494751e-01</leafValues></_>
        <_>
          <internalNodes>
            0 -1 225 -6.3107487221714109e-05</internalNodes>
          <leafValues>
            -8.1372332572937012e-01 8.8260762393474579e-02</leafValues></_>
        <_>
          <internalNodes>
            0 -1 28 -2.2110166028141975e-03</internalNodes>
          <leafValues>
            2.1987685561180115e-01 -4.7800850868225098e-01</leafValues></_>
        <_>
          <internalNodes>
            0 -1 8 2.6629664716892876e-05</internalNodes>
          <leafValues>
            1.1324549466371536e-01 -9.2443269491195679e-01</leafValues></_>
        <_>
          <internalNodes>
            0 -1 105 -6.0834645410068333e-05</internalNodes>
          <leafValues>
            1.4569109678268433e-01 -5.9504014253616333e-01</leafValues></_>
        <_>
          <internalNodes>
            0 -1 101 8.8680833578109741e-03</internalNodes>
          <leafValues>
            -2.8349846601486206e-01 3.7983050942420959e-01</leafValues></_>
        <_>
          <internalNodes>
            0 -1 25 3.4809175133705139e-01</internalNodes>
          <leafValues>
            1.4349496364593506e-01 -6.7137420177459717e-01</leafValues></_>
        <_>
          <internalNodes>
            0 -1 255 -1.9524459275999106e-05</internalNodes>
          <leafValues>
            -9.2230933904647827e-01 8.2752130925655365e-02</leafValues></_>
        <_>
          <internalNodes>
            0 -1 146 3.3057103864848614e-03</internalNodes>
          <leafValues>
            -2.4682898819446564e-01 3.6612591147422791e-01</leafValues></_>
        <_>
          <internalNodes>
            0 -1 264 1.3328505679965019e-02</internalNodes>
          <leafValues>
            9.2863187193870544e-02 -7.0811975002288818e-01</leafValues></_>
        <_>
          <internalNodes>
            0 -1 258 8.1403995864093304e-05</internalNodes>
          <leafValues>
            1.1432023346424103e-01 -7.1659994125366211e-01</leafValues></_>
        <_>
          <internalNodes>
            0 -1 223 2.6795651137945242e-05</internalNodes>
          <leafValues>
            -4.6830454468727112e-01 1.6752029955387115e-01</leafValues></_></weakClassifiers></_>
    <!-- stage 7 -->
    <_>
      <maxWeakCount>16</maxWeakCount>
      <stageThreshold>-1.3190251588821411e+00</stageThreshold>
      <weakClassifiers>
        <_>
          <internalNodes>
            0 -1 232 -1.7094418406486511e-01</internalNodes>
          <leafValues>
            -2.4969549477100372e-01 -9.2558139562606812e-01</leafValues></_>
        <_>
          <internalNodes>
            0 -1 58 5.9859186876565218e-05</internalNodes>
          <leafValues>
            -6.3683050870895386e-01 6.5792642533779144e-02</leafValues></_>
        <_>
          <internalNodes>
            0 -1 265 1.8252854715683497e-05</internalNodes>
          <leafValues>
            1.4864070713520050e-01 -5.5893254280090332e-01</leafValues></_>
        <_>
          <internalNodes>
            0 -1 250 2.8954682871699333e-02</internalNodes>
          <leafValues>
            1.2264310568571091e-01 -8.4024935960769653e-01</leafValues></_>
        <_>
          <internalNodes>
            0 -1 168 -4.4886316172778606e-03</internalNodes>
          <leafValues>
            4.8236879706382751e-01 -1.8828696012496948e-01</leafValues></_>
        <_>
          <internalNodes>
            0 -1 105 -8.2723191007971764e-03</internalNodes>
          <leafValues>
            3.9370536804199219e-01 -2.0662051439285278e-01</leafValues></_>
        <_>
          <internalNodes>
            0 -1 150 1.6994526609778404e-02</internalNodes>
          <leafValues>
            1.1223360896110535e-01 -7.9399609565734863e-01</leafValues></_>
        <_>
          <internalNodes>
            0 -1 11 -2.8922740370035172e-02</internalNodes>
          <leafValues>
            -8.8534641265869141e-01 6.9438055157661438e-02</leafValues></_>
        <_>
          <internalNodes>
            0 -1 86 3.5826915409415960e-03</internalNodes>
          <leafValues>
            -1.9499553740024567e-01 4.5084324479103088e-01</leafValues></_>
        <_>
          <internalNodes>
            0 -1 210 -3.0711351428180933e-03</internalNodes>
          <leafValues>
            6.7164921760559082e-01 -1.2064263969659805e-01</leafValues></_>
        <_>
          <internalNodes>
            0 -1 56 -2.1906311303609982e-05</internalNodes>
          <leafValues>
            -9.0242493152618408e-01 9.9477633833885193e-02</leafValues></_>
        <_>
          <internalNodes>
            0 -1 126 -3.0882703140377998e-03</internalNodes>
          <leafValues>
            4.5888671278953552e-01 -1.9336187839508057e-01</leafValues></_>
        <_>
          <internalNodes>
            0 -1 245 7.3556133429519832e-05</internalNodes>
          <leafValues>
            -5.3999435901641846e-01 1.8850591778755188e-01</leafValues></_>
        <_>
          <internalNodes>
            0 -1 33 -3.3946955204010010e-01</internalNodes>
          <leafValues>
            -8.6325299739837646e-01 7.9369857907295227e-02</leafValues></_>
        <_>
          <internalNodes>
            0 -1 95 -2.7235215529799461e-03</internalNodes>
          <leafValues>
            2.4501988291740417e-01 -3.3358046412467957e-01</leafValues></_>
        <_>
          <internalNodes>
            0 -1 124 -8.6929770186543465e-03</internalNodes>
          <leafValues>
            7.1191334724426270e-01 -1.2677586078643799e-01</leafValues></_></weakClassifiers></_>
    <!-- stage 8 -->
    <_>
      <maxWeakCount>19</maxWeakCount>
      <stageThreshold>-1.3272191286087036e+00</stageThreshold>
      <weakClassifiers>
        <_>
          <internalNodes>
            0 -1 87 -1.2996688019484282e-03</internalNodes>
          <leafValues>
            3.2098766416311264e-02 -5.1929384469985962e-01</leafValues></_>
        <_>
          <internalNodes>
            0 -1 1 -1.4784882296225987e-05</internalNodes>
          <leafValues>
            -5.5421245098114014e-01 1.0249368846416473e-01</leafValues></_>
        <_>
          <internalNodes>
            0 -1 236 1.2846680358052254e-02</internalNodes>
          <leafValues>
            -2.1233655512332916e-01 3.6058017611503601e-01</leafValues></_>
        <_>
          <internalNodes>
            0 -1 37 -7.6203956268727779e-05</internalNodes>
          <leafValues>
            1.9020253419876099e-01 -5.0507348775863647e-01</leafValues></_>
        <_>
          <internalNodes>
            0 -1 82 -1.7455242574214935e-02</internalNodes>
          <leafValues>
            -7.0757526159286499e-01 6.3562735915184021e-02</leafValues></_>
        <_>
          <internalNodes>
            0 -1 1 2.1101026504766196e-05</internalNodes>
          <leafValues>
            7.5960390269756317e-02 -9.7783172130584717e-01</leafValues></_>
        <_>
          <internalNodes>
            0 -1 32 -2.9211002588272095e-01</internalNodes>
          <leafValues>
            -1. 5.2478581666946411e-02</leafValues></_>
        <_>
          <internalNodes>
            0 -1 265 -1.9224436982767656e-05</internalNodes>
          <leafValues>
            -9.8017764091491699e-01 3.8677886128425598e-02</leafValues></_>
        <_>
          <internalNodes>
            0 -1 132 5.1977640396216884e-05</internalNodes>
          <leafValues>
            -5.0404816865921021e-01 1.1362818628549576e-01</leafValues></_>
        <_>
          <internalNodes>
            0 -1 134 3.4292820096015930e-01</internalNodes>
          <leafValues>
            8.0136574804782867e-02 -7.9552131891250610e-01</leafValues></_>
        <_>
          <internalNodes>
            0 -1 66 -5.0144677516072989e-05</internalNodes>
          <leafValues>
            1.1943659186363220e-01 -5.1769763231277466e-01</leafValues></_>
        <_>
          <internalNodes>
            0 -1 235 -1.0808896149683278e-05</internalNodes>
          <leafValues>
            -9.3867498636245728e-01 7.0226103067398071e-02</leafValues></_>
        <_>
          <internalNodes>
            0 -1 201 8.1340935139451176e-05</internalNodes>
          <leafValues>
            1.4310163259506226e-01 -4.1070568561553955e-01</leafValues></_>
        <_>
          <internalNodes>
            0 -1 165 2.8326585888862610e-03</internalNodes>
          <leafValues>
            -1.2359362840652466e-01 5.3925168514251709e-01</leafValues></_>
        <_>
          <internalNodes>
            0 -1 198 1.7676185816526413e-02</internalNodes>
          <leafValues>
            -1.1312026530504227e-01 5.2698069810867310e-01</leafValues></_>
        <_>
          <internalNodes>
            0 -1 203 -5.0369673408567905e-04</internalNodes>
          <leafValues>
            4.2145940661430359e-01 -1.5569224953651428e-01</leafValues></_>
        <_>
          <internalNodes>
            0 -1 20 -1.3029059395194054e-02</internalNodes>
          <leafValues>
            4.1154918074607849e-01 -1.6194900870323181e-01</leafValues></_>
        <_>
          <internalNodes>
            0 -1 145 -1.3196728192269802e-02</internalNodes>
          <leafValues>
            7.2378420829772949e-01 -8.3047345280647278e-02</leafValues></_>
        <_>
          <internalNodes>
            0 -1 226 1.1134967207908630e-03</internalNodes>
          <leafValues>
            -2.4252818524837494e-01 2.6629126071929932e-01</leafValues></_></weakClassifiers></_>
    <!-- stage 9 -->
    <_>
      <maxWeakCount>21</maxWeakCount>
      <stageThreshold>-1.3632330894470215e+00</stageThreshold>
      <weakClassifiers>
        <_>
          <internalNodes>
            0 -1 54 1.3357571333472151e-05</internalNodes>
          <leafValues>
            -2.9535096883773804e-01 -9.1414141654968262e-01</leafValues></_>
        <_>
          <internalNodes>
            0 -1 24 -1.5197153091430664e+00</internalNodes>
          <leafValues>
            2.1260790526866913e-02 -1.</leafValues></_>
        <_>
          <internalNodes>
            0 -1 140 7.8904224210418761e-05</internalNodes>
          <leafValues>
            -4.8569726943969727e-01 1.5918430685997009e-01</leafValues></_>
        <_>
          <internalNodes>
            0 -1 94 -5.4753134463680908e-05</internalNodes>
          <leafValues>
            1.1399984359741211e-01 -5.2861779928207397e-01</leafValues></_>
        <_>
          <internalNodes>
            0 -1 49 2.8227233886718750e-01</internalNodes>
          <leafValues>
            5.2817396819591522e-02 -9.4672209024429321e-01</leafValues></_>
        <_>
          <internalNodes>
            0 -1 195 2.2540118545293808e-02</internalNodes>
          <leafValues>
            6.6527999937534332e-02 -6.4729952812194824e-01</leafValues></_>
        <_>
          <internalNodes>
            0 -1 136 -9.2363322619348764e-04</internalNodes>
          <leafValues>
            4.0036144852638245e-01 -1.6275255382061005e-01</leafValues></_>
        <_>
          <internalNodes>
            0 -1 12 -4.2632818804122508e-05</internalNodes>
          <leafValues>
            1.6416503489017487e-01 -3.5835984349250793e-01</leafValues></_>
        <_>
          <internalNodes>
            0 -1 222 7.7186341513879597e-05</internalNodes>
          <leafValues>
            1.3956013321876526e-01 -4.3094229698181152e-01</leafValues></_>
        <_>
          <internalNodes>
            0 -1 115 -8.8658798485994339e-03</internalNodes>
          <leafValues>
            5.6196206808090210e-01 -1.2567396461963654e-01</leafValues></_>
        <_>
          <internalNodes>
            0 -1 208 1.7192587256431580e-02</internalNodes>
          <leafValues>
            -3.2743781805038452e-01 1.8192218244075775e-01</leafValues></_>
        <_>
          <internalNodes>
            0 -1 182 4.0439749136567116e-03</internalNodes>
          <leafValues>
            -1.1955261230468750e-01 5.2677112817764282e-01</leafValues></_>
        <_>
          <internalNodes>
            0 -1 185 4.5992303639650345e-03</internalNodes>
          <leafValues>
            -9.0312384068965912e-02 6.3242989778518677e-01</leafValues></_>
        <_>
          <internalNodes>
            0 -1 9 2.0965335352229886e-05</internalNodes>
          <leafValues>
            9.3057185411453247e-02 -6.9664919376373291e-01</leafValues></_>
        <_>
          <internalNodes>
            0 -1 4 -1.9520893692970276e-02</internalNodes>
          <leafValues>
            -8.2101249694824219e-01 4.7124128788709641e-02</leafValues></_>
        <_>
          <internalNodes>
            0 -1 76 6.5413449192419648e-05</internalNodes>
          <leafValues>
            -5.3348743915557861e-01 9.6062406897544861e-02</leafValues></_>
        <_>
          <internalNodes>
            0 -1 117 2.7739137876778841e-03</internalNodes>
          <leafValues>
            -1.7629905045032501e-01 3.4544143080711365e-01</leafValues></_>
        <_>
          <internalNodes>
            0 -1 152 1.6910545527935028e-01</internalNodes>
          <leafValues>
            1.4283415675163269e-01 -3.6697822809219360e-01</leafValues></_>
        <_>
          <internalNodes>
            0 -1 205 -3.4245289862155914e-04</internalNodes>
          <leafValues>
            -5.9467995166778564e-01 8.7643943727016449e-02</leafValues></_>
        <_>
          <internalNodes>
            0 -1 256 -1.4976630154706072e-05</internalNodes>
          <leafValues>
            -9.3379825353622437e-01 4.7148890793323517e-02</leafValues></_>
        <_>
          <internalNodes>
            0 -1 172 3.2301256433129311e-03</internalNodes>
          <leafValues>
            -9.6735320985317230e-02 6.4588010311126709e-01</leafValues></_></weakClassifiers></_>
    <!-- stage 10 -->
    <_>
      <maxWeakCount>21</maxWeakCount>
      <stageThreshold>-1.4100165367126465e+00</stageThreshold>
      <weakClassifiers>
        <_>
          <internalNodes>
            0 -1 96 -4.7947186976671219e-03</internalNodes>
          <leafValues>
            -1.0909090936183929e-01 -5.7993525266647339e-01</leafValues></_>
        <_>
          <internalNodes>
            0 -1 48 5.4937820095801726e-05</internalNodes>
          <leafValues>
            -4.2391568422317505e-01 1.6974174976348877e-01</leafValues></_>
        <_>
          <internalNodes>
            0 -1 99 8.3042960613965988e-03</internalNodes>
          <leafValues>
            -2.0855788886547089e-01 3.0549067258834839e-01</leafValues></_>
        <_>
          <internalNodes>
            0 -1 239 -2.3945183784235269e-05</internalNodes>
          <leafValues>
            -6.4232003688812256e-01 1.5109327435493469e-01</leafValues></_>
        <_>
          <internalNodes>
            0 -1 14 -2.5785687565803528e-01</internalNodes>
          <leafValues>
            -4.7288590669631958e-01 9.8622962832450867e-02</leafValues></_>
        <_>
          <internalNodes>
            0 -1 202 8.5978787392377853e-03</internalNodes>
          <leafValues>
            -1.0854640603065491e-01 5.5478513240814209e-01</leafValues></_>
        <_>
          <internalNodes>
            0 -1 103 -1.1809975840151310e-03</internalNodes>
          <leafValues>
            2.2466085851192474e-01 -3.0453556776046753e-01</leafValues></_>
        <_>
          <internalNodes>
            0 -1 91 -2.7134786359965801e-03</internalNodes>
          <leafValues>
            3.9268776774406433e-01 -1.6000302135944366e-01</leafValues></_>
        <_>
          <internalNodes>
            0 -1 215 5.3764386102557182e-03</internalNodes>
          <leafValues>
            -2.3444835841655731e-01 2.5771498680114746e-01</leafValues></_>
        <_>
          <internalNodes>
            0 -1 190 -4.0586022660136223e-03</internalNodes>
          <leafValues>
            6.6574001312255859e-01 -8.8586293160915375e-02</leafValues></_>
        <_>
          <internalNodes>
            0 -1 62 -1.7296152189373970e-02</internalNodes>
          <leafValues>
            -9.3282622098922729e-01 6.6761828958988190e-02</leafValues></_>
        <_>
          <internalNodes>
            0 -1 241 1.3117482885718346e-02</internalNodes>
          <leafValues>
            -2.0458444952964783e-01 2.6323407888412476e-01</leafValues></_>
        <_>
          <internalNodes>
            0 -1 213 -7.8685756307095289e-05</internalNodes>
          <leafValues>
            -2.9955956339836121e-01 1.7875112593173981e-01</leafValues></_>
        <_>
          <internalNodes>
            0 -1 27 -3.1436691642738879e-05</internalNodes>
          <leafValues>
            1.0837946087121964e-01 -4.8390814661979675e-01</leafValues></_>
        <_>
          <internalNodes>
            0 -1 46 -1.4358367770910263e-03</internalNodes>
          <leafValues>
            -7.3649066686630249e-01 8.0026745796203613e-02</leafValues></_>
        <_>
          <internalNodes>
            0 -1 10 1.1074283975176513e-04</internalNodes>
          <leafValues>
            6.1013568192720413e-02 -6.9182771444320679e-01</leafValues></_>
        <_>
          <internalNodes>
            0 -1 163 -2.5443029589951038e-03</internalNodes>
          <leafValues>
            1.6130608320236206e-01 -3.2046577334403992e-01</leafValues></_>
        <_>
          <internalNodes>
            0 -1 106 -2.1220917999744415e-01</internalNodes>
          <leafValues>
            -7.9734945297241211e-01 7.4894994497299194e-02</leafValues></_>
        <_>
          <internalNodes>
            0 -1 209 1.5515976119786501e-03</internalNodes>
          <leafValues>
            -1.5110686421394348e-01 4.0390369296073914e-01</leafValues></_>
        <_>
          <internalNodes>
            0 -1 143 2.0417356863617897e-03</internalNodes>
          <leafValues>
            -1.1708815395832062e-01 4.5827460289001465e-01</leafValues></_>
        <_>
          <internalNodes>
            0 -1 194 -4.8704026266932487e-03</internalNodes>
          <leafValues>
            4.5465824007987976e-01 -1.1257971823215485e-01</leafValues></_></weakClassifiers></_>
    <!-- stage 11 -->
    <_>
      <maxWeakCount>22</maxWeakCount>
      <stageThreshold>-1.2253905534744263e+00</stageThreshold>
      <weakClassifiers>
        <_>
          <internalNodes>
            0 -1 135 -9.2976856976747513e-03</internalNodes>
          <leafValues>
            1.7929759621620178e-01 -4.5634835958480835e-01</leafValues></_>
        <_>
          <internalNodes>
            0 -1 37 -6.0115671658422798e-05</internalNodes>
          <leafValues>
            8.8056206703186035e-02 -4.9970906972885132e-01</leafValues></_>
        <_>
          <internalNodes>
            0 -1 60 2.0505382053670473e-05</internalNodes>
          <leafValues>
            4.6643193811178207e-02 -9.4294428825378418e-01</leafValues></_>
        <_>
          <internalNodes>
            0 -1 171 1.9042010605335236e-01</internalNodes>
          <leafValues>
            6.3977785408496857e-02 -8.2131147384643555e-01</leafValues></_>
        <_>
          <internalNodes>
            0 -1 69 -6.2446553783956915e-05</internalNodes>
          <leafValues>
            1.0171660780906677e-01 -5.4091703891754150e-01</leafValues></_>
        <_>
          <internalNodes>
            0 -1 167 3.8663728628307581e-03</internalNodes>
          <leafValues>
            -1.0894403606653214e-01 5.3377175331115723e-01</leafValues></_>
        <_>
          <internalNodes>
            0 -1 63 -1.4832492917776108e-02</internalNodes>
          <leafValues>
            -5.3228992223739624e-01 1.0258010029792786e-01</leafValues></_>
        <_>
          <internalNodes>
            0 -1 90 -1.0120046790689230e-03</internalNodes>
          <leafValues>
            2.7796795964241028e-01 -1.8088361620903015e-01</leafValues></_>
        <_>
          <internalNodes>
            0 -1 177 2.1767984435427934e-04</internalNodes>
          <leafValues>
            -2.7804243564605713e-01 2.0738852024078369e-01</leafValues></_>
        <_>
          <internalNodes>
            0 -1 231 1.2363153509795666e-03</internalNodes>
          <leafValues>
            1.0392013937234879e-01 -4.3792024254798889e-01</leafValues></_>
        <_>
          <internalNodes>
            0 -1 39 -1.3940441608428955e-01</internalNodes>
          <leafValues>
            -7.6449441909790039e-01 6.0049075633287430e-02</leafValues></_>
        <_>
          <internalNodes>
            0 -1 64 2.6781754568219185e-02</internalNodes>
          <leafValues>
            5.3299441933631897e-02 -7.7187967300415039e-01</leafValues></_>
        <_>
          <internalNodes>
            0 -1 259 -9.7927134484052658e-03</internalNodes>
          <leafValues>
            -5.1929837465286255e-01 8.0790556967258453e-02</leafValues></_>
        <_>
          <internalNodes>
            0 -1 246 2.8011635877192020e-03</internalNodes>
          <leafValues>
            -3.3939760923385620e-01 1.4192406833171844e-01</leafValues></_>
        <_>
          <internalNodes>
            0 -1 114 -4.7584748826920986e-03</internalNodes>
          <leafValues>
            4.6059957146644592e-01 -1.3292826712131500e-01</leafValues></_>
        <_>
          <internalNodes>
            0 -1 118 2.1000276319682598e-05</internalNodes>
          <leafValues>
            1.5925741195678711e-01 -3.1580093502998352e-01</leafValues></_>
        <_>
          <internalNodes>
            0 -1 45 2.7504086494445801e-01</internalNodes>
          <leafValues>
            5.2072960883378983e-02 -8.3795726299285889e-01</leafValues></_>
        <_>
          <internalNodes>
            0 -1 164 8.4919668734073639e-03</internalNodes>
          <leafValues>
            -1.1207477748394012e-01 5.3853958845138550e-01</leafValues></_>
        <_>
          <internalNodes>
            0 -1 186 1.2642908841371536e-02</internalNodes>
          <leafValues>
            -6.4238026738166809e-02 7.0315676927566528e-01</leafValues></_>
        <_>
          <internalNodes>
            0 -1 148 -5.2054198458790779e-03</internalNodes>
          <leafValues>
            -6.9383203983306885e-01 8.5078485310077667e-02</leafValues></_>
        <_>
          <internalNodes>
            0 -1 88 -7.2449585422873497e-03</internalNodes>
          <leafValues>
            -4.4621622562408447e-01 1.0101563483476639e-01</leafValues></_>
        <_>
          <internalNodes>
            0 -1 125 7.7315920498222113e-04</internalNodes>
          <leafValues>
            -1.6643537580966949e-01 2.9077249765396118e-01</leafValues></_></weakClassifiers></_>
    <!-- stage 12 -->
    <_>
      <maxWeakCount>23</maxWeakCount>
      <stageThreshold>-1.2081960439682007e+00</stageThreshold>
      <weakClassifiers>
        <_>
          <internalNodes>
            0 -1 216 -4.0929159149527550e-03</internalNodes>
          <leafValues>
            4.0277779102325439e-01 -4.3663123250007629e-01</leafValues></_>
        <_>
          <internalNodes>
            0 -1 85 -2.2740200161933899e-01</internalNodes>
          <leafValues>
            -4.7391292452812195e-01 9.9292501807212830e-02</leafValues></_>
        <_>
          <internalNodes>
            0 -1 131 2.6474899641470984e-05</internalNodes>
          <leafValues>
            -5.3470271825790405e-01 1.1622658371925354e-01</leafValues></_>
        <_>
          <internalNodes>
            0 -1 1 -1.1585902029764839e-05</internalNodes>
          <leafValues>
            -5.2034151554107666e-01 1.1512304842472076e-01</leafValues></_>
        <_>
          <internalNodes>
            0 -1 234 -9.6783116459846497e-03</internalNodes>
          <leafValues>
            6.9741509854793549e-02 -9.0757071971893311e-01</leafValues></_>
        <_>
          <internalNodes>
            0 -1 23 -3.5314261913299561e-01</internalNodes>
          <leafValues>
            -4.1216757893562317e-01 1.2120124697685242e-01</leafValues></_>
        <_>
          <internalNodes>
            0 -1 160 6.2117964262142777e-05</internalNodes>
          <leafValues>
            1.1326653510332108e-01 -4.2357122898101807e-01</leafValues></_>
        <_>
          <internalNodes>
            0 -1 156 1.6324551403522491e-01</internalNodes>
          <leafValues>
            4.1489005088806152e-02 -8.6369025707244873e-01</leafValues></_>
        <_>
          <internalNodes>
            0 -1 151 -2.2770198993384838e-03</internalNodes>
          <leafValues>
            1.3181945681571960e-01 -4.1215971112251282e-01</leafValues></_>
        <_>
          <internalNodes>
            0 -1 173 -1.3505516573786736e-02</internalNodes>
          <leafValues>
            6.4154928922653198e-01 -9.6885256469249725e-02</leafValues></_>
        <_>
          <internalNodes>
            0 -1 197 -7.5248843058943748e-03</internalNodes>
          <leafValues>
            3.7868982553482056e-01 -1.2143188714981079e-01</leafValues></_>
        <_>
          <internalNodes>
            0 -1 121 -2.2123719751834869e-01</internalNodes>
          <leafValues>
            -9.3758833408355713e-01 4.7467377036809921e-02</leafValues></_>
        <_>
          <internalNodes>
            0 -1 233 -6.7476023104973137e-05</internalNodes>
          <leafValues>
            -6.0951596498489380e-01 6.0005258768796921e-02</leafValues></_>
        <_>
          <internalNodes>
            0 -1 122 3.6354690790176392e-01</internalNodes>
          <leafValues>
            6.6994085907936096e-02 -6.9417756795883179e-01</leafValues></_>
        <_>
          <internalNodes>
            0 -1 8 2.5477722374489531e-05</internalNodes>
          <leafValues>
            4.1114129126071930e-02 -9.0320575237274170e-01</leafValues></_>
        <_>
          <internalNodes>
            0 -1 154 -3.1384348403662443e-03</internalNodes>
          <leafValues>
            2.5469857454299927e-01 -1.7951458692550659e-01</leafValues></_>
        <_>
          <internalNodes>
            0 -1 57 -1.7944747014553286e-05</internalNodes>
          <leafValues>
            -7.0092898607254028e-01 6.6681347787380219e-02</leafValues></_>
        <_>
          <internalNodes>
            0 -1 71 2.4474360048770905e-02</internalNodes>
          <leafValues>
            -9.4830147922039032e-02 5.4005593061447144e-01</leafValues></_>
        <_>
          <internalNodes>
            0 -1 175 1.2904541566967964e-02</internalNodes>
          <leafValues>
            -8.3095677196979523e-02 5.3586059808731079e-01</leafValues></_>
        <_>
          <internalNodes>
            0 -1 157 -4.5053586363792419e-03</internalNodes>
          <leafValues>
            4.5126906037330627e-01 -1.0208763927221298e-01</leafValues></_>
        <_>
          <internalNodes>
            0 -1 192 -1.0875212028622627e-02</internalNodes>
          <leafValues>
            6.5822786092758179e-01 -6.0444008558988571e-02</leafValues></_>
        <_>
          <internalNodes>
            0 -1 217 -2.2503666114062071e-03</internalNodes>
          <leafValues>
            3.0765363574028015e-01 -1.3461907207965851e-01</leafValues></_>
        <_>
          <internalNodes>
            0 -1 123 1.0310315527021885e-02</internalNodes>
          <leafValues>
            -1.0284126549959183e-01 4.1956928372383118e-01</leafValues></_></weakClassifiers></_>
    <!-- stage 13 -->
    <_>
      <maxWeakCount>19</maxWeakCount>
      <stageThreshold>-1.1251904964447021e+00</stageThreshold>
      <weakClassifiers>
        <_>
          <internalNodes>
            0 -1 249 5.4459225793834776e-05</internalNodes>
          <leafValues>
            -7.6106196641921997e-01 -2.5836819410324097e-01</leafValues></_>
        <_>
          <internalNodes>
            0 -1 18 -1.3070109486579895e-01</internalNodes>
          <leafValues>
            -7.7863043546676636e-01 1.8216472119092941e-02</leafValues></_>
        <_>
          <internalNodes>
            0 -1 15 1.7508424818515778e-02</internalNodes>
          <leafValues>
            1.0503598302602768e-01 -5.8419096469879150e-01</leafValues></_>
        <_>
          <internalNodes>
            0 -1 260 -6.6523469286039472e-05</internalNodes>
          <leafValues>
            2.2703155875205994e-01 -2.4251116812229156e-01</leafValues></_>
        <_>
          <internalNodes>
            0 -1 263 9.2260044766589999e-05</internalNodes>
          <leafValues>
            -2.7246072888374329e-01 2.9622933268547058e-01</leafValues></_>
        <_>
          <internalNodes>
            0 -1 257 1.3868501810065936e-05</internalNodes>
          <leafValues>
            3.5249207168817520e-02 -9.2333453893661499e-01</leafValues></_>
        <_>
          <internalNodes>
            0 -1 55 -5.7160839787684381e-05</internalNodes>
          <leafValues>
            1.9318774342536926e-01 -2.5696727633476257e-01</leafValues></_>
        <_>
          <internalNodes>
            0 -1 102 2.5911204284057021e-04</internalNodes>
          <leafValues>
            -1.9044390320777893e-01 3.0752375721931458e-01</leafValues></_>
        <_>
          <internalNodes>
            0 -1 196 -8.0682584666647017e-05</internalNodes>
          <leafValues>
            -4.4668838381767273e-01 1.4265812933444977e-01</leafValues></_>
        <_>
          <internalNodes>
            0 -1 75 -1.9362776583875529e-05</internalNodes>
          <leafValues>
            -6.4595848321914673e-01 6.2117215245962143e-02</leafValues></_>
        <_>
          <internalNodes>
            0 -1 3 -1.1968895792961121e-02</internalNodes>
          <leafValues>
            -1. 3.1093670055270195e-02</leafValues></_>
        <_>
          <internalNodes>
            0 -1 26 -9.9171278998255730e-03</internalNodes>
          <leafValues>
            3.8108177483081818e-02 -7.3650908470153809e-01</leafValues></_>
        <_>
          <internalNodes>
            0 -1 193 2.8092092834413052e-03</internalNodes>
          <leafValues>
            -7.2323486208915710e-02 6.1066168546676636e-01</leafValues></_>
        <_>
          <internalNodes>
            0 -1 242 -7.6438242103904486e-05</internalNodes>
          <leafValues>
            -5.3257352113723755e-01 8.5614651441574097e-02</leafValues></_>
        <_>
          <internalNodes>
            0 -1 188 -1.0040598921477795e-02</internalNodes>
          <leafValues>
            7.5018340349197388e-01 -7.3511771857738495e-02</leafValues></_>
        <_>
          <internalNodes>
            0 -1 0 6.1589038523379713e-05</internalNodes>
          <leafValues>
            5.5998452007770538e-02 -9.7133314609527588e-01</leafValues></_>
        <_>
          <internalNodes>
            0 -1 31 -1.1792307719588280e-02</internalNodes>
          <leafValues>
            -4.5819905400276184e-01 7.6721653342247009e-02</leafValues></_>
        <_>
          <internalNodes>
            0 -1 180 1.3282652944326401e-02</internalNodes>
          <leafValues>
            -1.0933962464332581e-01 4.8816332221031189e-01</leafValues></_>
        <_>
          <internalNodes>
            0 -1 149 1.0836174624273553e-04</internalNodes>
          <leafValues>
            8.0124177038669586e-02 -5.8118277788162231e-01</leafValues></_></weakClassifiers></_>
    <!-- stage 14 -->
    <_>
      <maxWeakCount>22</maxWeakCount>
      <stageThreshold>-1.1211557388305664e+00</stageThreshold>
      <weakClassifiers>
        <_>
          <internalNodes>
            0 -1 108 2.2155857086181641e-01</internalNodes>
          <leafValues>
            -4.5454546809196472e-01 2.3809523880481720e-01</leafValues></_>
        <_>
          <internalNodes>
            0 -1 41 -3.6646780790761113e-04</internalNodes>
          <leafValues>
            3.1484627723693848e-01 -1.7785529792308807e-01</leafValues></_>
        <_>
          <internalNodes>
            0 -1 59 5.3256513638189062e-05</internalNodes>
          <leafValues>
            -5.5579441785812378e-01 9.1518521308898926e-02</leafValues></_>
        <_>
          <internalNodes>
            0 -1 199 3.3549417275935411e-04</internalNodes>
          <leafValues>
            -1.0901236534118652e-01 3.1604248285293579e-01</leafValues></_>
        <_>
          <internalNodes>
            0 -1 184 2.0241856575012207e-02</internalNodes>
          <leafValues>
            -4.8178106546401978e-02 8.0179488658905029e-01</leafValues></_>
        <_>
          <internalNodes>
            0 -1 155 1.2953991070389748e-02</internalNodes>
          <leafValues>
            -9.8087951540946960e-02 3.9617660641670227e-01</leafValues></_>
        <_>
          <internalNodes>
            0 -1 144 -8.0153439193964005e-03</internalNodes>
          <leafValues>
            3.9798668026924133e-01 -1.0882567614316940e-01</leafValues></_>
        <_>
          <internalNodes>
            0 -1 77 -6.5373380493838340e-05</internalNodes>
          <leafValues>
            7.6150321960449219e-01 -4.4409148395061493e-02</leafValues></_>
        <_>
          <internalNodes>
            0 -1 230 -2.1224283045739867e-05</internalNodes>
          <leafValues>
            -7.2095841169357300e-01 4.7848060727119446e-02</leafValues></_>
        <_>
          <internalNodes>
            0 -1 191 1.4886723458766937e-01</internalNodes>
          <leafValues>
            5.5705994367599487e-02 -7.8298705816268921e-01</leafValues></_>
        <_>
          <internalNodes>
            0 -1 264 1.9519271329045296e-02</internalNodes>
          <leafValues>
            3.3344294875860214e-02 -8.4795457124710083e-01</leafValues></_>
        <_>
          <internalNodes>
            0 -1 187 9.5033980906009674e-03</internalNodes>
          <leafValues>
            -6.2370955944061279e-02 7.4933558702468872e-01</leafValues></_>
        <_>
          <internalNodes>
            0 -1 238 2.2663802155875601e-05</internalNodes>
          <leafValues>
            6.1697598546743393e-02 -6.8848448991775513e-01</leafValues></_>
        <_>
          <internalNodes>
            0 -1 15 -6.4436736283823848e-04</internalNodes>
          <leafValues>
            2.4946823716163635e-01 -1.9484919309616089e-01</leafValues></_>
        <_>
          <internalNodes>
            0 -1 13 2.3921947285998613e-04</internalNodes>
          <leafValues>
            -2.2972717881202698e-01 3.2351830601692200e-01</leafValues></_>
        <_>
          <internalNodes>
            0 -1 133 2.8933188877999783e-04</internalNodes>
          <leafValues>
            1.2144292891025543e-01 -4.0805089473724365e-01</leafValues></_>
        <_>
          <internalNodes>
            0 -1 116 1.0725993663072586e-02</internalNodes>
          <leafValues>
            -1.1348549276590347e-01 3.5229679942131042e-01</leafValues></_>
        <_>
          <internalNodes>
            0 -1 44 8.9038118720054626e-02</internalNodes>
          <leafValues>
            9.7056806087493896e-02 -4.7637727856636047e-01</leafValues></_>
        <_>
          <internalNodes>
            0 -1 12 -2.6798148610396311e-05</internalNodes>
          <leafValues>
            1.2207668274641037e-01 -3.2873395085334778e-01</leafValues></_>
        <_>
          <internalNodes>
            0 -1 5 8.8731606956571341e-04</internalNodes>
          <leafValues>
            -1.5367278456687927e-01 2.4576234817504883e-01</leafValues></_>
        <_>
          <internalNodes>
            0 -1 34 -1.0112075688084587e-04</internalNodes>
          <leafValues>
            2.9104456305503845e-01 -2.2346533834934235e-01</leafValues></_>
        <_>
          <internalNodes>
            0 -1 53 9.6892137662507594e-05</internalNodes>
          <leafValues>
            6.5690658986568451e-02 -7.1895861625671387e-01</leafValues></_></weakClassifiers></_>
    <!-- stage 15 -->
    <_>
      <maxWeakCount>26</maxWeakCount>
      <stageThreshold>-1.1238095760345459e+00</stageThreshold>
      <weakClassifiers>
        <_>
          <internalNodes>
            0 -1 219 9.4583090394735336e-03</internalNodes>
          <leafValues>
            -5.2933871746063232e-01 -1.6079632937908173e-01</leafValues></_>
        <_>
          <internalNodes>
            0 -1 98 2.7298454195261002e-02</internalNodes>
          <leafValues>
            -3.0633702874183655e-01 9.7780957818031311e-02</leafValues></_>
        <_>
          <internalNodes>
            0 -1 247 6.0476108046714216e-05</internalNodes>
          <leafValues>
            -4.3336603045463562e-01 8.4565222263336182e-02</leafValues></_>
        <_>
          <internalNodes>
            0 -1 46 1.2400546111166477e-03</internalNodes>
          <leafValues>
            9.2084012925624847e-02 -5.2383452653884888e-01</leafValues></_>
        <_>
          <internalNodes>
            0 -1 174 1.8688045442104340e-02</internalNodes>
          <leafValues>
            -5.9075754135847092e-02 6.0664868354797363e-01</leafValues></_>
        <_>
          <internalNodes>
            0 -1 93 -5.2340394177008420e-05</internalNodes>
          <leafValues>
            1.0696133971214294e-01 -4.0322172641754150e-01</leafValues></_>
        <_>
          <internalNodes>
            0 -1 70 -1.1796516925096512e-01</internalNodes>
          <leafValues>
            -3.0500611662864685e-01 1.2654651701450348e-01</leafValues></_>
        <_>
          <internalNodes>
            0 -1 30 6.3109770417213440e-04</internalNodes>
          <leafValues>
            7.6286196708679199e-02 -5.5201864242553711e-01</leafValues></_>
        <_>
          <internalNodes>
            0 -1 141 -1.7308720853179693e-03</internalNodes>
          <leafValues>
            2.1832643449306488e-01 -2.0379970967769623e-01</leafValues></_>
        <_>
          <internalNodes>
            0 -1 50 2.2733809601049870e-05</internalNodes>
          <leafValues>
            8.1436276435852051e-02 -4.5655423402786255e-01</leafValues></_>
        <_>
          <internalNodes>
            0 -1 81 -5.6997112929821014e-02</internalNodes>
          <leafValues>
            -9.3700021505355835e-01 3.3557426184415817e-02</leafValues></_>
        <_>
          <internalNodes>
            0 -1 83 2.3498639464378357e-01</internalNodes>
          <leafValues>
            9.4839036464691162e-02 -3.9020425081253052e-01</leafValues></_>
        <_>
          <internalNodes>
            0 -1 42 -9.8400175571441650e-02</internalNodes>
          <leafValues>
            -8.0143862962722778e-01 4.1333388537168503e-02</leafValues></_>
        <_>
          <internalNodes>
            0 -1 221 5.1444534619804472e-05</internalNodes>
          <leafValues>
            8.2577429711818695e-02 -3.9231637120246887e-01</leafValues></_>
        <_>
          <internalNodes>
            0 -1 90 -4.1822533239610493e-04</internalNodes>
          <leafValues>
            2.4613857269287109e-01 -1.5401546657085419e-01</leafValues></_>
        <_>
          <internalNodes>
            0 -1 79 5.0304995966143906e-05</internalNodes>
          <leafValues>
            -2.4037495255470276e-01 2.6559534668922424e-01</leafValues></_>
        <_>
          <internalNodes>
            0 -1 220 -5.1588238420663401e-05</internalNodes>
          <leafValues>
            -2.8830495476722717e-01 1.5901429951190948e-01</leafValues></_>
        <_>
          <internalNodes>
            0 -1 72 -1.8210246344096959e-04</internalNodes>
          <leafValues>
            -2.5307473540306091e-01 1.3576020300388336e-01</leafValues></_>
        <_>
          <internalNodes>
            0 -1 80 -1.2532906839624047e-04</internalNodes>
          <leafValues>
            2.0206703245639801e-01 -1.9124573469161987e-01</leafValues></_>
        <_>
          <internalNodes>
            0 -1 65 1.7827193369157612e-04</internalNodes>
          <leafValues>
            -1.6506603360176086e-01 2.5358977913856506e-01</leafValues></_>
        <_>
          <internalNodes>
            0 -1 251 -1.6198956291191280e-04</internalNodes>
          <leafValues>
            -4.4243496656417847e-01 8.8996894657611847e-02</leafValues></_>
        <_>
          <internalNodes>
            0 -1 112 -2.1056786179542542e-02</internalNodes>
          <leafValues>
            4.2599251866340637e-01 -9.2243395745754242e-02</leafValues></_>
        <_>
          <internalNodes>
            0 -1 179 -1.7318183556199074e-02</internalNodes>
          <leafValues>
            4.8820245265960693e-01 -7.5846970081329346e-02</leafValues></_>
        <_>
          <internalNodes>
            0 -1 111 2.7988968417048454e-02</internalNodes>
          <leafValues>
            -5.2769735455513000e-02 7.2646802663803101e-01</leafValues></_>
        <_>
          <internalNodes>
            0 -1 211 -4.0131229907274246e-03</internalNodes>
          <leafValues>
            3.7630891799926758e-01 -9.4027929008007050e-02</leafValues></_>
        <_>
          <internalNodes>
            0 -1 139 -9.8964171484112740e-03</internalNodes>
          <leafValues>
            -8.4341037273406982e-01 4.9829836934804916e-02</leafValues></_></weakClassifiers></_>
    <!-- stage 16 -->
    <_>
      <maxWeakCount>25</maxWeakCount>
      <stageThreshold>-1.1178846359252930e+00</stageThreshold>
      <weakClassifiers>
        <_>
          <internalNodes>
            0 -1 97 -1.3135500252246857e-02</internalNodes>
          <leafValues>
            -1.3653603196144104e-01 -5.0138968229293823e-01</leafValues></_>
        <_>
          <internalNodes>
            0 -1 19 -2.8266921639442444e-01</internalNodes>
          <leafValues>
            -9.5581603050231934e-01 9.3888835981488228e-03</leafValues></_>
        <_>
          <internalNodes>
            0 -1 224 -1.2031052392558195e-05</internalNodes>
          <leafValues>
            -7.1011173725128174e-01 5.5881805717945099e-02</leafValues></_>
        <_>
          <internalNodes>
            0 -1 170 -5.7076718658208847e-03</internalNodes>
          <leafValues>
            2.1128745377063751e-01 -1.7978362739086151e-01</leafValues></_>
        <_>
          <internalNodes>
            0 -1 52 -3.7998161278665066e-03</internalNodes>
          <leafValues>
            -5.0976651906967163e-01 7.1332715451717377e-02</leafValues></_>
        <_>
          <internalNodes>
            0 -1 129 -1.1766421608626842e-02</internalNodes>
          <leafValues>
            4.7495582699775696e-01 -1.0737308859825134e-01</leafValues></_>
        <_>
          <internalNodes>
            0 -1 253 2.0622865122277290e-05</internalNodes>
          <leafValues>
            1.0954217612743378e-01 -4.2195326089859009e-01</leafValues></_>
        <_>
          <internalNodes>
            0 -1 47 -2.5076605379581451e-03</internalNodes>
          <leafValues>
            -7.0956248044967651e-01 6.4503684639930725e-02</leafValues></_>
        <_>
          <internalNodes>
            0 -1 166 -6.5517704933881760e-03</internalNodes>
          <leafValues>
            2.3056821525096893e-01 -1.8656127154827118e-01</leafValues></_>
        <_>
          <internalNodes>
            0 -1 40 -1.2361913919448853e-01</internalNodes>
          <leafValues>
            -5.4996860027313232e-01 8.1420972943305969e-02</leafValues></_>
        <_>
          <internalNodes>
            0 -1 228 1.0527676902711391e-02</internalNodes>
          <leafValues>
            4.5258637517690659e-02 -8.0765354633331299e-01</leafValues></_>
        <_>
          <internalNodes>
            0 -1 212 8.8556353002786636e-03</internalNodes>
          <leafValues>
            4.7386728227138519e-02 -6.5543603897094727e-01</leafValues></_>
        <_>
          <internalNodes>
            0 -1 142 1.0005805641412735e-02</internalNodes>
          <leafValues>
            -1.3828605413436890e-01 3.0380281805992126e-01</leafValues></_>
        <_>
          <internalNodes>
            0 -1 90 -2.5251286569982767e-04</internalNodes>
          <leafValues>
            2.8164982795715332e-01 -1.9796679913997650e-01</leafValues></_>
        <_>
          <internalNodes>
            0 -1 147 3.4108408726751804e-05</internalNodes>
          <leafValues>
            -2.4866203963756561e-01 2.0469926297664642e-01</leafValues></_>
        <_>
          <internalNodes>
            0 -1 218 2.7178153395652771e-03</internalNodes>
          <leafValues>
            -1.3938893377780914e-01 3.0127009749412537e-01</leafValues></_>
        <_>
          <internalNodes>
            0 -1 229 -6.6886997956316918e-05</internalNodes>
          <leafValues>
            -3.6014306545257568e-01 1.0929311811923981e-01</leafValues></_>
        <_>
          <internalNodes>
            0 -1 107 -1.2106522917747498e-01</internalNodes>
          <leafValues>
            3.6865253001451492e-02 -9.1071838140487671e-01</leafValues></_>
        <_>
          <internalNodes>
            0 -1 84 -1.4319780166260898e-04</internalNodes>
          <leafValues>
            7.0713356137275696e-02 -4.9485462903976440e-01</leafValues></_>
        <_>
          <internalNodes>
            0 -1 130 -1.9708506762981415e-02</internalNodes>
          <leafValues>
            9.0960270166397095e-01 -4.6731125563383102e-02</leafValues></_>
        <_>
          <internalNodes>
            0 -1 178 -7.2559225372970104e-05</internalNodes>
          <leafValues>
            -3.6740839481353760e-01 1.1147392541170120e-01</leafValues></_>
        <_>
          <internalNodes>
            0 -1 109 1.0568279772996902e-02</internalNodes>
          <leafValues>
            -1.1526247113943100e-01 3.4394514560699463e-01</leafValues></_>
        <_>
          <internalNodes>
            0 -1 4 -1.3762359507381916e-02</internalNodes>
          <leafValues>
            -5.8919942378997803e-01 6.9840349256992340e-02</leafValues></_>
        <_>
          <internalNodes>
            0 -1 138 8.8278509676456451e-02</internalNodes>
          <leafValues>
            5.3242035210132599e-02 -6.1416643857955933e-01</leafValues></_>
        <_>
          <internalNodes>
            0 -1 128 -1.9484385848045349e-02</internalNodes>
          <leafValues>
            3.9093887805938721e-01 -1.1479549854993820e-01</leafValues></_></weakClassifiers></_>
    <!-- stage 17 -->
    <_>
      <maxWeakCount>26</maxWeakCount>
      <stageThreshold>-1.0939488410949707e+00</stageThreshold>
      <weakClassifiers>
        <_>
          <internalNodes>
            0 -1 183 1.0582007467746735e-02</internalNodes>
          <leafValues>
            -4.3953776359558105e-01 3.2934132218360901e-01</leafValues></_>
        <_>
          <internalNodes>
            0 -1 92 6.4746811403892934e-05</internalNodes>
          <leafValues>
            -1.8857768177986145e-01 1.9247092306613922e-01</leafValues></_>
        <_>
          <internalNodes>
            0 -1 15 -4.0082371560856700e-04</internalNodes>
          <leafValues>
            2.4571056663990021e-01 -2.2579580545425415e-01</leafValues></_>
        <_>
          <internalNodes>
            0 -1 120 9.3232095241546631e-03</internalNodes>
          <leafValues>
            1.0437049716711044e-01 -3.7396782636642456e-01</leafValues></_>
        <_>
          <internalNodes>
            0 -1 110 -8.2549527287483215e-03</internalNodes>
          <leafValues>
            2.6335808634757996e-01 -1.3500271737575531e-01</leafValues></_>
        <_>
          <internalNodes>
            0 -1 181 -7.6049426570534706e-03</internalNodes>
          <leafValues>
            5.6571465730667114e-01 -7.8884877264499664e-02</leafValues></_>
        <_>
          <internalNodes>
            0 -1 256 -6.2089478888083249e-05</internalNodes>
          <leafValues>
            -9.8164510726928711e-01 3.9938371628522873e-02</leafValues></_>
        <_>
          <internalNodes>
            0 -1 104 7.3286830447614193e-03</internalNodes>
          <leafValues>
            -9.8553858697414398e-02 4.0329477190971375e-01</leafValues></_>
        <_>
          <internalNodes>
            0 -1 64 8.9833274250850081e-04</internalNodes>
          <leafValues>
            -1.8728543817996979e-01 2.1318162977695465e-01</leafValues></_>
        <_>
          <internalNodes>
            0 -1 214 -5.2203916013240814e-02</internalNodes>
          <leafValues>
            3.5780644416809082e-01 -1.4171944558620453e-01</leafValues></_>
        <_>
          <internalNodes>
            0 -1 262 8.2371072494424880e-05</internalNodes>
          <leafValues>
            -1.9687612354755402e-01 2.3446531593799591e-01</leafValues></_>
        <_>
          <internalNodes>
            0 -1 261 -1.9961629004683346e-04</internalNodes>
          <leafValues>
            3.3631095290184021e-01 -2.0781211555004120e-01</leafValues></_>
        <_>
          <internalNodes>
            0 -1 158 1.8518455326557159e-02</internalNodes>
          <leafValues>
            -1.5366490185260773e-01 3.2913506031036377e-01</leafValues></_>
        <_>
          <internalNodes>
            0 -1 100 -5.5642751249251887e-05</internalNodes>
          <leafValues>
            -2.8528276085853577e-01 1.5431913733482361e-01</leafValues></_>
        <_>
          <internalNodes>
            0 -1 74 -9.4691160484217107e-05</internalNodes>
          <leafValues>
            -4.2044875025749207e-01 9.4203151762485504e-02</leafValues></_>
        <_>
          <internalNodes>
            0 -1 137 4.5288917608559132e-03</internalNodes>
          <leafValues>
            -1.3932418823242188e-01 2.9483896493911743e-01</leafValues></_>
        <_>
          <internalNodes>
            0 -1 113 8.2612624391913414e-03</internalNodes>
          <leafValues>
            -7.6935939490795135e-02 4.8530557751655579e-01</leafValues></_>
        <_>
          <internalNodes>
            0 -1 204 -2.3456905037164688e-03</internalNodes>
          <leafValues>
            2.3461621999740601e-01 -1.5582108497619629e-01</leafValues></_>
        <_>
          <internalNodes>
            0 -1 162 4.6064462512731552e-03</internalNodes>
          <leafValues>
            -3.1535562872886658e-01 1.3425759971141815e-01</leafValues></_>
        <_>
          <internalNodes>
            0 -1 169 8.6527302861213684e-02</internalNodes>
          <leafValues>
            1.2841539084911346e-01 -2.9598042368888855e-01</leafValues></_>
        <_>
          <internalNodes>
            0 -1 127 1.4570730924606323e-01</internalNodes>
          <leafValues>
            5.4630815982818604e-02 -6.0376733541488647e-01</leafValues></_>
        <_>
          <internalNodes>
            0 -1 51 1.0914063081145287e-02</internalNodes>
          <leafValues>
            -1.4241011440753937e-01 3.4305873513221741e-01</leafValues></_>
        <_>
          <internalNodes>
            0 -1 200 -3.5346660297363997e-03</internalNodes>
          <leafValues>
            -7.5397986173629761e-01 5.8769807219505310e-02</leafValues></_>
        <_>
          <internalNodes>
            0 -1 206 5.6464795023202896e-02</internalNodes>
          <leafValues>
            -2.2585743665695190e-01 1.6424410045146942e-01</leafValues></_>
        <_>
          <internalNodes>
            0 -1 36 1.3752122409641743e-02</internalNodes>
          <leafValues>
            1.4396393299102783e-01 -2.5562068819999695e-01</leafValues></_>
        <_>
          <internalNodes>
            0 -1 35 3.9576414565090090e-05</internalNodes>
          <leafValues>
            -2.4828682839870453e-01 2.2285935282707214e-01</leafValues></_></weakClassifiers></_></stages>
  <features>
    <_>
      <rects>
        <_>
          0 0 2 1 -1.</_>
        <_>
          1 0 1 1 2.</_></rects>
      <tilted>0</tilted></_>
    <_>
      <rects>
        <_>
          0 0 1 2 -1.</_>
        <_>
          0 1 1 1 2.</_></rects>
      <tilted>0</tilted></_>
    <_>
      <rects>
        <_>
          0 0 1 4 -1.</_>
        <_>
          0 2 1 2 2.</_></rects>
      <tilted>0</tilted></_>
    <_>
      <rects>
        <_>
          0 0 1 6 -1.</_>
        <_>
          0 3 1 3 2.</_></rects>
      <tilted>0</tilted></_>
    <_>
      <rects>
        <_>
          0 0 1 16 -1.</_>
        <_>
          0 8 1 8 2.</_></rects>
      <tilted>0</tilted></_>
    <_>
      <rects>
        <_>
          0 0 1 22 -1.</_>
        <_>
          0 11 1 11 2.</_></rects>
      <tilted>0</tilted></_>
    <_>
      <rects>
        <_>
          0 0 2 23 -1.</_>
        <_>
          1 0 1 23 2.</_></rects>
      <tilted>0</tilted></_>
    <_>
      <rects>
        <_>
          0 0 2 24 -1.</_>
        <_>
          1 0 1 24 2.</_></rects>
      <tilted>0</tilted></_>
    <_>
      <rects>
        <_>
          0 0 2 2 -1.</_>
        <_>
          0 1 2 1 2.</_></rects>
      <tilted>0</tilted></_>
    <_>
      <rects>
        <_>
          0 0 4 2 -1.</_>
        <_>
          2 0 2 2 2.</_></rects>
      <tilted>0</tilted></_>
    <_>
      <rects>
        <_>
          0 0 2 6 -1.</_>
        <_>
          0 3 2 3 2.</_></rects>
      <tilted>0</tilted></_>
    <_>
      <rects>
        <_>
          0 0 2 12 -1.</_>
        <_>
          0 6 2 6 2.</_></rects>
      <tilted>0</tilted></_>
    <_>
      <rects>
        <_>
          0 0 5 12 -1.</_>
        <_>
          0 6 5 6 2.</_></rects>
      <tilted>0</tilted></_>
    <_>
      <rects>
        <_>
          0 0 22 1 -1.</_>
        <_>
          11 0 11 1 2.</_></rects>
      <tilted>0</tilted></_>
    <_>
      <rects>
        <_>
          0 0 22 24 -1.</_>
        <_>
          11 0 11 24 2.</_></rects>
      <tilted>0</tilted></_>
    <_>
      <rects>
        <_>
          0 0 24 1 -1.</_>
        <_>
          12 0 12 1 2.</_></rects>
      <tilted>0</tilted></_>
    <_>
      <rects>
        <_>
          0 0 20 2 -1.</_>
        <_>
          0 1 20 1 2.</_></rects>
      <tilted>0</tilted></_>
    <_>
      <rects>
        <_>
          0 0 24 3 -1.</_>
        <_>
          0 1 24 1 2.</_></rects>
      <tilted>0</tilted></_>
    <_>
      <rects>
        <_>
          0 0 24 6 -1.</_>
        <_>
          0 3 24 3 2.</_></rects>
      <tilted>0</tilted></_>
    <_>
      <rects>
        <_>
          0 0 24 12 -1.</_>
        <_>
          0 6 24 6 2.</_></rects>
      <tilted>0</tilted></_>
    <_>
      <rects>
        <_>
          0 1 2 16 -1.</_>
        <_>
          1 1 1 16 2.</_></rects>
      <tilted>0</tilted></_>
    <_>
      <rects>
        <_>
          0 1 2 22 -1.</_>
        <_>
          1 1 1 22 2.</_></rects>
      <tilted>0</tilted></_>
    <_>
      <rects>
        <_>
          0 1 6 22 -1.</_>
        <_>
          3 1 3 22 2.</_></rects>
      <tilted>0</tilted></_>
    <_>
      <rects>
        <_>
          0 1 24 2 -1.</_>
        <_>
          8 1 8 2 2.</_></rects>
      <tilted>0</tilted></_>
    <_>
      <rects>
        <_>
          0 1 24 22 -1.</_>
        <_>
          8 1 8 22 2.</_></rects>
      <tilted>0</tilted></_>
    <_>
      <rects>
        <_>
          0 1 24 23 -1.</_>
        <_>
          12 1 12 23 2.</_></rects>
      <tilted>0</tilted></_>
    <_>
      <rects>
        <_>
          0 2 3 1 -1.</_>
        <_>
          1 2 1 1 2.</_></rects>
      <tilted>0</tilted></_>
    <_>
      <rects>
        <_>
          0 2 2 17 -1.</_>
        <_>
          1 2 1 17 2.</_></rects>
      <tilted>0</tilted></_>
    <_>
      <rects>
        <_>
          0 2 2 20 -1.</_>
        <_>
          1 2 1 20 2.</_></rects>
      <tilted>0</tilted></_>
    <_>
      <rects>
        <_>
          0 2 2 21 -1.</_>
        <_>
          1 2 1 21 2.</_></rects>
      <tilted>0</tilted></_>
    <_>
      <rects>
        <_>
          0 2 5 2 -1.</_>
        <_>
          0 3 5 1 2.</_></rects>
      <tilted>0</tilted></_>
    <_>
      <rects>
        <_>
          0 2 14 1 -1.</_>
        <_>
          7 2 7 1 2.</_></rects>
      <tilted>0</tilted></_>
    <_>
      <rects>
        <_>
          0 2 24 1 -1.</_>
        <_>
          8 2 8 1 2.</_></rects>
      <tilted>0</tilted></_>
    <_>
      <rects>
        <_>
          0 2 18 22 -1.</_>
        <_>
          9 2 9 22 2.</_></rects>
      <tilted>0</tilted></_>
    <_>
      <rects>
        <_>
          0 4 1 16 -1.</_>
        <_>
          0 12 1 8 2.</_></rects>
      <tilted>0</tilted></_>
    <_>
      <rects>
        <_>
          0 4 1 20 -1.</_>
        <_>
          0 14 1 10 2.</_></rects>
      <tilted>0</tilted></_>
    <_>
      <rects>
        <_>
          0 4 2 20 -1.</_>
        <_>
          0 14 2 10 2.</_></rects>
      <tilted>0</tilted></_>
    <_>
      <rects>
        <_>
          0 5 2 14 -1.</_>
        <_>
          1 5 1 14 2.</_></rects>
      <tilted>0</tilted></_>
    <_>
      <rects>
        <_>
          0 6 6 8 -1.</_>
        <_>
          3 6 3 8 2.</_></rects>
      <tilted>0</tilted></_>
    <_>
      <rects>
        <_>
          0 6 10 12 -1.</_>
        <_>
          5 6 5 12 2.</_></rects>
      <tilted>0</tilted></_>
    <_>
      <rects>
        <_>
          0 6 12 12 -1.</_>
        <_>
          6 6 6 12 2.</_></rects>
      <tilted>0</tilted></_>
    <_>
      <rects>
        <_>
          0 8 2 1 -1.</_>
        <_>
          1 8 1 1 2.</_></rects>
      <tilted>0</tilted></_>
    <_>
      <rects>
        <_>
          0 9 18 4 -1.</_>
        <_>
          9 9 9 4 2.</_></rects>
      <tilted>0</tilted></_>
    <_>
      <rects>
        <_>
          0 10 12 8 -1.</_>
        <_>
          4 10 4 8 2.</_></rects>
      <tilted>0</tilted></_>
    <_>
      <rects>
        <_>
          0 10 7 14 -1.</_>
        <_>
          0 17 7 7 2.</_></rects>
      <tilted>0</tilted></_>
    <_>
      <rects>
        <_>
          0 10 21 14 -1.</_>
        <_>
          0 17 21 7 2.</_></rects>
      <tilted>0</tilted></_>
    <_>
      <rects>
        <_>
          0 11 2 2 -1.</_>
        <_>
          0 12 2 1 2.</_></rects>
      <tilted>0</tilted></_>
    <_>
      <rects>
        <_>
          0 11 3 2 -1.</_>
        <_>
          0 12 3 1 2.</_></rects>
      <tilted>0</tilted></_>
    <_>
      <rects>
        <_>
          0 12 5 12 -1.</_>
        <_>
          0 18 5 6 2.</_></rects>
      <tilted>0</tilted></_>
    <_>
      <rects>
        <_>
          0 12 24 12 -1.</_>
        <_>
          0 18 24 6 2.</_></rects>
      <tilted>0</tilted></_>
    <_>
      <rects>
        <_>
          0 14 2 3 -1.</_>
        <_>
          1 14 1 3 2.</_></rects>
      <tilted>0</tilted></_>
    <_>
      <rects>
        <_>
          0 14 10 4 -1.</_>
        <_>
          0 16 10 2 2.</_></rects>
      <tilted>0</tilted></_>
    <_>
      <rects>
        <_>
          0 16 3 6 -1.</_>
        <_>
          0 19 3 3 2.</_></rects>
      <tilted>0</tilted></_>
    <_>
      <rects>
        <_>
          0 19 2 5 -1.</_>
        <_>
          1 19 1 5 2.</_></rects>
      <tilted>0</tilted></_>
    <_>
      <rects>
        <_>
          0 21 2 3 -1.</_>
        <_>
          1 21 1 3 2.</_></rects>
      <tilted>0</tilted></_>
    <_>
      <rects>
        <_>
          0 21 16 3 -1.</_>
        <_>
          8 21 8 3 2.</_></rects>
      <tilted>0</tilted></_>
    <_>
      <rects>
        <_>
          0 22 1 2 -1.</_>
        <_>
          0 23 1 1 2.</_></rects>
      <tilted>0</tilted></_>
    <_>
      <rects>
        <_>
          0 22 2 2 -1.</_>
        <_>
          0 23 2 1 2.</_></rects>
      <tilted>0</tilted></_>
    <_>
      <rects>
        <_>
          0 22 20 2 -1.</_>
        <_>
          0 23 20 1 2.</_></rects>
      <tilted>0</tilted></_>
    <_>
      <rects>
        <_>
          0 22 24 2 -1.</_>
        <_>
          0 23 24 1 2.</_></rects>
      <tilted>0</tilted></_>
    <_>
      <rects>
        <_>
          0 23 2 1 -1.</_>
        <_>
          1 23 1 1 2.</_></rects>
      <tilted>0</tilted></_>
    <_>
      <rects>
        <_>
          0 23 4 1 -1.</_>
        <_>
          2 23 2 1 2.</_></rects>
      <tilted>0</tilted></_>
    <_>
      <rects>
        <_>
          0 23 14 1 -1.</_>
        <_>
          7 23 7 1 2.</_></rects>
      <tilted>0</tilted></_>
    <_>
      <rects>
        <_>
          0 23 20 1 -1.</_>
        <_>
          10 23 10 1 2.</_></rects>
      <tilted>0</tilted></_>
    <_>
      <rects>
        <_>
          0 23 24 1 -1.</_>
        <_>
          12 23 12 1 2.</_></rects>
      <tilted>0</tilted></_>
    <_>
      <rects>
        <_>
          1 0 20 1 -1.</_>
        <_>
          11 0 10 1 2.</_></rects>
      <tilted>0</tilted></_>
    <_>
      <rects>
        <_>
          1 0 18 2 -1.</_>
        <_>
          1 1 18 1 2.</_></rects>
      <tilted>0</tilted></_>
    <_>
      <rects>
        <_>
          1 0 22 2 -1.</_>
        <_>
          1 1 22 1 2.</_></rects>
      <tilted>0</tilted></_>
    <_>
      <rects>
        <_>
          1 0 22 8 -1.</_>
        <_>
          1 4 22 4 2.</_></rects>
      <tilted>0</tilted></_>
    <_>
      <rects>
        <_>
          1 0 23 2 -1.</_>
        <_>
          1 1 23 1 2.</_></rects>
      <tilted>0</tilted></_>
    <_>
      <rects>
        <_>
          1 1 14 21 -1.</_>
        <_>
          8 1 7 21 2.</_></rects>
      <tilted>0</tilted></_>
    <_>
      <rects>
        <_>
          1 8 13 4 -1.</_>
        <_>
          1 10 13 2 2.</_></rects>
      <tilted>0</tilted></_>
    <_>
      <rects>
        <_>
          1 15 8 2 -1.</_>
        <_>
          1 16 8 1 2.</_></rects>
      <tilted>0</tilted></_>
    <_>
      <rects>
        <_>
          1 16 23 8 -1.</_>
        <_>
          1 20 23 4 2.</_></rects>
      <tilted>0</tilted></_>
    <_>
      <rects>
        <_>
          1 18 1 2 -1.</_>
        <_>
          1 19 1 1 2.</_></rects>
      <tilted>0</tilted></_>
    <_>
      <rects>
        <_>
          1 20 1 4 -1.</_>
        <_>
          1 22 1 2 2.</_></rects>
      <tilted>0</tilted></_>
    <_>
      <rects>
        <_>
          1 22 20 2 -1.</_>
        <_>
          1 23 20 1 2.</_></rects>
      <tilted>0</tilted></_>
    <_>
      <rects>
        <_>
          1 22 21 2 -1.</_>
        <_>
          1 23 21 1 2.</_></rects>
      <tilted>0</tilted></_>
    <_>
      <rects>
        <_>
          1 22 22 2 -1.</_>
        <_>
          1 23 22 1 2.</_></rects>
      <tilted>0</tilted></_>
    <_>
      <rects>
        <_>
          1 23 22 1 -1.</_>
        <_>
          12 23 11 1 2.</_></rects>
      <tilted>0</tilted></_>
    <_>
      <rects>
        <_>
          2 0 20 1 -1.</_>
        <_>
          12 0 10 1 2.</_></rects>
      <tilted>0</tilted></_>
    <_>
      <rects>
        <_>
          2 0 20 2 -1.</_>
        <_>
          12 0 10 2 2.</_></rects>
      <tilted>0</tilted></_>
    <_>
      <rects>
        <_>
          2 0 22 1 -1.</_>
        <_>
          13 0 11 1 2.</_></rects>
      <tilted>0</tilted></_>
    <_>
      <rects>
        <_>
          2 0 22 24 -1.</_>
        <_>
          13 0 11 24 2.</_></rects>
      <tilted>0</tilted></_>
    <_>
      <rects>
        <_>
          2 0 19 2 -1.</_>
        <_>
          2 1 19 1 2.</_></rects>
      <tilted>0</tilted></_>
    <_>
      <rects>
        <_>
          2 0 22 24 -1.</_>
        <_>
          2 12 22 12 2.</_></rects>
      <tilted>0</tilted></_>
    <_>
      <rects>
        <_>
          2 8 12 2 -1.</_>
        <_>
          2 8 6 1 2.</_>
        <_>
          8 9 6 1 2.</_></rects>
      <tilted>0</tilted></_>
    <_>
      <rects>
        <_>
          2 10 4 2 -1.</_>
        <_>
          2 10 2 1 2.</_>
        <_>
          4 11 2 1 2.</_></rects>
      <tilted>0</tilted></_>
    <_>
      <rects>
        <_>
          2 21 12 1 -1.</_>
        <_>
          8 21 6 1 2.</_></rects>
      <tilted>0</tilted></_>
    <_>
      <rects>
        <_>
          2 22 19 2 -1.</_>
        <_>
          2 23 19 1 2.</_></rects>
      <tilted>0</tilted></_>
    <_>
      <rects>
        <_>
          2 23 22 1 -1.</_>
        <_>
          13 23 11 1 2.</_></rects>
      <tilted>0</tilted></_>
    <_>
      <rects>
        <_>
          3 0 4 2 -1.</_>
        <_>
          3 1 4 1 2.</_></rects>
      <tilted>0</tilted></_>
    <_>
      <rects>
        <_>
          3 0 20 1 -1.</_>
        <_>
          13 0 10 1 2.</_></rects>
      <tilted>0</tilted></_>
    <_>
      <rects>
        <_>
          3 0 16 2 -1.</_>
        <_>
          3 1 16 1 2.</_></rects>
      <tilted>0</tilted></_>
    <_>
      <rects>
        <_>
          3 0 21 2 -1.</_>
        <_>
          3 1 21 1 2.</_></rects>
      <tilted>0</tilted></_>
    <_>
      <rects>
        <_>
          3 2 12 4 -1.</_>
        <_>
          3 2 6 2 2.</_>
        <_>
          9 4 6 2 2.</_></rects>
      <tilted>0</tilted></_>
    <_>
      <rects>
        <_>
          3 8 4 9 -1.</_>
        <_>
          5 8 2 9 2.</_></rects>
      <tilted>0</tilted></_>
    <_>
      <rects>
        <_>
          3 9 4 15 -1.</_>
        <_>
          5 9 2 15 2.</_></rects>
      <tilted>0</tilted></_>
    <_>
      <rects>
        <_>
          3 16 15 8 -1.</_>
        <_>
          3 20 15 4 2.</_></rects>
      <tilted>0</tilted></_>
    <_>
      <rects>
        <_>
          3 18 12 4 -1.</_>
        <_>
          3 18 6 2 2.</_>
        <_>
          9 20 6 2 2.</_></rects>
      <tilted>0</tilted></_>
    <_>
      <rects>
        <_>
          3 19 4 1 -1.</_>
        <_>
          5 19 2 1 2.</_></rects>
      <tilted>0</tilted></_>
    <_>
      <rects>
        <_>
          3 22 20 2 -1.</_>
        <_>
          3 23 20 1 2.</_></rects>
      <tilted>0</tilted></_>
    <_>
      <rects>
        <_>
          3 23 20 1 -1.</_>
        <_>
          13 23 10 1 2.</_></rects>
      <tilted>0</tilted></_>
    <_>
      <rects>
        <_>
          4 0 10 7 -1.</_>
        <_>
          9 0 5 7 2.</_></rects>
      <tilted>0</tilted></_>
    <_>
      <rects>
        <_>
          4 0 16 2 -1.</_>
        <_>
          4 0 8 1 2.</_>
        <_>
          12 1 8 1 2.</_></rects>
      <tilted>0</tilted></_>
    <_>
      <rects>
        <_>
          4 0 17 2 -1.</_>
        <_>
          4 1 17 1 2.</_></rects>
      <tilted>0</tilted></_>
    <_>
      <rects>
        <_>
          4 0 17 12 -1.</_>
        <_>
          4 6 17 6 2.</_></rects>
      <tilted>0</tilted></_>
    <_>
      <rects>
        <_>
          4 1 15 3 -1.</_>
        <_>
          9 1 5 3 2.</_></rects>
      <tilted>0</tilted></_>
    <_>
      <rects>
        <_>
          4 1 16 22 -1.</_>
        <_>
          4 1 8 11 2.</_>
        <_>
          12 12 8 11 2.</_></rects>
      <tilted>0</tilted></_>
    <_>
      <rects>
        <_>
          4 4 6 6 -1.</_>
        <_>
          4 4 3 3 2.</_>
        <_>
          7 7 3 3 2.</_></rects>
      <tilted>0</tilted></_>
    <_>
      <rects>
        <_>
          4 4 16 4 -1.</_>
        <_>
          4 6 16 2 2.</_></rects>
      <tilted>0</tilted></_>
    <_>
      <rects>
        <_>
          4 5 9 4 -1.</_>
        <_>
          4 7 9 2 2.</_></rects>
      <tilted>0</tilted></_>
    <_>
      <rects>
        <_>
          4 6 16 4 -1.</_>
        <_>
          4 8 16 2 2.</_></rects>
      <tilted>0</tilted></_>
    <_>
      <rects>
        <_>
          4 8 12 2 -1.</_>
        <_>
          4 8 6 1 2.</_>
        <_>
          10 9 6 1 2.</_></rects>
      <tilted>0</tilted></_>
    <_>
      <rects>
        <_>
          4 9 2 4 -1.</_>
        <_>
          4 11 2 2 2.</_></rects>
      <tilted>0</tilted></_>
    <_>
      <rects>
        <_>
          4 9 20 2 -1.</_>
        <_>
          4 9 10 1 2.</_>
        <_>
          14 10 10 1 2.</_></rects>
      <tilted>0</tilted></_>
    <_>
      <rects>
        <_>
          4 15 6 4 -1.</_>
        <_>
          4 17 6 2 2.</_></rects>
      <tilted>0</tilted></_>
    <_>
      <rects>
        <_>
          4 17 10 2 -1.</_>
        <_>
          4 18 10 1 2.</_></rects>
      <tilted>0</tilted></_>
    <_>
      <rects>
        <_>
          4 19 1 4 -1.</_>
        <_>
          4 21 1 2 2.</_></rects>
      <tilted>0</tilted></_>
    <_>
      <rects>
        <_>
          4 22 15 2 -1.</_>
        <_>
          4 23 15 1 2.</_></rects>
      <tilted>0</tilted></_>
    <_>
      <rects>
        <_>
          4 23 20 1 -1.</_>
        <_>
          14 23 10 1 2.</_></rects>
      <tilted>0</tilted></_>
    <_>
      <rects>
        <_>
          5 0 12 16 -1.</_>
        <_>
          5 8 12 8 2.</_></rects>
      <tilted>0</tilted></_>
    <_>
      <rects>
        <_>
          5 0 19 24 -1.</_>
        <_>
          5 12 19 12 2.</_></rects>
      <tilted>0</tilted></_>
    <_>
      <rects>
        <_>
          5 4 8 4 -1.</_>
        <_>
          5 6 8 2 2.</_></rects>
      <tilted>0</tilted></_>
    <_>
      <rects>
        <_>
          5 12 3 4 -1.</_>
        <_>
          5 14 3 2 2.</_></rects>
      <tilted>0</tilted></_>
    <_>
      <rects>
        <_>
          5 13 2 4 -1.</_>
        <_>
          5 13 1 2 2.</_>
        <_>
          6 15 1 2 2.</_></rects>
      <tilted>0</tilted></_>
    <_>
      <rects>
        <_>
          5 13 12 2 -1.</_>
        <_>
          5 13 6 1 2.</_>
        <_>
          11 14 6 1 2.</_></rects>
      <tilted>0</tilted></_>
    <_>
      <rects>
        <_>
          5 13 16 10 -1.</_>
        <_>
          5 18 16 5 2.</_></rects>
      <tilted>0</tilted></_>
    <_>
      <rects>
        <_>
          5 14 10 6 -1.</_>
        <_>
          5 17 10 3 2.</_></rects>
      <tilted>0</tilted></_>
    <_>
      <rects>
        <_>
          5 16 8 6 -1.</_>
        <_>
          5 19 8 3 2.</_></rects>
      <tilted>0</tilted></_>
    <_>
      <rects>
        <_>
          5 21 16 2 -1.</_>
        <_>
          5 22 16 1 2.</_></rects>
      <tilted>0</tilted></_>
    <_>
      <rects>
        <_>
          5 22 15 2 -1.</_>
        <_>
          5 23 15 1 2.</_></rects>
      <tilted>0</tilted></_>
    <_>
      <rects>
        <_>
          5 22 17 2 -1.</_>
        <_>
          5 23 17 1 2.</_></rects>
      <tilted>0</tilted></_>
    <_>
      <rects>
        <_>
          6 0 6 1 -1.</_>
        <_>
          9 0 3 1 2.</_></rects>
      <tilted>0</tilted></_>
    <_>
      <rects>
        <_>
          6 0 18 23 -1.</_>
        <_>
          15 0 9 23 2.</_></rects>
      <tilted>0</tilted></_>
    <_>
      <rects>
        <_>
          6 7 16 2 -1.</_>
        <_>
          6 7 8 1 2.</_>
        <_>
          14 8 8 1 2.</_></rects>
      <tilted>0</tilted></_>
    <_>
      <rects>
        <_>
          6 14 4 2 -1.</_>
        <_>
          6 14 2 1 2.</_>
        <_>
          8 15 2 1 2.</_></rects>
      <tilted>0</tilted></_>
    <_>
      <rects>
        <_>
          6 15 8 4 -1.</_>
        <_>
          6 15 4 2 2.</_>
        <_>
          10 17 4 2 2.</_></rects>
      <tilted>0</tilted></_>
    <_>
      <rects>
        <_>
          6 18 15 6 -1.</_>
        <_>
          6 21 15 3 2.</_></rects>
      <tilted>0</tilted></_>
    <_>
      <rects>
        <_>
          6 20 4 3 -1.</_>
        <_>
          8 20 2 3 2.</_></rects>
      <tilted>0</tilted></_>
    <_>
      <rects>
        <_>
          6 20 11 4 -1.</_>
        <_>
          6 22 11 2 2.</_></rects>
      <tilted>0</tilted></_>
    <_>
      <rects>
        <_>
          7 2 4 6 -1.</_>
        <_>
          7 2 2 3 2.</_>
        <_>
          9 5 2 3 2.</_></rects>
      <tilted>0</tilted></_>
    <_>
      <rects>
        <_>
          7 4 14 4 -1.</_>
        <_>
          7 4 7 2 2.</_>
        <_>
          14 6 7 2 2.</_></rects>
      <tilted>0</tilted></_>
    <_>
      <rects>
        <_>
          7 9 1 4 -1.</_>
        <_>
          7 11 1 2 2.</_></rects>
      <tilted>0</tilted></_>
    <_>
      <rects>
        <_>
          7 12 10 1 -1.</_>
        <_>
          12 12 5 1 2.</_></rects>
      <tilted>0</tilted></_>
    <_>
      <rects>
        <_>
          7 13 6 4 -1.</_>
        <_>
          7 13 3 2 2.</_>
        <_>
          10 15 3 2 2.</_></rects>
      <tilted>0</tilted></_>
    <_>
      <rects>
        <_>
          7 18 9 2 -1.</_>
        <_>
          7 19 9 1 2.</_></rects>
      <tilted>0</tilted></_>
    <_>
      <rects>
        <_>
          7 21 16 3 -1.</_>
        <_>
          15 21 8 3 2.</_></rects>
      <tilted>0</tilted></_>
    <_>
      <rects>
        <_>
          8 0 4 3 -1.</_>
        <_>
          10 0 2 3 2.</_></rects>
      <tilted>0</tilted></_>
    <_>
      <rects>
        <_>
          8 0 4 2 -1.</_>
        <_>
          8 1 4 1 2.</_></rects>
      <tilted>0</tilted></_>
    <_>
      <rects>
        <_>
          8 0 16 1 -1.</_>
        <_>
          16 0 8 1 2.</_></rects>
      <tilted>0</tilted></_>
    <_>
      <rects>
        <_>
          8 0 8 8 -1.</_>
        <_>
          8 4 8 4 2.</_></rects>
      <tilted>0</tilted></_>
    <_>
      <rects>
        <_>
          8 0 16 22 -1.</_>
        <_>
          16 0 8 22 2.</_></rects>
      <tilted>0</tilted></_>
    <_>
      <rects>
        <_>
          8 2 7 4 -1.</_>
        <_>
          8 4 7 2 2.</_></rects>
      <tilted>0</tilted></_>
    <_>
      <rects>
        <_>
          8 4 9 2 -1.</_>
        <_>
          8 5 9 1 2.</_></rects>
      <tilted>0</tilted></_>
    <_>
      <rects>
        <_>
          8 5 4 12 -1.</_>
        <_>
          10 5 2 12 2.</_></rects>
      <tilted>0</tilted></_>
    <_>
      <rects>
        <_>
          8 8 9 16 -1.</_>
        <_>
          8 16 9 8 2.</_></rects>
      <tilted>0</tilted></_>
    <_>
      <rects>
        <_>
          8 16 7 2 -1.</_>
        <_>
          8 17 7 1 2.</_></rects>
      <tilted>0</tilted></_>
    <_>
      <rects>
        <_>
          8 17 10 4 -1.</_>
        <_>
          13 17 5 4 2.</_></rects>
      <tilted>0</tilted></_>
    <_>
      <rects>
        <_>
          8 18 8 6 -1.</_>
        <_>
          8 21 8 3 2.</_></rects>
      <tilted>0</tilted></_>
    <_>
      <rects>
        <_>
          8 23 2 1 -1.</_>
        <_>
          9 23 1 1 2.</_></rects>
      <tilted>0</tilted></_>
    <_>
      <rects>
        <_>
          9 2 7 4 -1.</_>
        <_>
          9 4 7 2 2.</_></rects>
      <tilted>0</tilted></_>
    <_>
      <rects>
        <_>
          9 2 14 19 -1.</_>
        <_>
          16 2 7 19 2.</_></rects>
      <tilted>0</tilted></_>
    <_>
      <rects>
        <_>
          9 2 10 4 -1.</_>
        <_>
          9 4 10 2 2.</_></rects>
      <tilted>0</tilted></_>
    <_>
      <rects>
        <_>
          9 4 2 18 -1.</_>
        <_>
          10 4 1 18 2.</_></rects>
      <tilted>0</tilted></_>
    <_>
      <rects>
        <_>
          9 4 4 2 -1.</_>
        <_>
          9 4 2 1 2.</_>
        <_>
          11 5 2 1 2.</_></rects>
      <tilted>0</tilted></_>
    <_>
      <rects>
        <_>
          9 17 14 4 -1.</_>
        <_>
          9 17 7 2 2.</_>
        <_>
          16 19 7 2 2.</_></rects>
      <tilted>0</tilted></_>
    <_>
      <rects>
        <_>
          9 18 4 1 -1.</_>
        <_>
          11 18 2 1 2.</_></rects>
      <tilted>0</tilted></_>
    <_>
      <rects>
        <_>
          10 0 2 18 -1.</_>
        <_>
          10 0 1 9 2.</_>
        <_>
          11 9 1 9 2.</_></rects>
      <tilted>0</tilted></_>
    <_>
      <rects>
        <_>
          10 0 12 22 -1.</_>
        <_>
          16 0 6 22 2.</_></rects>
      <tilted>0</tilted></_>
    <_>
      <rects>
        <_>
          10 2 6 4 -1.</_>
        <_>
          10 4 6 2 2.</_></rects>
      <tilted>0</tilted></_>
    <_>
      <rects>
        <_>
          10 6 14 13 -1.</_>
        <_>
          17 6 7 13 2.</_></rects>
      <tilted>0</tilted></_>
    <_>
      <rects>
        <_>
          10 8 2 2 -1.</_>
        <_>
          10 9 2 1 2.</_></rects>
      <tilted>0</tilted></_>
    <_>
      <rects>
        <_>
          10 9 3 4 -1.</_>
        <_>
          10 11 3 2 2.</_></rects>
      <tilted>0</tilted></_>
    <_>
      <rects>
        <_>
          10 11 4 4 -1.</_>
        <_>
          10 13 4 2 2.</_></rects>
      <tilted>0</tilted></_>
    <_>
      <rects>
        <_>
          10 15 6 4 -1.</_>
        <_>
          10 17 6 2 2.</_></rects>
      <tilted>0</tilted></_>
    <_>
      <rects>
        <_>
          10 18 5 4 -1.</_>
        <_>
          10 20 5 2 2.</_></rects>
      <tilted>0</tilted></_>
    <_>
      <rects>
        <_>
          10 18 10 6 -1.</_>
        <_>
          15 18 5 6 2.</_></rects>
      <tilted>0</tilted></_>
    <_>
      <rects>
        <_>
          10 22 2 1 -1.</_>
        <_>
          11 22 1 1 2.</_></rects>
      <tilted>0</tilted></_>
    <_>
      <rects>
        <_>
          11 1 4 11 -1.</_>
        <_>
          13 1 2 11 2.</_></rects>
      <tilted>0</tilted></_>
    <_>
      <rects>
        <_>
          11 2 8 6 -1.</_>
        <_>
          11 5 8 3 2.</_></rects>
      <tilted>0</tilted></_>
    <_>
      <rects>
        <_>
          11 8 1 6 -1.</_>
        <_>
          11 11 1 3 2.</_></rects>
      <tilted>0</tilted></_>
    <_>
      <rects>
        <_>
          11 8 2 8 -1.</_>
        <_>
          11 8 1 4 2.</_>
        <_>
          12 12 1 4 2.</_></rects>
      <tilted>0</tilted></_>
    <_>
      <rects>
        <_>
          11 9 1 8 -1.</_>
        <_>
          11 13 1 4 2.</_></rects>
      <tilted>0</tilted></_>
    <_>
      <rects>
        <_>
          11 10 4 4 -1.</_>
        <_>
          13 10 2 4 2.</_></rects>
      <tilted>0</tilted></_>
    <_>
      <rects>
        <_>
          11 11 1 4 -1.</_>
        <_>
          11 13 1 2 2.</_></rects>
      <tilted>0</tilted></_>
    <_>
      <rects>
        <_>
          11 11 3 4 -1.</_>
        <_>
          11 13 3 2 2.</_></rects>
      <tilted>0</tilted></_>
    <_>
      <rects>
        <_>
          11 11 5 2 -1.</_>
        <_>
          11 12 5 1 2.</_></rects>
      <tilted>0</tilted></_>
    <_>
      <rects>
        <_>
          11 17 12 2 -1.</_>
        <_>
          11 18 12 1 2.</_></rects>
      <tilted>0</tilted></_>
    <_>
      <rects>
        <_>
          12 4 2 2 -1.</_>
        <_>
          12 4 1 1 2.</_>
        <_>
          13 5 1 1 2.</_></rects>
      <tilted>0</tilted></_>
    <_>
      <rects>
        <_>
          12 9 1 4 -1.</_>
        <_>
          12 11 1 2 2.</_></rects>
      <tilted>0</tilted></_>
    <_>
      <rects>
        <_>
          12 9 12 10 -1.</_>
        <_>
          18 9 6 10 2.</_></rects>
      <tilted>0</tilted></_>
    <_>
      <rects>
        <_>
          12 10 2 10 -1.</_>
        <_>
          12 10 1 5 2.</_>
        <_>
          13 15 1 5 2.</_></rects>
      <tilted>0</tilted></_>
    <_>
      <rects>
        <_>
          12 12 2 1 -1.</_>
        <_>
          13 12 1 1 2.</_></rects>
      <tilted>0</tilted></_>
    <_>
      <rects>
        <_>
          12 12 2 4 -1.</_>
        <_>
          12 14 2 2 2.</_></rects>
      <tilted>0</tilted></_>
    <_>
      <rects>
        <_>
          12 20 8 4 -1.</_>
        <_>
          16 20 4 4 2.</_></rects>
      <tilted>0</tilted></_>
    <_>
      <rects>
        <_>
          13 0 4 1 -1.</_>
        <_>
          15 0 2 1 2.</_></rects>
      <tilted>0</tilted></_>
    <_>
      <rects>
        <_>
          13 0 11 2 -1.</_>
        <_>
          13 1 11 1 2.</_></rects>
      <tilted>0</tilted></_>
    <_>
      <rects>
        <_>
          13 3 4 18 -1.</_>
        <_>
          13 3 2 9 2.</_>
        <_>
          15 12 2 9 2.</_></rects>
      <tilted>0</tilted></_>
    <_>
      <rects>
        <_>
          13 18 1 2 -1.</_>
        <_>
          13 19 1 1 2.</_></rects>
      <tilted>0</tilted></_>
    <_>
      <rects>
        <_>
          13 20 2 4 -1.</_>
        <_>
          14 20 1 4 2.</_></rects>
      <tilted>0</tilted></_>
    <_>
      <rects>
        <_>
          13 21 1 2 -1.</_>
        <_>
          13 22 1 1 2.</_></rects>
      <tilted>0</tilted></_>
    <_>
      <rects>
        <_>
          13 22 7 2 -1.</_>
        <_>
          13 23 7 1 2.</_></rects>
      <tilted>0</tilted></_>
    <_>
      <rects>
        <_>
          14 6 2 2 -1.</_>
        <_>
          14 6 1 1 2.</_>
        <_>
          15 7 1 1 2.</_></rects>
      <tilted>0</tilted></_>
    <_>
      <rects>
        <_>
          15 2 4 12 -1.</_>
        <_>
          17 2 2 12 2.</_></rects>
      <tilted>0</tilted></_>
    <_>
      <rects>
        <_>
          16 0 2 1 -1.</_>
        <_>
          17 0 1 1 2.</_></rects>
      <tilted>0</tilted></_>
    <_>
      <rects>
        <_>
          16 0 8 24 -1.</_>
        <_>
          20 0 4 24 2.</_></rects>
      <tilted>0</tilted></_>
    <_>
      <rects>
        <_>
          16 1 8 16 -1.</_>
        <_>
          20 1 4 16 2.</_></rects>
      <tilted>0</tilted></_>
    <_>
      <rects>
        <_>
          16 3 8 15 -1.</_>
        <_>
          20 3 4 15 2.</_></rects>
      <tilted>0</tilted></_>
    <_>
      <rects>
        <_>
          16 8 4 2 -1.</_>
        <_>
          16 8 2 1 2.</_>
        <_>
          18 9 2 1 2.</_></rects>
      <tilted>0</tilted></_>
    <_>
      <rects>
        <_>
          16 10 2 4 -1.</_>
        <_>
          17 10 1 4 2.</_></rects>
      <tilted>0</tilted></_>
    <_>
      <rects>
        <_>
          16 11 2 4 -1.</_>
        <_>
          16 13 2 2 2.</_></rects>
      <tilted>0</tilted></_>
    <_>
      <rects>
        <_>
          16 23 8 1 -1.</_>
        <_>
          20 23 4 1 2.</_></rects>
      <tilted>0</tilted></_>
    <_>
      <rects>
        <_>
          17 2 1 4 -1.</_>
        <_>
          17 4 1 2 2.</_></rects>
      <tilted>0</tilted></_>
    <_>
      <rects>
        <_>
          17 3 5 18 -1.</_>
        <_>
          17 12 5 9 2.</_></rects>
      <tilted>0</tilted></_>
    <_>
      <rects>
        <_>
          17 8 4 11 -1.</_>
        <_>
          19 8 2 11 2.</_></rects>
      <tilted>0</tilted></_>
    <_>
      <rects>
        <_>
          17 11 2 2 -1.</_>
        <_>
          18 11 1 2 2.</_></rects>
      <tilted>0</tilted></_>
    <_>
      <rects>
        <_>
          17 12 4 4 -1.</_>
        <_>
          17 12 2 2 2.</_>
        <_>
          19 14 2 2 2.</_></rects>
      <tilted>0</tilted></_>
    <_>
      <rects>
        <_>
          17 22 4 2 -1.</_>
        <_>
          17 23 4 1 2.</_></rects>
      <tilted>0</tilted></_>
    <_>
      <rects>
        <_>
          18 0 4 13 -1.</_>
        <_>
          20 0 2 13 2.</_></rects>
      <tilted>0</tilted></_>
    <_>
      <rects>
        <_>
          18 1 4 2 -1.</_>
        <_>
          18 2 4 1 2.</_></rects>
      <tilted>0</tilted></_>
    <_>
      <rects>
        <_>
          18 22 6 2 -1.</_>
        <_>
          18 22 3 1 2.</_>
        <_>
          21 23 3 1 2.</_></rects>
      <tilted>0</tilted></_>
    <_>
      <rects>
        <_>
          19 4 2 1 -1.</_>
        <_>
          20 4 1 1 2.</_></rects>
      <tilted>0</tilted></_>
    <_>
      <rects>
        <_>
          19 12 5 12 -1.</_>
        <_>
          19 18 5 6 2.</_></rects>
      <tilted>0</tilted></_>
    <_>
      <rects>
        <_>
          20 0 4 1 -1.</_>
        <_>
          22 0 2 1 2.</_></rects>
      <tilted>0</tilted></_>
    <_>
      <rects>
        <_>
          20 0 4 2 -1.</_>
        <_>
          22 0 2 2 2.</_></rects>
      <tilted>0</tilted></_>
    <_>
      <rects>
        <_>
          20 1 4 18 -1.</_>
        <_>
          20 1 2 9 2.</_>
        <_>
          22 10 2 9 2.</_></rects>
      <tilted>0</tilted></_>
    <_>
      <rects>
        <_>
          20 1 4 23 -1.</_>
        <_>
          22 1 2 23 2.</_></rects>
      <tilted>0</tilted></_>
    <_>
      <rects>
        <_>
          20 9 4 4 -1.</_>
        <_>
          20 9 2 2 2.</_>
        <_>
          22 11 2 2 2.</_></rects>
      <tilted>0</tilted></_>
    <_>
      <rects>
        <_>
          20 14 4 8 -1.</_>
        <_>
          20 18 4 4 2.</_></rects>
      <tilted>0</tilted></_>
    <_>
      <rects>
        <_>
          20 23 4 1 -1.</_>
        <_>
          22 23 2 1 2.</_></rects>
      <tilted>0</tilted></_>
    <_>
      <rects>
        <_>
          21 3 3 6 -1.</_>
        <_>
          21 6 3 3 2.</_></rects>
      <tilted>0</tilted></_>
    <_>
      <rects>
        <_>
          21 5 3 17 -1.</_>
        <_>
          22 5 1 17 2.</_></rects>
      <tilted>0</tilted></_>
    <_>
      <rects>
        <_>
          21 20 3 4 -1.</_>
        <_>
          21 22 3 2 2.</_></rects>
      <tilted>0</tilted></_>
    <_>
      <rects>
        <_>
          21 23 3 1 -1.</_>
        <_>
          22 23 1 1 2.</_></rects>
      <tilted>0</tilted></_>
    <_>
      <rects>
        <_>
          22 0 2 1 -1.</_>
        <_>
          23 0 1 1 2.</_></rects>
      <tilted>0</tilted></_>
    <_>
      <rects>
        <_>
          22 0 2 23 -1.</_>
        <_>
          23 0 1 23 2.</_></rects>
      <tilted>0</tilted></_>
    <_>
      <rects>
        <_>
          22 0 2 2 -1.</_>
        <_>
          22 1 2 1 2.</_></rects>
      <tilted>0</tilted></_>
    <_>
      <rects>
        <_>
          22 0 2 4 -1.</_>
        <_>
          22 2 2 2 2.</_></rects>
      <tilted>0</tilted></_>
    <_>
      <rects>
        <_>
          22 1 2 3 -1.</_>
        <_>
          23 1 1 3 2.</_></rects>
      <tilted>0</tilted></_>
    <_>
      <rects>
        <_>
          22 1 2 21 -1.</_>
        <_>
          23 1 1 21 2.</_></rects>
      <tilted>0</tilted></_>
    <_>
      <rects>
        <_>
          22 1 2 23 -1.</_>
        <_>
          23 1 1 23 2.</_></rects>
      <tilted>0</tilted></_>
    <_>
      <rects>
        <_>
          22 2 2 4 -1.</_>
        <_>
          23 2 1 4 2.</_></rects>
      <tilted>0</tilted></_>
    <_>
      <rects>
        <_>
          22 2 2 19 -1.</_>
        <_>
          23 2 1 19 2.</_></rects>
      <tilted>0</tilted></_>
    <_>
      <rects>
        <_>
          22 2 2 21 -1.</_>
        <_>
          23 2 1 21 2.</_></rects>
      <tilted>0</tilted></_>
    <_>
      <rects>
        <_>
          22 4 2 15 -1.</_>
        <_>
          23 4 1 15 2.</_></rects>
      <tilted>0</tilted></_>
    <_>
      <rects>
        <_>
          22 4 2 16 -1.</_>
        <_>
          23 4 1 16 2.</_></rects>
      <tilted>0</tilted></_>
    <_>
      <rects>
        <_>
          22 5 2 14 -1.</_>
        <_>
          23 5 1 14 2.</_></rects>
      <tilted>0</tilted></_>
    <_>
      <rects>
        <_>
          22 5 2 15 -1.</_>
        <_>
          23 5 1 15 2.</_></rects>
      <tilted>0</tilted></_>
    <_>
      <rects>
        <_>
          22 5 2 16 -1.</_>
        <_>
          23 5 1 16 2.</_></rects>
      <tilted>0</tilted></_>
    <_>
      <rects>
        <_>
          22 12 2 12 -1.</_>
        <_>
          22 18 2 6 2.</_></rects>
      <tilted>0</tilted></_>
    <_>
      <rects>
        <_>
          22 17 1 2 -1.</_>
        <_>
          22 18 1 1 2.</_></rects>
      <tilted>0</tilted></_>
    <_>
      <rects>
        <_>
          22 18 2 6 -1.</_>
        <_>
          22 21 2 3 2.</_></rects>
      <tilted>0</tilted></_>
    <_>
      <rects>
        <_>
          22 20 2 4 -1.</_>
        <_>
          22 20 1 2 2.</_>
        <_>
          23 22 1 2 2.</_></rects>
      <tilted>0</tilted></_>
    <_>
      <rects>
        <_>
          22 22 2 2 -1.</_>
        <_>
          23 22 1 2 2.</_></rects>
      <tilted>0</tilted></_>
    <_>
      <rects>
        <_>
          22 22 2 2 -1.</_>
        <_>
          22 23 2 1 2.</_></rects>
      <tilted>0</tilted></_>
    <_>
      <rects>
        <_>
          22 23 2 1 -1.</_>
        <_>
          23 23 1 1 2.</_></rects>
      <tilted>0</tilted></_>
    <_>
      <rects>
        <_>
          23 0 1 2 -1.</_>
        <_>
          23 1 1 1 2.</_></rects>
      <tilted>0</tilted></_>
    <_>
      <rects>
        <_>
          23 0 1 4 -1.</_>
        <_>
          23 2 1 2 2.</_></rects>
      <tilted>0</tilted></_>
    <_>
      <rects>
        <_>
          23 0 1 14 -1.</_>
        <_>
          23 7 1 7 2.</_></rects>
      <tilted>0</tilted></_>
    <_>
      <rects>
        <_>
          23 0 1 20 -1.</_>
        <_>
          23 10 1 10 2.</_></rects>
      <tilted>0</tilted></_>
    <_>
      <rects>
        <_>
          23 2 1 22 -1.</_>
        <_>
          23 13 1 11 2.</_></rects>
      <tilted>0</tilted></_>
    <_>
      <rects>
        <_>
          23 4 1 16 -1.</_>
        <_>
          23 12 1 8 2.</_></rects>
      <tilted>0</tilted></_>
    <_>
      <rects>
        <_>
          23 4 1 20 -1.</_>
        <_>
          23 14 1 10 2.</_></rects>
      <tilted>0</tilted></_>
    <_>
      <rects>
        <_>
          23 8 1 16 -1.</_>
        <_>
          23 16 1 8 2.</_></rects>
      <tilted>0</tilted></_>
    <_>
      <rects>
        <_>
          23 22 1 2 -1.</_>
        <_>
          23 23 1 1 2.</_></rects>
      <tilted>0</tilted></_></features></cascade>
</opencv_storage>
