<?xml version="1.0"?>
<opencv_storage>
<stage3>
  <maxWeakCount>9</maxWeakCount>
  <stageThreshold>-1.4962600469589233e+00</stageThreshold>
  <weakClassifiers>
    <_>
      <internalNodes>
        0 -1 157901 1.1550923809409142e-02</internalNodes>
      <leafValues>
        -7.0992904901504517e-01 1.7355371266603470e-02</leafValues></_>
    <_>
      <internalNodes>
        0 -1 1325 -2.3493301123380661e-02</internalNodes>
      <leafValues>
        3.0741709470748901e-01 -5.1069432497024536e-01</leafValues></_>
    <_>
      <internalNodes>
        0 -1 162104 2.0284391939640045e-04</internalNodes>
      <leafValues>
        1.6071078181266785e-01 -8.0537587404251099e-01</leafValues></_>
    <_>
      <internalNodes>
        0 -1 1024 -7.6871910132467747e-03</internalNodes>
      <leafValues>
        4.7277650237083435e-01 -2.8840214014053345e-01</leafValues></_>
    <_>
      <internalNodes>
        0 -1 49453 7.3335394263267517e-03</internalNodes>
      <leafValues>
        -3.1573152542114258e-01 5.1862227916717529e-01</leafValues></_>
    <_>
      <internalNodes>
        0 -1 90293 -1.1545235291123390e-02</internalNodes>
      <leafValues>
        3.5180905461311340e-01 -4.6039387583732605e-01</leafValues></_>
    <_>
      <internalNodes>
        0 -1 0 6.1124701460357755e-05</internalNodes>
      <leafValues>
        1.1590068042278290e-01 -9.6929562091827393e-01</leafValues></_>
    <_>
      <internalNodes>
        0 -1 162335 -2.6398822228657082e-05</internalNodes>
      <leafValues>
        -9.8843991756439209e-01 9.7971789538860321e-02</leafValues></_>
    <_>
      <internalNodes>
        0 -1 161445 1.0190919972956181e-02</internalNodes>
      <leafValues>
        -3.1297674775123596e-01 4.6549728512763977e-01</leafValues></_></weakClassifiers></stage3>
</opencv_storage>
