<?xml version="1.0"?>
<opencv_storage>
<cascade>
  <stageType>BOOST</stageType>
  <featureType>HAAR</featureType>
  <height>24</height>
  <width>24</width>
  <stageParams>
    <boostType>GAB</boostType>
    <minHitRate>9.9500000476837158e-01</minHitRate>
    <maxFalseAlarm>5.0000000000000000e-01</maxFalseAlarm>
    <weightTrimRate>9.4999999999999996e-01</weightTrimRate>
    <maxDepth>1</maxDepth>
    <maxWeakCount>100</maxWeakCount></stageParams>
  <featureParams>
    <maxCatCount>0</maxCatCount>
    <featSize>1</featSize>
    <mode>BASIC</mode></featureParams>
  <stageNum>11</stageNum>
  <stages>
    <!-- stage 0 -->
    <_>
      <maxWeakCount>1</maxWeakCount>
      <stageThreshold>9.1693288087844849e-01</stageThreshold>
      <weakClassifiers>
        <_>
          <internalNodes>
            0 -1 4 -8.3647891879081726e-02</internalNodes>
          <leafValues>
            9.1693288087844849e-01 -1.</leafValues></_></weakClassifiers></_>
    <!-- stage 1 -->
    <_>
      <maxWeakCount>1</maxWeakCount>
      <stageThreshold>9.1165512800216675e-01</stageThreshold>
      <weakClassifiers>
        <_>
          <internalNodes>
            0 -1 19 -7.9875981807708740e-01</internalNodes>
          <leafValues>
            9.1165512800216675e-01 -9.9768853187561035e-01</leafValues></_></weakClassifiers></_>
    <!-- stage 2 -->
    <_>
      <maxWeakCount>2</maxWeakCount>
      <stageThreshold>-4.7704851627349854e-01</stageThreshold>
      <weakClassifiers>
        <_>
          <internalNodes>
            0 -1 23 1.2126515805721283e-01</internalNodes>
          <leafValues>
            -9.5040822029113770e-01 4.4395411014556885e-01</leafValues></_>
        <_>
          <internalNodes>
            0 -1 20 -1.7710199952125549e-01</internalNodes>
          <leafValues>
            4.7335970401763916e-01 -8.8156509399414062e-01</leafValues></_></weakClassifiers></_>
    <!-- stage 3 -->
    <_>
      <maxWeakCount>2</maxWeakCount>
      <stageThreshold>-8.8805609941482544e-01</stageThreshold>
      <weakClassifiers>
        <_>
          <internalNodes>
            0 -1 7 7.2825968265533447e-02</internalNodes>
          <leafValues>
            -9.5461422204971313e-01 -6.4587973058223724e-02</leafValues></_>
        <_>
          <internalNodes>
            0 -1 0 -2.4263876184704714e-05</internalNodes>
          <leafValues>
            -1. 6.6558130085468292e-02</leafValues></_></weakClassifiers></_>
    <!-- stage 4 -->
    <_>
      <maxWeakCount>2</maxWeakCount>
      <stageThreshold>-1.0724247694015503e+00</stageThreshold>
      <weakClassifiers>
        <_>
          <internalNodes>
            0 -1 6 7.7608361840248108e-02</internalNodes>
          <leafValues>
            -9.2250370979309082e-01 -9.3394078314304352e-02</leafValues></_>
        <_>
          <internalNodes>
            0 -1 8 2.2610520943999290e-02</internalNodes>
          <leafValues>
            -9.7903072834014893e-01 7.5582824647426605e-02</leafValues></_></weakClassifiers></_>
    <!-- stage 5 -->
    <_>
      <maxWeakCount>6</maxWeakCount>
      <stageThreshold>-1.5376601219177246e+00</stageThreshold>
      <weakClassifiers>
        <_>
          <internalNodes>
            0 -1 17 -5.5354391224682331e-03</internalNodes>
          <leafValues>
            3.0247932672500610e-01 -7.3611474037170410e-01</leafValues></_>
        <_>
          <internalNodes>
            0 -1 15 3.2324972748756409e-01</internalNodes>
          <leafValues>
            -4.6500986814498901e-01 7.2722423076629639e-01</leafValues></_>
        <_>
          <internalNodes>
            0 -1 0 2.5713721697684377e-05</internalNodes>
          <leafValues>
            2.9747709631919861e-01 -1.</leafValues></_>
        <_>
          <internalNodes>
            0 -1 18 4.1721081361174583e-03</internalNodes>
          <leafValues>
            -4.6226301789283752e-01 6.2207561731338501e-01</leafValues></_>
        <_>
          <internalNodes>
            0 -1 26 3.0651293694972992e-02</internalNodes>
          <leafValues>
            -5.5804133415222168e-01 4.8950484395027161e-01</leafValues></_>
        <_>
          <internalNodes>
            0 -1 13 5.6677237153053284e-02</internalNodes>
          <leafValues>
            -6.6125446557998657e-01 4.0822663903236389e-01</leafValues></_></weakClassifiers></_>
    <!-- stage 6 -->
    <_>
      <maxWeakCount>4</maxWeakCount>
      <stageThreshold>-1.7400668859481812e+00</stageThreshold>
      <weakClassifiers>
        <_>
          <internalNodes>
            0 -1 11 -3.7597240880131721e-03</internalNodes>
          <leafValues>
            6.3545152544975281e-02 -7.6121932268142700e-01</leafValues></_>
        <_>
          <internalNodes>
            0 -1 3 -3.1980201601982117e-01</internalNodes>
          <leafValues>
            7.1900480985641479e-01 -5.0535470247268677e-01</leafValues></_>
        <_>
          <internalNodes>
            0 -1 24 8.0862447619438171e-02</internalNodes>
          <leafValues>
            -8.0869722366333008e-01 3.2779729366302490e-01</leafValues></_>
        <_>
          <internalNodes>
            0 -1 2 -5.1925368607044220e-02</internalNodes>
          <leafValues>
            2.0787972211837769e-01 -8.8915520906448364e-01</leafValues></_></weakClassifiers></_>
    <!-- stage 7 -->
    <_>
      <maxWeakCount>3</maxWeakCount>
      <stageThreshold>-5.8016848564147949e-01</stageThreshold>
      <weakClassifiers>
        <_>
          <internalNodes>
            0 -1 22 -1.7740038037300110e-01</internalNodes>
          <leafValues>
            -1.8547341227531433e-01 -8.1228435039520264e-01</leafValues></_>
        <_>
          <internalNodes>
            0 -1 27 -2.7537967980606481e-05</internalNodes>
          <leafValues>
            -1. 6.9244287908077240e-02</leafValues></_>
        <_>
          <internalNodes>
            0 -1 10 -2.3972059352672659e-05</internalNodes>
          <leafValues>
            -1. 1.6287156939506531e-01</leafValues></_></weakClassifiers></_>
    <!-- stage 8 -->
    <_>
      <maxWeakCount>4</maxWeakCount>
      <stageThreshold>-1.0506861209869385e+00</stageThreshold>
      <weakClassifiers>
        <_>
          <internalNodes>
            0 -1 21 -1.6151799261569977e-01</internalNodes>
          <leafValues>
            -1.0228233039379120e-01 -7.7341109514236450e-01</leafValues></_>
        <_>
          <internalNodes>
            0 -1 5 -1.8738710880279541e-01</internalNodes>
          <leafValues>
            3.4140291810035706e-01 -5.7979941368103027e-01</leafValues></_>
        <_>
          <internalNodes>
            0 -1 12 -2.7369532734155655e-02</internalNodes>
          <leafValues>
            3.8733997941017151e-01 -5.4631561040878296e-01</leafValues></_>
        <_>
          <internalNodes>
            0 -1 1 2.8651120373979211e-05</internalNodes>
          <leafValues>
            1.7771126329898834e-01 -1.</leafValues></_></weakClassifiers></_>
    <!-- stage 9 -->
    <_>
      <maxWeakCount>2</maxWeakCount>
      <stageThreshold>-3.2519945502281189e-01</stageThreshold>
      <weakClassifiers>
        <_>
          <internalNodes>
            0 -1 25 2.5631694370531477e-05</internalNodes>
          <leafValues>
            -3.4834724664688110e-01 -9.9644339084625244e-01</leafValues></_>
        <_>
          <internalNodes>
            0 -1 9 -2.5341812943224795e-05</internalNodes>
          <leafValues>
            -1. 2.3147789761424065e-02</leafValues></_></weakClassifiers></_>
    <!-- stage 10 -->
    <_>
      <maxWeakCount>3</maxWeakCount>
      <stageThreshold>-9.2559659481048584e-01</stageThreshold>
      <weakClassifiers>
        <_>
          <internalNodes>
            0 -1 14 -1.3941912353038788e-01</internalNodes>
          <leafValues>
            -6.7375883460044861e-02 -7.7415460348129272e-01</leafValues></_>
        <_>
          <internalNodes>
            0 -1 27 2.5781582735362463e-05</internalNodes>
          <leafValues>
            4.4443055987358093e-02 -1.</leafValues></_>
        <_>
          <internalNodes>
            0 -1 16 -1.5600889921188354e-02</internalNodes>
          <leafValues>
            1.6657796502113342e-01 -9.0266376733779907e-01</leafValues></_></weakClassifiers></_></stages>
  <features>
    <_>
      <rects>
        <_>
          0 0 2 24 -1.</_>
        <_>
          1 0 1 24 2.</_></rects>
      <tilted>0</tilted></_>
    <_>
      <rects>
        <_>
          0 0 24 3 -1.</_>
        <_>
          12 0 12 3 2.</_></rects>
      <tilted>0</tilted></_>
    <_>
      <rects>
        <_>
          0 0 24 10 -1.</_>
        <_>
          0 5 24 5 2.</_></rects>
      <tilted>0</tilted></_>
    <_>
      <rects>
        <_>
          0 2 21 14 -1.</_>
        <_>
          0 9 21 7 2.</_></rects>
      <tilted>0</tilted></_>
    <_>
      <rects>
        <_>
          0 9 14 7 -1.</_>
        <_>
          7 9 7 7 2.</_></rects>
      <tilted>0</tilted></_>
    <_>
      <rects>
        <_>
          0 9 16 7 -1.</_>
        <_>
          8 9 8 7 2.</_></rects>
      <tilted>0</tilted></_>
    <_>
      <rects>
        <_>
          0 14 19 10 -1.</_>
        <_>
          0 19 19 5 2.</_></rects>
      <tilted>0</tilted></_>
    <_>
      <rects>
        <_>
          0 14 23 10 -1.</_>
        <_>
          0 19 23 5 2.</_></rects>
      <tilted>0</tilted></_>
    <_>
      <rects>
        <_>
          0 16 24 8 -1.</_>
        <_>
          0 20 24 4 2.</_></rects>
      <tilted>0</tilted></_>
    <_>
      <rects>
        <_>
          0 22 10 2 -1.</_>
        <_>
          5 22 5 2 2.</_></rects>
      <tilted>0</tilted></_>
    <_>
      <rects>
        <_>
          2 0 22 3 -1.</_>
        <_>
          13 0 11 3 2.</_></rects>
      <tilted>0</tilted></_>
    <_>
      <rects>
        <_>
          2 3 16 2 -1.</_>
        <_>
          2 4 16 1 2.</_></rects>
      <tilted>0</tilted></_>
    <_>
      <rects>
        <_>
          2 4 6 18 -1.</_>
        <_>
          5 4 3 18 2.</_></rects>
      <tilted>0</tilted></_>
    <_>
      <rects>
        <_>
          4 3 20 20 -1.</_>
        <_>
          14 3 10 20 2.</_></rects>
      <tilted>0</tilted></_>
    <_>
      <rects>
        <_>
          4 10 18 1 -1.</_>
        <_>
          10 10 6 1 2.</_></rects>
      <tilted>0</tilted></_>
    <_>
      <rects>
        <_>
          4 10 16 14 -1.</_>
        <_>
          4 17 16 7 2.</_></rects>
      <tilted>0</tilted></_>
    <_>
      <rects>
        <_>
          5 3 15 6 -1.</_>
        <_>
          5 6 15 3 2.</_></rects>
      <tilted>0</tilted></_>
    <_>
      <rects>
        <_>
          6 3 12 2 -1.</_>
        <_>
          6 4 12 1 2.</_></rects>
      <tilted>0</tilted></_>
    <_>
      <rects>
        <_>
          6 20 12 2 -1.</_>
        <_>
          6 21 12 1 2.</_></rects>
      <tilted>0</tilted></_>
    <_>
      <rects>
        <_>
          9 0 7 24 -1.</_>
        <_>
          9 8 7 8 2.</_></rects>
      <tilted>0</tilted></_>
    <_>
      <rects>
        <_>
          9 0 8 16 -1.</_>
        <_>
          9 8 8 8 2.</_></rects>
      <tilted>0</tilted></_>
    <_>
      <rects>
        <_>
          9 1 1 21 -1.</_>
        <_>
          9 8 1 7 2.</_></rects>
      <tilted>0</tilted></_>
    <_>
      <rects>
        <_>
          10 0 1 24 -1.</_>
        <_>
          10 8 1 8 2.</_></rects>
      <tilted>0</tilted></_>
    <_>
      <rects>
        <_>
          10 9 14 7 -1.</_>
        <_>
          17 9 7 7 2.</_></rects>
      <tilted>0</tilted></_>
    <_>
      <rects>
        <_>
          14 0 10 24 -1.</_>
        <_>
          19 0 5 24 2.</_></rects>
      <tilted>0</tilted></_>
    <_>
      <rects>
        <_>
          14 22 10 2 -1.</_>
        <_>
          19 22 5 2 2.</_></rects>
      <tilted>0</tilted></_>
    <_>
      <rects>
        <_>
          17 0 6 24 -1.</_>
        <_>
          20 0 3 24 2.</_></rects>
      <tilted>0</tilted></_>
    <_>
      <rects>
        <_>
          23 0 1 22 -1.</_>
        <_>
          23 11 1 11 2.</_></rects>
      <tilted>0</tilted></_></features></cascade>
</opencv_storage>
