<?xml version="1.0"?>
<opencv_storage>
<stage8>
  <maxWeakCount>19</maxWeakCount>
  <stageThreshold>-1.3272191286087036e+00</stageThreshold>
  <weakClassifiers>
    <_>
      <internalNodes>
        0 -1 33863 -1.2996688019484282e-03</internalNodes>
      <leafValues>
        3.2098766416311264e-02 -5.1929384469985962e-01</leafValues></_>
    <_>
      <internalNodes>
        0 -1 1 -1.4784882296225987e-05</internalNodes>
      <leafValues>
        -5.5421245098114014e-01 1.0249368846416473e-01</leafValues></_>
    <_>
      <internalNodes>
        0 -1 161238 1.2846680358052254e-02</internalNodes>
      <leafValues>
        -2.1233655512332916e-01 3.6058017611503601e-01</leafValues></_>
    <_>
      <internalNodes>
        0 -1 5034 -7.6203956268727779e-05</internalNodes>
      <leafValues>
        1.9020253419876099e-01 -5.0507348775863647e-01</leafValues></_>
    <_>
      <internalNodes>
        0 -1 26532 -1.7455242574214935e-02</internalNodes>
      <leafValues>
        -7.0757526159286499e-01 6.3562735915184021e-02</leafValues></_>
    <_>
      <internalNodes>
        0 -1 1 2.1101026504766196e-05</internalNodes>
      <leafValues>
        7.5960390269756317e-02 -9.7783172130584717e-01</leafValues></_>
    <_>
      <internalNodes>
        0 -1 2641 -2.9211002588272095e-01</internalNodes>
      <leafValues>
        -1. 5.2478581666946411e-02</leafValues></_>
    <_>
      <internalNodes>
        0 -1 162335 -1.9224436982767656e-05</internalNodes>
      <leafValues>
        -9.8017764091491699e-01 3.8677886128425598e-02</leafValues></_>
    <_>
      <internalNodes>
        0 -1 70698 5.1977640396216884e-05</internalNodes>
      <leafValues>
        -5.0404816865921021e-01 1.1362818628549576e-01</leafValues></_>
    <_>
      <internalNodes>
        0 -1 71362 3.4292820096015930e-01</internalNodes>
      <leafValues>
        8.0136574804782867e-02 -7.9552131891250610e-01</leafValues></_>
    <_>
      <internalNodes>
        0 -1 14296 -5.0144677516072989e-05</internalNodes>
      <leafValues>
        1.1943659186363220e-01 -5.1769763231277466e-01</leafValues></_>
    <_>
      <internalNodes>
        0 -1 161184 -1.0808896149683278e-05</internalNodes>
      <leafValues>
        -9.3867498636245728e-01 7.0226103067398071e-02</leafValues></_>
    <_>
      <internalNodes>
        0 -1 133666 8.1340935139451176e-05</internalNodes>
      <leafValues>
        1.4310163259506226e-01 -4.1070568561553955e-01</leafValues></_>
    <_>
      <internalNodes>
        0 -1 101205 2.8326585888862610e-03</internalNodes>
      <leafValues>
        -1.2359362840652466e-01 5.3925168514251709e-01</leafValues></_>
    <_>
      <internalNodes>
        0 -1 129489 1.7676185816526413e-02</internalNodes>
      <leafValues>
        -1.1312026530504227e-01 5.2698069810867310e-01</leafValues></_>
    <_>
      <internalNodes>
        0 -1 136147 -5.0369673408567905e-04</internalNodes>
      <leafValues>
        4.2145940661430359e-01 -1.5569224953651428e-01</leafValues></_>
    <_>
      <internalNodes>
        0 -1 1163 -1.3029059395194054e-02</internalNodes>
      <leafValues>
        4.1154918074607849e-01 -1.6194900870323181e-01</leafValues></_>
    <_>
      <internalNodes>
        0 -1 87989 -1.3196728192269802e-02</internalNodes>
      <leafValues>
        7.2378420829772949e-01 -8.3047345280647278e-02</leafValues></_>
    <_>
      <internalNodes>
        0 -1 157884 1.1134967207908630e-03</internalNodes>
      <leafValues>
        -2.4252818524837494e-01 2.6629126071929932e-01</leafValues></_></weakClassifiers></stage8>
</opencv_storage>
