<?xml version="1.0"?>
<opencv_storage>
<stage3>
  <maxWeakCount>10</maxWeakCount>
  <stageThreshold>-1.7938101291656494e+00</stageThreshold>
  <weakClassifiers>
    <_>
      <internalNodes>
        0 -1 1325 -2.3494970053434372e-02</internalNodes>
      <leafValues>
        6.6123187541961670e-02 -7.2880214452743530e-01</leafValues></_>
    <_>
      <internalNodes>
        0 -1 37958 8.0480333417654037e-04</internalNodes>
      <leafValues>
        -6.5848225355148315e-01 1.8559856712818146e-01</leafValues></_>
    <_>
      <internalNodes>
        0 -1 1004 -6.4092343673110008e-03</internalNodes>
      <leafValues>
        4.8523139953613281e-01 -3.9984712004661560e-01</leafValues></_>
    <_>
      <internalNodes>
        0 -1 100368 -3.7184751126915216e-03</internalNodes>
      <leafValues>
        4.1888770461082458e-01 -3.6336183547973633e-01</leafValues></_>
    <_>
      <internalNodes>
        0 -1 162335 -2.6045534468721598e-05</internalNodes>
      <leafValues>
        -9.8915719985961914e-01 1.5355025231838226e-01</leafValues></_>
    <_>
      <internalNodes>
        0 -1 161184 -3.1122050131671131e-05</internalNodes>
      <leafValues>
        -8.6909586191177368e-01 1.1250576376914978e-01</leafValues></_>
    <_>
      <internalNodes>
        0 -1 161564 5.0567612051963806e-03</internalNodes>
      <leafValues>
        -3.6011800169944763e-01 3.7202727794647217e-01</leafValues></_>
    <_>
      <internalNodes>
        0 -1 1175 -1.0018995031714439e-02</internalNodes>
      <leafValues>
        5.2969241142272949e-01 -2.9136791825294495e-01</leafValues></_>
    <_>
      <internalNodes>
        0 -1 144634 4.2727321386337280e-02</internalNodes>
      <leafValues>
        -2.9203277826309204e-01 4.3561911582946777e-01</leafValues></_>
    <_>
      <internalNodes>
        0 -1 13372 1.0072816803585738e-04</internalNodes>
      <leafValues>
        1.4906744658946991e-01 -8.5955095291137695e-01</leafValues></_></weakClassifiers></stage3>
</opencv_storage>
