<?xml version="1.0"?>
<opencv_storage>
<stage6>
  <maxWeakCount>12</maxWeakCount>
  <stageThreshold>-1.3026006221771240e+00</stageThreshold>
  <weakClassifiers>
    <_>
      <internalNodes>
        0 -1 91648 -7.7776843681931496e-03</internalNodes>
      <leafValues>
        -3.4658510237932205e-02 -6.0658794641494751e-01</leafValues></_>
    <_>
      <internalNodes>
        0 -1 157684 -6.3107487221714109e-05</internalNodes>
      <leafValues>
        -8.1372332572937012e-01 8.8260762393474579e-02</leafValues></_>
    <_>
      <internalNodes>
        0 -1 2195 -2.2110166028141975e-03</internalNodes>
      <leafValues>
        2.1987685561180115e-01 -4.7800850868225098e-01</leafValues></_>
    <_>
      <internalNodes>
        0 -1 81 2.6629664716892876e-05</internalNodes>
      <leafValues>
        1.1324549466371536e-01 -9.2443269491195679e-01</leafValues></_>
    <_>
      <internalNodes>
        0 -1 50300 -6.0834645410068333e-05</internalNodes>
      <leafValues>
        1.4569109678268433e-01 -5.9504014253616333e-01</leafValues></_>
    <_>
      <internalNodes>
        0 -1 49457 8.8680833578109741e-03</internalNodes>
      <leafValues>
        -2.8349846601486206e-01 3.7983050942420959e-01</leafValues></_>
    <_>
      <internalNodes>
        0 -1 1911 3.4809175133705139e-01</internalNodes>
      <leafValues>
        1.4349496364593506e-01 -6.7137420177459717e-01</leafValues></_>
    <_>
      <internalNodes>
        0 -1 162098 -1.9524459275999106e-05</internalNodes>
      <leafValues>
        -9.2230933904647827e-01 8.2752130925655365e-02</leafValues></_>
    <_>
      <internalNodes>
        0 -1 89383 3.3057103864848614e-03</internalNodes>
      <leafValues>
        -2.4682898819446564e-01 3.6612591147422791e-01</leafValues></_>
    <_>
      <internalNodes>
        0 -1 162244 1.3328505679965019e-02</internalNodes>
      <leafValues>
        9.2863187193870544e-02 -7.0811975002288818e-01</leafValues></_>
    <_>
      <internalNodes>
        0 -1 162102 8.1403995864093304e-05</internalNodes>
      <leafValues>
        1.1432023346424103e-01 -7.1659994125366211e-01</leafValues></_>
    <_>
      <internalNodes>
        0 -1 157101 2.6795651137945242e-05</internalNodes>
      <leafValues>
        -4.6830454468727112e-01 1.6752029955387115e-01</leafValues></_></weakClassifiers></stage6>
</opencv_storage>
