<?xml version="1.0"?>
<opencv_storage>
<cascade>
  <stageType>BOOST</stageType>
  <featureType>HAAR</featureType>
  <height>40</height>
  <width>40</width>
  <stageParams>
    <boostType>GAB</boostType>
    <minHitRate>9.9500000476837158e-01</minHitRate>
    <maxFalseAlarm>5.0000000000000000e-01</maxFalseAlarm>
    <weightTrimRate>9.4999999999999996e-01</weightTrimRate>
    <maxDepth>1</maxDepth>
    <maxWeakCount>100</maxWeakCount></stageParams>
  <featureParams>
    <maxCatCount>0</maxCatCount>
    <featSize>1</featSize>
    <mode>BASIC</mode></featureParams>
  <stageNum>16</stageNum>
  <stages>
    <!-- stage 0 -->
    <_>
      <maxWeakCount>2</maxWeakCount>
      <stageThreshold>-8.8803499937057495e-02</stageThreshold>
      <weakClassifiers>
        <_>
          <internalNodes>
            0 -1 30 -8.8963203597813845e-04</internalNodes>
          <leafValues>
            8.9814811944961548e-01 -9.6583145856857300e-01</leafValues></_>
        <_>
          <internalNodes>
            0 -1 33 1.1200620792806149e-03</internalNodes>
          <leafValues>
            -9.5844286680221558e-01 8.7702792882919312e-01</leafValues></_></weakClassifiers></_>
    <!-- stage 1 -->
    <_>
      <maxWeakCount>2</maxWeakCount>
      <stageThreshold>-5.3884470462799072e-01</stageThreshold>
      <weakClassifiers>
        <_>
          <internalNodes>
            0 -1 32 -1.6094474494457245e-01</internalNodes>
          <leafValues>
            5.2991455793380737e-01 -9.4320356845855713e-01</leafValues></_>
        <_>
          <internalNodes>
            0 -1 87 1.4943142887204885e-03</internalNodes>
          <leafValues>
            -9.4254052639007568e-01 4.0435886383056641e-01</leafValues></_></weakClassifiers></_>
    <!-- stage 2 -->
    <_>
      <maxWeakCount>2</maxWeakCount>
      <stageThreshold>-5.6748485565185547e-01</stageThreshold>
      <weakClassifiers>
        <_>
          <internalNodes>
            0 -1 8 -1.1988247279077768e-03</internalNodes>
          <leafValues>
            3.5370051860809326e-01 -9.1289436817169189e-01</leafValues></_>
        <_>
          <internalNodes>
            0 -1 21 -1.6091002523899078e-01</internalNodes>
          <leafValues>
            4.6657973527908325e-01 -9.2118537425994873e-01</leafValues></_></weakClassifiers></_>
    <!-- stage 3 -->
    <_>
      <maxWeakCount>3</maxWeakCount>
      <stageThreshold>-4.9467527866363525e-01</stageThreshold>
      <weakClassifiers>
        <_>
          <internalNodes>
            0 -1 60 -3.4205480478703976e-03</internalNodes>
          <leafValues>
            1.3978494703769684e-01 -8.7180495262145996e-01</leafValues></_>
        <_>
          <internalNodes>
            0 -1 48 -6.6107779741287231e-02</internalNodes>
          <leafValues>
            2.7701106667518616e-01 -9.6618926525115967e-01</leafValues></_>
        <_>
          <internalNodes>
            0 -1 92 9.1043213615193963e-04</internalNodes>
          <leafValues>
            -9.1147130727767944e-01 3.8829883933067322e-01</leafValues></_></weakClassifiers></_>
    <!-- stage 4 -->
    <_>
      <maxWeakCount>3</maxWeakCount>
      <stageThreshold>-7.3455721139907837e-01</stageThreshold>
      <weakClassifiers>
        <_>
          <internalNodes>
            0 -1 53 -9.0964689850807190e-02</internalNodes>
          <leafValues>
            1.9595835357904434e-02 -9.6453899145126343e-01</leafValues></_>
        <_>
          <internalNodes>
            0 -1 15 -1.1148920748382807e-03</internalNodes>
          <leafValues>
            2.2294740378856659e-01 -9.4706386327743530e-01</leafValues></_>
        <_>
          <internalNodes>
            0 -1 88 -2.9603929724544287e-03</internalNodes>
          <leafValues>
            1.9291076064109802e-01 -9.8338788747787476e-01</leafValues></_></weakClassifiers></_>
    <!-- stage 5 -->
    <_>
      <maxWeakCount>3</maxWeakCount>
      <stageThreshold>-4.2144790291786194e-01</stageThreshold>
      <weakClassifiers>
        <_>
          <internalNodes>
            0 -1 7 -1.1989176273345947e-03</internalNodes>
          <leafValues>
            1.3177210092544556e-01 -9.3190413713455200e-01</leafValues></_>
        <_>
          <internalNodes>
            0 -1 42 2.6090450584888458e-02</internalNodes>
          <leafValues>
            -8.5705512762069702e-01 2.3883002996444702e-01</leafValues></_>
        <_>
          <internalNodes>
            0 -1 17 -4.7766184434294701e-03</internalNodes>
          <leafValues>
            3.0383515357971191e-01 -7.3541665077209473e-01</leafValues></_></weakClassifiers></_>
    <!-- stage 6 -->
    <_>
      <maxWeakCount>4</maxWeakCount>
      <stageThreshold>-1.2174425125122070e+00</stageThreshold>
      <weakClassifiers>
        <_>
          <internalNodes>
            0 -1 80 8.0957114696502686e-03</internalNodes>
          <leafValues>
            -9.3080168962478638e-01 1.2752613425254822e-01</leafValues></_>
        <_>
          <internalNodes>
            0 -1 52 5.5056950077414513e-03</internalNodes>
          <leafValues>
            -7.3286432027816772e-01 2.9853531718254089e-01</leafValues></_>
        <_>
          <internalNodes>
            0 -1 5 -1.5087006613612175e-03</internalNodes>
          <leafValues>
            2.9759624600410461e-01 -8.1165862083435059e-01</leafValues></_>
        <_>
          <internalNodes>
            0 -1 87 1.0650448966771364e-03</internalNodes>
          <leafValues>
            -9.0970063209533691e-01 2.4387016892433167e-01</leafValues></_></weakClassifiers></_>
    <!-- stage 7 -->
    <_>
      <maxWeakCount>5</maxWeakCount>
      <stageThreshold>-8.1357234716415405e-01</stageThreshold>
      <weakClassifiers>
        <_>
          <internalNodes>
            0 -1 25 2.0689978264272213e-03</internalNodes>
          <leafValues>
            -8.0258518457412720e-01 7.7781915664672852e-02</leafValues></_>
        <_>
          <internalNodes>
            0 -1 39 -3.8069263100624084e-03</internalNodes>
          <leafValues>
            4.9585741758346558e-01 -4.7544923424720764e-01</leafValues></_>
        <_>
          <internalNodes>
            0 -1 51 -2.7519404888153076e-02</internalNodes>
          <leafValues>
            2.5605136156082153e-01 -7.9841840267181396e-01</leafValues></_>
        <_>
          <internalNodes>
            0 -1 89 1.4697522856295109e-03</internalNodes>
          <leafValues>
            -7.4866050481796265e-01 2.6676976680755615e-01</leafValues></_>
        <_>
          <internalNodes>
            0 -1 26 5.9570925259322394e-06</internalNodes>
          <leafValues>
            1.5986722707748413e-01 -1.</leafValues></_></weakClassifiers></_>
    <!-- stage 8 -->
    <_>
      <maxWeakCount>2</maxWeakCount>
      <stageThreshold>-3.5913914442062378e-02</stageThreshold>
      <weakClassifiers>
        <_>
          <internalNodes>
            0 -1 1 5.8234668358636554e-06</internalNodes>
          <leafValues>
            -1.4372164011001587e-01 -9.9686026573181152e-01</leafValues></_>
        <_>
          <internalNodes>
            0 -1 84 -5.8902869568555616e-06</internalNodes>
          <leafValues>
            -1. 1.0780771821737289e-01</leafValues></_></weakClassifiers></_>
    <!-- stage 9 -->
    <_>
      <maxWeakCount>6</maxWeakCount>
      <stageThreshold>-1.0159195661544800e+00</stageThreshold>
      <weakClassifiers>
        <_>
          <internalNodes>
            0 -1 33 1.3559843646362424e-03</internalNodes>
          <leafValues>
            -8.8697206974029541e-01 -9.8061256110668182e-02</leafValues></_>
        <_>
          <internalNodes>
            0 -1 30 -1.4137913240119815e-03</internalNodes>
          <leafValues>
            1.6579544544219971e-01 -7.9342299699783325e-01</leafValues></_>
        <_>
          <internalNodes>
            0 -1 35 6.2431918195215985e-06</internalNodes>
          <leafValues>
            1.4809988439083099e-01 -9.0445870161056519e-01</leafValues></_>
        <_>
          <internalNodes>
            0 -1 36 -6.4776174258440733e-04</internalNodes>
          <leafValues>
            3.5244360566139221e-01 -4.4697746634483337e-01</leafValues></_>
        <_>
          <internalNodes>
            0 -1 22 6.1881868168711662e-03</internalNodes>
          <leafValues>
            -8.2249665260314941e-01 1.9500225782394409e-01</leafValues></_>
        <_>
          <internalNodes>
            0 -1 82 -6.3471843532170169e-06</internalNodes>
          <leafValues>
            -9.7977846860885620e-01 1.2298946827650070e-01</leafValues></_></weakClassifiers></_>
    <!-- stage 10 -->
    <_>
      <maxWeakCount>7</maxWeakCount>
      <stageThreshold>-1.0344856977462769e+00</stageThreshold>
      <weakClassifiers>
        <_>
          <internalNodes>
            0 -1 45 4.3005035258829594e-03</internalNodes>
          <leafValues>
            -5.7314014434814453e-01 1.3143549859523773e-01</leafValues></_>
        <_>
          <internalNodes>
            0 -1 86 6.1448308770195581e-06</internalNodes>
          <leafValues>
            1.1681514978408813e-01 -1.</leafValues></_>
        <_>
          <internalNodes>
            0 -1 74 1.5345942229032516e-02</internalNodes>
          <leafValues>
            -2.7709609270095825e-01 5.6636554002761841e-01</leafValues></_>
        <_>
          <internalNodes>
            0 -1 19 -6.9390926000778563e-06</internalNodes>
          <leafValues>
            -6.3589948415756226e-01 2.3219577968120575e-01</leafValues></_>
        <_>
          <internalNodes>
            0 -1 73 -8.0148993220063858e-06</internalNodes>
          <leafValues>
            -6.8910396099090576e-01 1.5354423224925995e-01</leafValues></_>
        <_>
          <internalNodes>
            0 -1 16 6.2450212681142148e-06</internalNodes>
          <leafValues>
            1.1770158261060715e-01 -9.2984527349472046e-01</leafValues></_>
        <_>
          <internalNodes>
            0 -1 47 4.3093803105875850e-04</internalNodes>
          <leafValues>
            -4.2867207527160645e-01 2.6767420768737793e-01</leafValues></_></weakClassifiers></_>
    <!-- stage 11 -->
    <_>
      <maxWeakCount>10</maxWeakCount>
      <stageThreshold>-1.1022009849548340e+00</stageThreshold>
      <weakClassifiers>
        <_>
          <internalNodes>
            0 -1 93 5.2748108282685280e-03</internalNodes>
          <leafValues>
            -4.9852940440177917e-01 1.6724137961864471e-01</leafValues></_>
        <_>
          <internalNodes>
            0 -1 69 6.8839147686958313e-02</internalNodes>
          <leafValues>
            -2.3648677766323090e-01 5.4286950826644897e-01</leafValues></_>
        <_>
          <internalNodes>
            0 -1 9 -1.5563687775284052e-03</internalNodes>
          <leafValues>
            1.9678309559822083e-01 -6.1861360073089600e-01</leafValues></_>
        <_>
          <internalNodes>
            0 -1 75 6.2137492022884544e-06</internalNodes>
          <leafValues>
            9.8938219249248505e-02 -8.7876641750335693e-01</leafValues></_>
        <_>
          <internalNodes>
            0 -1 78 -6.6616412368603051e-06</internalNodes>
          <leafValues>
            -9.3540471792221069e-01 9.9274791777133942e-02</leafValues></_>
        <_>
          <internalNodes>
            0 -1 5 -1.7943934071809053e-03</internalNodes>
          <leafValues>
            1.6903379559516907e-01 -5.6861186027526855e-01</leafValues></_>
        <_>
          <internalNodes>
            0 -1 25 1.8102119211107492e-03</internalNodes>
          <leafValues>
            -6.0717111825942993e-01 1.9356349110603333e-01</leafValues></_>
        <_>
          <internalNodes>
            0 -1 98 1.2450696900486946e-02</internalNodes>
          <leafValues>
            9.0560831129550934e-02 -8.8230216503143311e-01</leafValues></_>
        <_>
          <internalNodes>
            0 -1 91 8.4739481098949909e-04</internalNodes>
          <leafValues>
            -9.0935862064361572e-01 1.0128294676542282e-01</leafValues></_>
        <_>
          <internalNodes>
            0 -1 54 1.0262463241815567e-01</internalNodes>
          <leafValues>
            -1.9413299858570099e-01 6.1889463663101196e-01</leafValues></_></weakClassifiers></_>
    <!-- stage 12 -->
    <_>
      <maxWeakCount>12</maxWeakCount>
      <stageThreshold>-1.4381659030914307e+00</stageThreshold>
      <weakClassifiers>
        <_>
          <internalNodes>
            0 -1 44 4.8388456925749779e-03</internalNodes>
          <leafValues>
            -5.4135739803314209e-01 1.3760218024253845e-01</leafValues></_>
        <_>
          <internalNodes>
            0 -1 29 -1.6806885600090027e-02</internalNodes>
          <leafValues>
            1.1797216534614563e-01 -7.3690658807754517e-01</leafValues></_>
        <_>
          <internalNodes>
            0 -1 61 1.6257867682725191e-03</internalNodes>
          <leafValues>
            -6.8005114793777466e-01 1.8652126193046570e-01</leafValues></_>
        <_>
          <internalNodes>
            0 -1 66 1.5214718878269196e-03</internalNodes>
          <leafValues>
            -2.7031925320625305e-01 4.0609994530677795e-01</leafValues></_>
        <_>
          <internalNodes>
            0 -1 27 1.0403190739452839e-02</internalNodes>
          <leafValues>
            1.5132780373096466e-01 -8.6008214950561523e-01</leafValues></_>
        <_>
          <internalNodes>
            0 -1 94 -6.6315706135355867e-06</internalNodes>
          <leafValues>
            -9.2959386110305786e-01 6.8596549332141876e-02</leafValues></_>
        <_>
          <internalNodes>
            0 -1 58 -1.2094569206237793e-01</internalNodes>
          <leafValues>
            6.0632228851318359e-01 -1.6988222301006317e-01</leafValues></_>
        <_>
          <internalNodes>
            0 -1 41 9.1097071766853333e-02</internalNodes>
          <leafValues>
            -1.0480965673923492e-01 8.0451560020446777e-01</leafValues></_>
        <_>
          <internalNodes>
            0 -1 67 -2.5288518518209457e-03</internalNodes>
          <leafValues>
            3.4883186221122742e-01 -2.7432700991630554e-01</leafValues></_>
        <_>
          <internalNodes>
            0 -1 34 8.9223589748144150e-04</internalNodes>
          <leafValues>
            -7.5032204389572144e-01 1.2497546523809433e-01</leafValues></_>
        <_>
          <internalNodes>
            0 -1 3 -1.0813991539180279e-03</internalNodes>
          <leafValues>
            1.4327311515808105e-01 -7.8090113401412964e-01</leafValues></_>
        <_>
          <internalNodes>
            0 -1 96 6.9007210186100565e-06</internalNodes>
          <leafValues>
            1.2805365025997162e-01 -6.9995182752609253e-01</leafValues></_></weakClassifiers></_>
    <!-- stage 13 -->
    <_>
      <maxWeakCount>12</maxWeakCount>
      <stageThreshold>-1.1298146247863770e+00</stageThreshold>
      <weakClassifiers>
        <_>
          <internalNodes>
            0 -1 70 -3.4916974604129791e-02</internalNodes>
          <leafValues>
            4.9367088079452515e-01 -4.3516576290130615e-01</leafValues></_>
        <_>
          <internalNodes>
            0 -1 55 3.6796309053897858e-02</internalNodes>
          <leafValues>
            -5.3326880931854248e-01 2.0362080633640289e-01</leafValues></_>
        <_>
          <internalNodes>
            0 -1 18 5.9881708693865221e-06</internalNodes>
          <leafValues>
            1.5984585881233215e-01 -9.1111177206039429e-01</leafValues></_>
        <_>
          <internalNodes>
            0 -1 24 4.4008614495396614e-03</internalNodes>
          <leafValues>
            -2.4174791574478149e-01 3.9048078656196594e-01</leafValues></_>
        <_>
          <internalNodes>
            0 -1 2 -6.2425415962934494e-03</internalNodes>
          <leafValues>
            5.0495463609695435e-01 -2.0665222406387329e-01</leafValues></_>
        <_>
          <internalNodes>
            0 -1 23 6.2591889218310826e-06</internalNodes>
          <leafValues>
            9.6988789737224579e-02 -9.8359388113021851e-01</leafValues></_>
        <_>
          <internalNodes>
            0 -1 0 8.2216374576091766e-03</internalNodes>
          <leafValues>
            1.2589535117149353e-01 -7.0427173376083374e-01</leafValues></_>
        <_>
          <internalNodes>
            0 -1 85 -4.1411600250285119e-05</internalNodes>
          <leafValues>
            -6.0406732559204102e-01 1.3431319594383240e-01</leafValues></_>
        <_>
          <internalNodes>
            0 -1 59 -5.2809026092290878e-02</internalNodes>
          <leafValues>
            5.4693824052810669e-01 -1.7915956676006317e-01</leafValues></_>
        <_>
          <internalNodes>
            0 -1 81 -1.4321628259494901e-03</internalNodes>
          <leafValues>
            -6.8036681413650513e-01 1.4544567465782166e-01</leafValues></_>
        <_>
          <internalNodes>
            0 -1 90 2.7786011341959238e-03</internalNodes>
          <leafValues>
            -3.9474794268608093e-01 2.5313165783882141e-01</leafValues></_>
        <_>
          <internalNodes>
            0 -1 6 -3.2501274254173040e-03</internalNodes>
          <leafValues>
            2.5763997435569763e-01 -3.4486705064773560e-01</leafValues></_></weakClassifiers></_>
    <!-- stage 14 -->
    <_>
      <maxWeakCount>17</maxWeakCount>
      <stageThreshold>-1.2348531484603882e+00</stageThreshold>
      <weakClassifiers>
        <_>
          <internalNodes>
            0 -1 38 -6.9808103144168854e-02</internalNodes>
          <leafValues>
            6.3758391141891479e-01 -4.1076487302780151e-01</leafValues></_>
        <_>
          <internalNodes>
            0 -1 62 -8.1420689821243286e-02</internalNodes>
          <leafValues>
            4.1130366921424866e-01 -2.1091195940971375e-01</leafValues></_>
        <_>
          <internalNodes>
            0 -1 4 -6.4703393727540970e-03</internalNodes>
          <leafValues>
            1.5672981739044189e-01 -7.4711960554122925e-01</leafValues></_>
        <_>
          <internalNodes>
            0 -1 68 -3.1376391649246216e-02</internalNodes>
          <leafValues>
            3.4127745032310486e-01 -2.9362165927886963e-01</leafValues></_>
        <_>
          <internalNodes>
            0 -1 37 -6.4090073108673096e-02</internalNodes>
          <leafValues>
            7.1902912855148315e-01 -8.9396722614765167e-02</leafValues></_>
        <_>
          <internalNodes>
            0 -1 13 -7.0349886082112789e-03</internalNodes>
          <leafValues>
            2.1325844526290894e-01 -4.0004879236221313e-01</leafValues></_>
        <_>
          <internalNodes>
            0 -1 83 5.8377388631924987e-04</internalNodes>
          <leafValues>
            2.8476932644844055e-01 -2.7650326490402222e-01</leafValues></_>
        <_>
          <internalNodes>
            0 -1 46 1.7575252056121826e-01</internalNodes>
          <leafValues>
            -1.3647824525833130e-01 5.5059635639190674e-01</leafValues></_>
        <_>
          <internalNodes>
            0 -1 64 1.4683475717902184e-02</internalNodes>
          <leafValues>
            -4.3280908465385437e-01 2.2795251011848450e-01</leafValues></_>
        <_>
          <internalNodes>
            0 -1 49 6.3690771348774433e-03</internalNodes>
          <leafValues>
            -1.7492789030075073e-01 4.8793023824691772e-01</leafValues></_>
        <_>
          <internalNodes>
            0 -1 10 -9.6956413472071290e-05</internalNodes>
          <leafValues>
            2.2088290750980377e-01 -3.6769488453865051e-01</leafValues></_>
        <_>
          <internalNodes>
            0 -1 71 5.8568398344505113e-06</internalNodes>
          <leafValues>
            2.3529653251171112e-01 -3.5556083917617798e-01</leafValues></_>
        <_>
          <internalNodes>
            0 -1 43 2.5902304332703352e-04</internalNodes>
          <leafValues>
            -1.3242940604686737e-01 5.4455053806304932e-01</leafValues></_>
        <_>
          <internalNodes>
            0 -1 14 -6.2617715448141098e-03</internalNodes>
          <leafValues>
            1.2401127815246582e-01 -6.8559110164642334e-01</leafValues></_>
        <_>
          <internalNodes>
            0 -1 40 1.0295741260051727e-01</internalNodes>
          <leafValues>
            -1.1758241802453995e-01 7.5861829519271851e-01</leafValues></_>
        <_>
          <internalNodes>
            0 -1 79 1.2583291158080101e-02</internalNodes>
          <leafValues>
            -2.3589521646499634e-01 3.8084039092063904e-01</leafValues></_>
        <_>
          <internalNodes>
            0 -1 95 6.6492421319708228e-04</internalNodes>
          <leafValues>
            -3.1113156676292419e-01 2.9220071434974670e-01</leafValues></_></weakClassifiers></_>
    <!-- stage 15 -->
    <_>
      <maxWeakCount>14</maxWeakCount>
      <stageThreshold>-1.1348115205764771e+00</stageThreshold>
      <weakClassifiers>
        <_>
          <internalNodes>
            0 -1 65 -3.4692302346229553e-02</internalNodes>
          <leafValues>
            6.3085401058197021e-01 -4.2423620820045471e-01</leafValues></_>
        <_>
          <internalNodes>
            0 -1 77 -1.0790578089654446e-02</internalNodes>
          <leafValues>
            9.8033607006072998e-02 -7.4229675531387329e-01</leafValues></_>
        <_>
          <internalNodes>
            0 -1 12 -4.7951587475836277e-03</internalNodes>
          <leafValues>
            4.5232686400413513e-01 -1.9905576109886169e-01</leafValues></_>
        <_>
          <internalNodes>
            0 -1 56 -2.2752596996724606e-03</internalNodes>
          <leafValues>
            2.0212537050247192e-01 -6.0355770587921143e-01</leafValues></_>
        <_>
          <internalNodes>
            0 -1 72 -3.2881398510653526e-05</internalNodes>
          <leafValues>
            -3.1820911169052124e-01 2.8782689571380615e-01</leafValues></_>
        <_>
          <internalNodes>
            0 -1 20 -1.9821830210275948e-04</internalNodes>
          <leafValues>
            -8.2779270410537720e-01 1.4474132657051086e-01</leafValues></_>
        <_>
          <internalNodes>
            0 -1 31 -7.1199451667780522e-06</internalNodes>
          <leafValues>
            -3.8691467046737671e-01 1.9480456411838531e-01</leafValues></_>
        <_>
          <internalNodes>
            0 -1 50 -5.1432591862976551e-03</internalNodes>
          <leafValues>
            3.7915065884590149e-01 -1.9084970653057098e-01</leafValues></_>
        <_>
          <internalNodes>
            0 -1 57 -1.2841065227985382e-01</internalNodes>
          <leafValues>
            3.7402355670928955e-01 -2.4125961959362030e-01</leafValues></_>
        <_>
          <internalNodes>
            0 -1 28 -1.9618632271885872e-02</internalNodes>
          <leafValues>
            1.6056308150291443e-01 -4.8837468028068542e-01</leafValues></_>
        <_>
          <internalNodes>
            0 -1 63 -7.3641841299831867e-04</internalNodes>
          <leafValues>
            4.4684633612632751e-01 -2.0225921273231506e-01</leafValues></_>
        <_>
          <internalNodes>
            0 -1 11 -5.6319520808756351e-04</internalNodes>
          <leafValues>
            4.6541380882263184e-01 -2.1196526288986206e-01</leafValues></_>
        <_>
          <internalNodes>
            0 -1 97 -6.3691213654237799e-06</internalNodes>
          <leafValues>
            -9.9206298589706421e-01 9.3075819313526154e-02</leafValues></_>
        <_>
          <internalNodes>
            0 -1 76 -2.0724641217384487e-05</internalNodes>
          <leafValues>
            -8.1367963552474976e-01 6.3664227724075317e-02</leafValues></_></weakClassifiers></_></stages>
  <features>
    <_>
      <rects>
        <_>
          0 0 1 40 -1.</_>
        <_>
          0 20 1 20 2.</_></rects>
      <tilted>0</tilted></_>
    <_>
      <rects>
        <_>
          0 0 4 4 -1.</_>
        <_>
          2 0 2 4 2.</_></rects>
      <tilted>0</tilted></_>
    <_>
      <rects>
        <_>
          0 0 38 2 -1.</_>
        <_>
          0 1 38 1 2.</_></rects>
      <tilted>0</tilted></_>
    <_>
      <rects>
        <_>
          0 0 39 2 -1.</_>
        <_>
          0 1 39 1 2.</_></rects>
      <tilted>0</tilted></_>
    <_>
      <rects>
        <_>
          0 0 39 6 -1.</_>
        <_>
          0 3 39 3 2.</_></rects>
      <tilted>0</tilted></_>
    <_>
      <rects>
        <_>
          0 0 40 2 -1.</_>
        <_>
          0 1 40 1 2.</_></rects>
      <tilted>0</tilted></_>
    <_>
      <rects>
        <_>
          0 1 2 39 -1.</_>
        <_>
          1 1 1 39 2.</_></rects>
      <tilted>0</tilted></_>
    <_>
      <rects>
        <_>
          0 2 2 37 -1.</_>
        <_>
          1 2 1 37 2.</_></rects>
      <tilted>0</tilted></_>
    <_>
      <rects>
        <_>
          0 4 2 32 -1.</_>
        <_>
          1 4 1 32 2.</_></rects>
      <tilted>0</tilted></_>
    <_>
      <rects>
        <_>
          0 4 2 34 -1.</_>
        <_>
          1 4 1 34 2.</_></rects>
      <tilted>0</tilted></_>
    <_>
      <rects>
        <_>
          0 5 26 2 -1.</_>
        <_>
          0 5 13 1 2.</_>
        <_>
          13 6 13 1 2.</_></rects>
      <tilted>0</tilted></_>
    <_>
      <rects>
        <_>
          0 7 2 4 -1.</_>
        <_>
          1 7 1 4 2.</_></rects>
      <tilted>0</tilted></_>
    <_>
      <rects>
        <_>
          0 7 2 31 -1.</_>
        <_>
          1 7 1 31 2.</_></rects>
      <tilted>0</tilted></_>
    <_>
      <rects>
        <_>
          0 8 4 28 -1.</_>
        <_>
          2 8 2 28 2.</_></rects>
      <tilted>0</tilted></_>
    <_>
      <rects>
        <_>
          0 9 16 28 -1.</_>
        <_>
          8 9 8 28 2.</_></rects>
      <tilted>0</tilted></_>
    <_>
      <rects>
        <_>
          0 10 4 20 -1.</_>
        <_>
          2 10 2 20 2.</_></rects>
      <tilted>0</tilted></_>
    <_>
      <rects>
        <_>
          0 12 2 5 -1.</_>
        <_>
          1 12 1 5 2.</_></rects>
      <tilted>0</tilted></_>
    <_>
      <rects>
        <_>
          0 12 6 18 -1.</_>
        <_>
          3 12 3 18 2.</_></rects>
      <tilted>0</tilted></_>
    <_>
      <rects>
        <_>
          0 24 2 4 -1.</_>
        <_>
          1 24 1 4 2.</_></rects>
      <tilted>0</tilted></_>
    <_>
      <rects>
        <_>
          0 24 4 16 -1.</_>
        <_>
          0 24 2 8 2.</_>
        <_>
          2 32 2 8 2.</_></rects>
      <tilted>0</tilted></_>
    <_>
      <rects>
        <_>
          0 30 6 10 -1.</_>
        <_>
          0 35 6 5 2.</_></rects>
      <tilted>0</tilted></_>
    <_>
      <rects>
        <_>
          0 30 39 4 -1.</_>
        <_>
          13 30 13 4 2.</_></rects>
      <tilted>0</tilted></_>
    <_>
      <rects>
        <_>
          0 34 39 6 -1.</_>
        <_>
          0 37 39 3 2.</_></rects>
      <tilted>0</tilted></_>
    <_>
      <rects>
        <_>
          0 36 2 4 -1.</_>
        <_>
          1 36 1 4 2.</_></rects>
      <tilted>0</tilted></_>
    <_>
      <rects>
        <_>
          0 38 37 2 -1.</_>
        <_>
          0 39 37 1 2.</_></rects>
      <tilted>0</tilted></_>
    <_>
      <rects>
        <_>
          0 38 40 2 -1.</_>
        <_>
          0 39 40 1 2.</_></rects>
      <tilted>0</tilted></_>
    <_>
      <rects>
        <_>
          0 39 6 1 -1.</_>
        <_>
          3 39 3 1 2.</_></rects>
      <tilted>0</tilted></_>
    <_>
      <rects>
        <_>
          0 39 40 1 -1.</_>
        <_>
          20 39 20 1 2.</_></rects>
      <tilted>0</tilted></_>
    <_>
      <rects>
        <_>
          1 0 25 12 -1.</_>
        <_>
          1 6 25 6 2.</_></rects>
      <tilted>0</tilted></_>
    <_>
      <rects>
        <_>
          1 0 30 16 -1.</_>
        <_>
          1 8 30 8 2.</_></rects>
      <tilted>0</tilted></_>
    <_>
      <rects>
        <_>
          1 0 38 2 -1.</_>
        <_>
          1 1 38 1 2.</_></rects>
      <tilted>0</tilted></_>
    <_>
      <rects>
        <_>
          1 2 4 7 -1.</_>
        <_>
          3 2 2 7 2.</_></rects>
      <tilted>0</tilted></_>
    <_>
      <rects>
        <_>
          1 6 39 4 -1.</_>
        <_>
          14 6 13 4 2.</_></rects>
      <tilted>0</tilted></_>
    <_>
      <rects>
        <_>
          1 38 38 2 -1.</_>
        <_>
          1 39 38 1 2.</_></rects>
      <tilted>0</tilted></_>
    <_>
      <rects>
        <_>
          1 38 39 2 -1.</_>
        <_>
          1 39 39 1 2.</_></rects>
      <tilted>0</tilted></_>
    <_>
      <rects>
        <_>
          2 0 1 8 -1.</_>
        <_>
          2 4 1 4 2.</_></rects>
      <tilted>0</tilted></_>
    <_>
      <rects>
        <_>
          2 4 24 4 -1.</_>
        <_>
          2 4 12 2 2.</_>
        <_>
          14 6 12 2 2.</_></rects>
      <tilted>0</tilted></_>
    <_>
      <rects>
        <_>
          2 18 34 5 -1.</_>
        <_>
          19 18 17 5 2.</_></rects>
      <tilted>0</tilted></_>
    <_>
      <rects>
        <_>
          3 0 20 14 -1.</_>
        <_>
          3 0 10 7 2.</_>
        <_>
          13 7 10 7 2.</_></rects>
      <tilted>0</tilted></_>
    <_>
      <rects>
        <_>
          3 0 34 2 -1.</_>
        <_>
          3 1 34 1 2.</_></rects>
      <tilted>0</tilted></_>
    <_>
      <rects>
        <_>
          3 14 26 11 -1.</_>
        <_>
          16 14 13 11 2.</_></rects>
      <tilted>0</tilted></_>
    <_>
      <rects>
        <_>
          3 16 30 10 -1.</_>
        <_>
          18 16 15 10 2.</_></rects>
      <tilted>0</tilted></_>
    <_>
      <rects>
        <_>
          3 22 29 18 -1.</_>
        <_>
          3 31 29 9 2.</_></rects>
      <tilted>0</tilted></_>
    <_>
      <rects>
        <_>
          3 29 2 2 -1.</_>
        <_>
          4 29 1 2 2.</_></rects>
      <tilted>0</tilted></_>
    <_>
      <rects>
        <_>
          3 38 34 2 -1.</_>
        <_>
          3 39 34 1 2.</_></rects>
      <tilted>0</tilted></_>
    <_>
      <rects>
        <_>
          3 38 35 2 -1.</_>
        <_>
          3 39 35 1 2.</_></rects>
      <tilted>0</tilted></_>
    <_>
      <rects>
        <_>
          4 7 26 30 -1.</_>
        <_>
          4 22 26 15 2.</_></rects>
      <tilted>0</tilted></_>
    <_>
      <rects>
        <_>
          4 32 20 4 -1.</_>
        <_>
          4 32 10 2 2.</_>
        <_>
          14 34 10 2 2.</_></rects>
      <tilted>0</tilted></_>
    <_>
      <rects>
        <_>
          4 37 24 3 -1.</_>
        <_>
          4 38 24 1 2.</_></rects>
      <tilted>0</tilted></_>
    <_>
      <rects>
        <_>
          4 38 34 2 -1.</_>
        <_>
          4 39 34 1 2.</_></rects>
      <tilted>0</tilted></_>
    <_>
      <rects>
        <_>
          5 0 31 2 -1.</_>
        <_>
          5 1 31 1 2.</_></rects>
      <tilted>0</tilted></_>
    <_>
      <rects>
        <_>
          5 0 32 16 -1.</_>
        <_>
          5 8 32 8 2.</_></rects>
      <tilted>0</tilted></_>
    <_>
      <rects>
        <_>
          5 36 35 4 -1.</_>
        <_>
          5 38 35 2 2.</_></rects>
      <tilted>0</tilted></_>
    <_>
      <rects>
        <_>
          6 0 32 3 -1.</_>
        <_>
          6 1 32 1 2.</_></rects>
      <tilted>0</tilted></_>
    <_>
      <rects>
        <_>
          6 12 27 20 -1.</_>
        <_>
          6 22 27 10 2.</_></rects>
      <tilted>0</tilted></_>
    <_>
      <rects>
        <_>
          6 15 30 20 -1.</_>
        <_>
          6 25 30 10 2.</_></rects>
      <tilted>0</tilted></_>
    <_>
      <rects>
        <_>
          7 0 25 4 -1.</_>
        <_>
          7 2 25 2 2.</_></rects>
      <tilted>0</tilted></_>
    <_>
      <rects>
        <_>
          7 1 29 26 -1.</_>
        <_>
          7 14 29 13 2.</_></rects>
      <tilted>0</tilted></_>
    <_>
      <rects>
        <_>
          7 4 24 26 -1.</_>
        <_>
          19 4 12 26 2.</_></rects>
      <tilted>0</tilted></_>
    <_>
      <rects>
        <_>
          7 6 12 29 -1.</_>
        <_>
          13 6 6 29 2.</_></rects>
      <tilted>0</tilted></_>
    <_>
      <rects>
        <_>
          9 0 21 6 -1.</_>
        <_>
          9 3 21 3 2.</_></rects>
      <tilted>0</tilted></_>
    <_>
      <rects>
        <_>
          11 34 19 6 -1.</_>
        <_>
          11 37 19 3 2.</_></rects>
      <tilted>0</tilted></_>
    <_>
      <rects>
        <_>
          12 7 22 22 -1.</_>
        <_>
          12 18 22 11 2.</_></rects>
      <tilted>0</tilted></_>
    <_>
      <rects>
        <_>
          12 29 2 6 -1.</_>
        <_>
          12 32 2 3 2.</_></rects>
      <tilted>0</tilted></_>
    <_>
      <rects>
        <_>
          12 30 19 10 -1.</_>
        <_>
          12 35 19 5 2.</_></rects>
      <tilted>0</tilted></_>
    <_>
      <rects>
        <_>
          13 16 22 4 -1.</_>
        <_>
          24 16 11 4 2.</_></rects>
      <tilted>0</tilted></_>
    <_>
      <rects>
        <_>
          15 5 20 2 -1.</_>
        <_>
          15 5 10 1 2.</_>
        <_>
          25 6 10 1 2.</_></rects>
      <tilted>0</tilted></_>
    <_>
      <rects>
        <_>
          15 32 22 4 -1.</_>
        <_>
          15 32 11 2 2.</_>
        <_>
          26 34 11 2 2.</_></rects>
      <tilted>0</tilted></_>
    <_>
      <rects>
        <_>
          17 18 6 4 -1.</_>
        <_>
          19 18 2 4 2.</_></rects>
      <tilted>0</tilted></_>
    <_>
      <rects>
        <_>
          18 6 16 26 -1.</_>
        <_>
          26 6 8 26 2.</_></rects>
      <tilted>0</tilted></_>
    <_>
      <rects>
        <_>
          18 15 6 18 -1.</_>
        <_>
          18 24 6 9 2.</_></rects>
      <tilted>0</tilted></_>
    <_>
      <rects>
        <_>
          18 35 4 2 -1.</_>
        <_>
          18 36 4 1 2.</_></rects>
      <tilted>0</tilted></_>
    <_>
      <rects>
        <_>
          19 0 3 6 -1.</_>
        <_>
          19 3 3 3 2.</_></rects>
      <tilted>0</tilted></_>
    <_>
      <rects>
        <_>
          24 39 6 1 -1.</_>
        <_>
          27 39 3 1 2.</_></rects>
      <tilted>0</tilted></_>
    <_>
      <rects>
        <_>
          26 16 12 7 -1.</_>
        <_>
          32 16 6 7 2.</_></rects>
      <tilted>0</tilted></_>
    <_>
      <rects>
        <_>
          27 0 4 2 -1.</_>
        <_>
          27 1 4 1 2.</_></rects>
      <tilted>0</tilted></_>
    <_>
      <rects>
        <_>
          30 2 10 2 -1.</_>
        <_>
          35 2 5 2 2.</_></rects>
      <tilted>0</tilted></_>
    <_>
      <rects>
        <_>
          30 8 2 6 -1.</_>
        <_>
          30 10 2 2 2.</_></rects>
      <tilted>0</tilted></_>
    <_>
      <rects>
        <_>
          30 36 8 4 -1.</_>
        <_>
          30 38 8 2 2.</_></rects>
      <tilted>0</tilted></_>
    <_>
      <rects>
        <_>
          33 11 6 18 -1.</_>
        <_>
          36 11 3 18 2.</_></rects>
      <tilted>0</tilted></_>
    <_>
      <rects>
        <_>
          34 1 6 39 -1.</_>
        <_>
          37 1 3 39 2.</_></rects>
      <tilted>0</tilted></_>
    <_>
      <rects>
        <_>
          34 25 3 12 -1.</_>
        <_>
          34 31 3 6 2.</_></rects>
      <tilted>0</tilted></_>
    <_>
      <rects>
        <_>
          34 39 6 1 -1.</_>
        <_>
          37 39 3 1 2.</_></rects>
      <tilted>0</tilted></_>
    <_>
      <rects>
        <_>
          35 7 2 26 -1.</_>
        <_>
          36 7 1 26 2.</_></rects>
      <tilted>0</tilted></_>
    <_>
      <rects>
        <_>
          36 0 4 1 -1.</_>
        <_>
          38 0 2 1 2.</_></rects>
      <tilted>0</tilted></_>
    <_>
      <rects>
        <_>
          36 0 4 18 -1.</_>
        <_>
          36 0 2 9 2.</_>
        <_>
          38 9 2 9 2.</_></rects>
      <tilted>0</tilted></_>
    <_>
      <rects>
        <_>
          36 0 4 4 -1.</_>
        <_>
          36 2 4 2 2.</_></rects>
      <tilted>0</tilted></_>
    <_>
      <rects>
        <_>
          36 10 4 20 -1.</_>
        <_>
          38 10 2 20 2.</_></rects>
      <tilted>0</tilted></_>
    <_>
      <rects>
        <_>
          37 39 3 1 -1.</_>
        <_>
          38 39 1 1 2.</_></rects>
      <tilted>0</tilted></_>
    <_>
      <rects>
        <_>
          38 0 2 36 -1.</_>
        <_>
          39 0 1 36 2.</_></rects>
      <tilted>0</tilted></_>
    <_>
      <rects>
        <_>
          38 1 2 38 -1.</_>
        <_>
          39 1 1 38 2.</_></rects>
      <tilted>0</tilted></_>
    <_>
      <rects>
        <_>
          38 1 2 39 -1.</_>
        <_>
          39 1 1 39 2.</_></rects>
      <tilted>0</tilted></_>
    <_>
      <rects>
        <_>
          38 4 2 34 -1.</_>
        <_>
          39 4 1 34 2.</_></rects>
      <tilted>0</tilted></_>
    <_>
      <rects>
        <_>
          38 8 2 32 -1.</_>
        <_>
          39 8 1 32 2.</_></rects>
      <tilted>0</tilted></_>
    <_>
      <rects>
        <_>
          38 21 2 7 -1.</_>
        <_>
          39 21 1 7 2.</_></rects>
      <tilted>0</tilted></_>
    <_>
      <rects>
        <_>
          38 24 2 9 -1.</_>
        <_>
          39 24 1 9 2.</_></rects>
      <tilted>0</tilted></_>
    <_>
      <rects>
        <_>
          38 30 2 10 -1.</_>
        <_>
          38 30 1 5 2.</_>
        <_>
          39 35 1 5 2.</_></rects>
      <tilted>0</tilted></_>
    <_>
      <rects>
        <_>
          38 37 2 3 -1.</_>
        <_>
          39 37 1 3 2.</_></rects>
      <tilted>0</tilted></_>
    <_>
      <rects>
        <_>
          39 8 1 32 -1.</_>
        <_>
          39 24 1 16 2.</_></rects>
      <tilted>0</tilted></_></features></cascade>
</opencv_storage>
