<?xml version="1.0"?>
<opencv_storage>
<stage9>
  <maxWeakCount>10</maxWeakCount>
  <stageThreshold>-1.2651714086532593e+00</stageThreshold>
  <weakClassifiers>
    <_>
      <internalNodes>
        0 -1 3569966 -4.0616808109916747e-04</internalNodes>
      <leafValues>
        1.8620689213275909e-01 -5.5621892213821411e-01</leafValues></_>
    <_>
      <internalNodes>
        0 -1 610055 1.0546147677814588e-04</internalNodes>
      <leafValues>
        -7.5148981809616089e-01 1.4242029190063477e-01</leafValues></_>
    <_>
      <internalNodes>
        0 -1 1005230 -2.5715943775139749e-04</internalNodes>
      <leafValues>
        1.8552295863628387e-01 -6.8721610307693481e-01</leafValues></_>
    <_>
      <internalNodes>
        0 -1 6259118 -2.7555479391594417e-06</internalNodes>
      <leafValues>
        -9.1932713985443115e-01 1.1112877726554871e-01</leafValues></_>
    <_>
      <internalNodes>
        0 -1 206939 -3.1068957468960434e-06</internalNodes>
      <leafValues>
        -9.8554170131683350e-01 9.3571402132511139e-02</leafValues></_>
    <_>
      <internalNodes>
        0 -1 2254780 3.1111789867281914e-03</internalNodes>
      <leafValues>
        1.4039565622806549e-01 -7.0022976398468018e-01</leafValues></_>
    <_>
      <internalNodes>
        0 -1 26932 -8.3419494330883026e-05</internalNodes>
      <leafValues>
        1.4871594309806824e-01 -6.5900713205337524e-01</leafValues></_>
    <_>
      <internalNodes>
        0 -1 6257893 3.7218355828372296e-06</internalNodes>
      <leafValues>
        -7.8768283128738403e-01 1.6566938161849976e-01</leafValues></_>
    <_>
      <internalNodes>
        0 -1 6234314 2.9406451176328119e-06</internalNodes>
      <leafValues>
        9.5372878015041351e-02 -9.2944079637527466e-01</leafValues></_>
    <_>
      <internalNodes>
        0 -1 6263366 -2.6158011223742506e-06</internalNodes>
      <leafValues>
        -8.4628975391387939e-01 7.9331591725349426e-02</leafValues></_></weakClassifiers></stage9>
</opencv_storage>
