<?xml version="1.0"?>
<opencv_storage>
<cascade>
  <stageType>BOOST</stageType>
  <featureType>HAAR</featureType>
  <height>60</height>
  <width>60</width>
  <stageParams>
    <boostType>GAB</boostType>
    <minHitRate>9.9500000476837158e-01</minHitRate>
    <maxFalseAlarm>5.0000000000000000e-01</maxFalseAlarm>
    <weightTrimRate>9.4999999999999996e-01</weightTrimRate>
    <maxDepth>1</maxDepth>
    <maxWeakCount>100</maxWeakCount></stageParams>
  <featureParams>
    <maxCatCount>0</maxCatCount>
    <featSize>1</featSize>
    <mode>BASIC</mode></featureParams>
  <stageNum>16</stageNum>
  <stages>
    <!-- stage 0 -->
    <_>
      <maxWeakCount>2</maxWeakCount>
      <stageThreshold>-3.0027139186859131e-01</stageThreshold>
      <weakClassifiers>
        <_>
          <internalNodes>
            0 -1 9 -3.8437604904174805e-02</internalNodes>
          <leafValues>
            8.0523091554641724e-01 -9.8954397439956665e-01</leafValues></_>
        <_>
          <internalNodes>
            0 -1 43 -4.4230788946151733e-02</internalNodes>
          <leafValues>
            6.8927264213562012e-01 -9.4655138254165649e-01</leafValues></_></weakClassifiers></_>
    <!-- stage 1 -->
    <_>
      <maxWeakCount>3</maxWeakCount>
      <stageThreshold>-4.2077729105949402e-01</stageThreshold>
      <weakClassifiers>
        <_>
          <internalNodes>
            0 -1 48 8.2421384751796722e-02</internalNodes>
          <leafValues>
            -7.8973716497421265e-01 2.7592954039573669e-01</leafValues></_>
        <_>
          <internalNodes>
            0 -1 25 4.5137981032894459e-06</internalNodes>
          <leafValues>
            1.8626804649829865e-01 -1.</leafValues></_>
        <_>
          <internalNodes>
            0 -1 18 -4.0759000512480270e-06</internalNodes>
          <leafValues>
            -1. 1.8269184231758118e-01</leafValues></_></weakClassifiers></_>
    <!-- stage 2 -->
    <_>
      <maxWeakCount>2</maxWeakCount>
      <stageThreshold>-4.9978742003440857e-01</stageThreshold>
      <weakClassifiers>
        <_>
          <internalNodes>
            0 -1 46 1.0205145925283432e-01</internalNodes>
          <leafValues>
            -7.5856167078018188e-01 4.0207374095916748e-01</leafValues></_>
        <_>
          <internalNodes>
            0 -1 25 -3.4097733987437095e-06</internalNodes>
          <leafValues>
            -1. 2.5877422094345093e-01</leafValues></_></weakClassifiers></_>
    <!-- stage 3 -->
    <_>
      <maxWeakCount>2</maxWeakCount>
      <stageThreshold>-6.9207173585891724e-01</stageThreshold>
      <weakClassifiers>
        <_>
          <internalNodes>
            0 -1 38 4.9016464501619339e-02</internalNodes>
          <leafValues>
            -9.3644070625305176e-01 2.8737542033195496e-01</leafValues></_>
        <_>
          <internalNodes>
            0 -1 6 1.1386522650718689e-01</internalNodes>
          <leafValues>
            3.6280882358551025e-01 -9.7944712638854980e-01</leafValues></_></weakClassifiers></_>
    <!-- stage 4 -->
    <_>
      <maxWeakCount>5</maxWeakCount>
      <stageThreshold>-1.0316300392150879e+00</stageThreshold>
      <weakClassifiers>
        <_>
          <internalNodes>
            0 -1 7 -3.3561840653419495e-02</internalNodes>
          <leafValues>
            8.7830685079097748e-02 -9.1850310564041138e-01</leafValues></_>
        <_>
          <internalNodes>
            0 -1 56 -1.9776157569140196e-03</internalNodes>
          <leafValues>
            1.7923235893249512e-01 -9.6971207857131958e-01</leafValues></_>
        <_>
          <internalNodes>
            0 -1 14 -2.1026916801929474e-02</internalNodes>
          <leafValues>
            3.7937742471694946e-01 -7.6796561479568481e-01</leafValues></_>
        <_>
          <internalNodes>
            0 -1 21 8.0901071429252625e-02</internalNodes>
          <leafValues>
            2.3124784231185913e-01 -9.0740853548049927e-01</leafValues></_>
        <_>
          <internalNodes>
            0 -1 20 -1.2236313521862030e-01</internalNodes>
          <leafValues>
            -9.6568435430526733e-01 3.7668111920356750e-01</leafValues></_></weakClassifiers></_>
    <!-- stage 5 -->
    <_>
      <maxWeakCount>3</maxWeakCount>
      <stageThreshold>-6.3306725025177002e-01</stageThreshold>
      <weakClassifiers>
        <_>
          <internalNodes>
            0 -1 8 -7.2778895497322083e-02</internalNodes>
          <leafValues>
            1.7975288629531860e-01 -8.8282680511474609e-01</leafValues></_>
        <_>
          <internalNodes>
            0 -1 5 1.1624842137098312e-01</internalNodes>
          <leafValues>
            2.2453327476978302e-01 -9.7939169406890869e-01</leafValues></_>
        <_>
          <internalNodes>
            0 -1 58 2.7118883735965937e-05</internalNodes>
          <leafValues>
            1.6657151281833649e-01 -1.</leafValues></_></weakClassifiers></_>
    <!-- stage 6 -->
    <_>
      <maxWeakCount>6</maxWeakCount>
      <stageThreshold>-7.9428249597549438e-01</stageThreshold>
      <weakClassifiers>
        <_>
          <internalNodes>
            0 -1 50 9.5683604478836060e-02</internalNodes>
          <leafValues>
            -6.3584566116333008e-01 3.5895577073097229e-01</leafValues></_>
        <_>
          <internalNodes>
            0 -1 10 -1.1850547790527344e-01</internalNodes>
          <leafValues>
            -8.3797609806060791e-01 1.9131076335906982e-01</leafValues></_>
        <_>
          <internalNodes>
            0 -1 27 1.2516826391220093e-01</internalNodes>
          <leafValues>
            2.2284978628158569e-01 -9.7761476039886475e-01</leafValues></_>
        <_>
          <internalNodes>
            0 -1 23 -3.7426031194627285e-03</internalNodes>
          <leafValues>
            1.2979616224765778e-01 -1.</leafValues></_>
        <_>
          <internalNodes>
            0 -1 33 3.9177238941192627e-02</internalNodes>
          <leafValues>
            -6.3355356454849243e-01 2.7868980169296265e-01</leafValues></_>
        <_>
          <internalNodes>
            0 -1 17 2.1401101548690349e-06</internalNodes>
          <leafValues>
            2.1938119828701019e-01 -1.</leafValues></_></weakClassifiers></_>
    <!-- stage 7 -->
    <_>
      <maxWeakCount>3</maxWeakCount>
      <stageThreshold>-8.2110351324081421e-01</stageThreshold>
      <weakClassifiers>
        <_>
          <internalNodes>
            0 -1 47 8.7572321295738220e-02</internalNodes>
          <leafValues>
            2.7166503667831421e-01 -7.9033273458480835e-01</leafValues></_>
        <_>
          <internalNodes>
            0 -1 13 1.3838101040164474e-05</internalNodes>
          <leafValues>
            -4.2161017656326294e-01 7.1721172332763672e-01</leafValues></_>
        <_>
          <internalNodes>
            0 -1 12 1.8755581550067291e-05</internalNodes>
          <leafValues>
            -6.2694013118743896e-01 3.9083936810493469e-01</leafValues></_></weakClassifiers></_>
    <!-- stage 8 -->
    <_>
      <maxWeakCount>4</maxWeakCount>
      <stageThreshold>-6.0823321342468262e-01</stageThreshold>
      <weakClassifiers>
        <_>
          <internalNodes>
            0 -1 45 8.8573679327964783e-02</internalNodes>
          <leafValues>
            1.3636364042758942e-01 -7.9748600721359253e-01</leafValues></_>
        <_>
          <internalNodes>
            0 -1 34 -2.2457611560821533e-01</internalNodes>
          <leafValues>
            2.3403275012969971e-01 -1.</leafValues></_>
        <_>
          <internalNodes>
            0 -1 54 9.6218718681484461e-06</internalNodes>
          <leafValues>
            -6.7095512151718140e-01 2.8208360075950623e-01</leafValues></_>
        <_>
          <internalNodes>
            0 -1 13 2.0264884369680658e-05</internalNodes>
          <leafValues>
            -3.0767449736595154e-01 6.7302417755126953e-01</leafValues></_></weakClassifiers></_>
    <!-- stage 9 -->
    <_>
      <maxWeakCount>4</maxWeakCount>
      <stageThreshold>-1.1154961585998535e+00</stageThreshold>
      <weakClassifiers>
        <_>
          <internalNodes>
            0 -1 52 -9.9988737929379568e-06</internalNodes>
          <leafValues>
            2.8318202495574951e-01 -8.9340621232986450e-01</leafValues></_>
        <_>
          <internalNodes>
            0 -1 53 2.8934186324477196e-02</internalNodes>
          <leafValues>
            -8.0106031894683838e-01 1.6933348774909973e-01</leafValues></_>
        <_>
          <internalNodes>
            0 -1 42 5.7439364492893219e-02</internalNodes>
          <leafValues>
            3.7818905711174011e-01 -5.2069103717803955e-01</leafValues></_>
        <_>
          <internalNodes>
            0 -1 55 8.3976862952113152e-03</internalNodes>
          <leafValues>
            2.0078124105930328e-01 -9.8326408863067627e-01</leafValues></_></weakClassifiers></_>
    <!-- stage 10 -->
    <_>
      <maxWeakCount>4</maxWeakCount>
      <stageThreshold>-6.3797771930694580e-01</stageThreshold>
      <weakClassifiers>
        <_>
          <internalNodes>
            0 -1 0 -1.2625156342983246e-01</internalNodes>
          <leafValues>
            -8.4264165163040161e-01 3.8392536342144012e-02</leafValues></_>
        <_>
          <internalNodes>
            0 -1 32 -2.9032654128968716e-04</internalNodes>
          <leafValues>
            -9.5534455776214600e-01 1.0296178609132767e-01</leafValues></_>
        <_>
          <internalNodes>
            0 -1 11 -3.3456154633313417e-03</internalNodes>
          <leafValues>
            -9.4173693656921387e-01 2.5988918542861938e-01</leafValues></_>
        <_>
          <internalNodes>
            0 -1 41 1.6102530062198639e-02</internalNodes>
          <leafValues>
            1.6240489482879639e-01 -8.5370004177093506e-01</leafValues></_></weakClassifiers></_>
    <!-- stage 11 -->
    <_>
      <maxWeakCount>2</maxWeakCount>
      <stageThreshold>-5.1984190940856934e-01</stageThreshold>
      <weakClassifiers>
        <_>
          <internalNodes>
            0 -1 35 -2.9935562983155251e-02</internalNodes>
          <leafValues>
            2.8330615162849426e-01 -7.2949135303497314e-01</leafValues></_>
        <_>
          <internalNodes>
            0 -1 39 -1.1764027178287506e-01</internalNodes>
          <leafValues>
            -9.8428404331207275e-01 2.0964941382408142e-01</leafValues></_></weakClassifiers></_>
    <!-- stage 12 -->
    <_>
      <maxWeakCount>10</maxWeakCount>
      <stageThreshold>-1.0238631963729858e+00</stageThreshold>
      <weakClassifiers>
        <_>
          <internalNodes>
            0 -1 16 -5.0514808390289545e-04</internalNodes>
          <leafValues>
            5.5336618423461914e-01 -4.9600517749786377e-01</leafValues></_>
        <_>
          <internalNodes>
            0 -1 3 -5.6786963250488043e-04</internalNodes>
          <leafValues>
            -9.4093561172485352e-01 1.2160957604646683e-01</leafValues></_>
        <_>
          <internalNodes>
            0 -1 2 8.7103303521871567e-03</internalNodes>
          <leafValues>
            2.1386119723320007e-01 -6.0590046644210815e-01</leafValues></_>
        <_>
          <internalNodes>
            0 -1 57 -2.5590379664208740e-05</internalNodes>
          <leafValues>
            -1. 1.3311645388603210e-01</leafValues></_>
        <_>
          <internalNodes>
            0 -1 30 2.4379793103435077e-05</internalNodes>
          <leafValues>
            -2.2970591485500336e-01 6.5260827541351318e-01</leafValues></_>
        <_>
          <internalNodes>
            0 -1 51 -3.2833315432071686e-02</internalNodes>
          <leafValues>
            5.5672770738601685e-01 -2.7988916635513306e-01</leafValues></_>
        <_>
          <internalNodes>
            0 -1 19 -3.1985729583539069e-04</internalNodes>
          <leafValues>
            -1. 1.6019177436828613e-01</leafValues></_>
        <_>
          <internalNodes>
            0 -1 26 -8.3537418395280838e-03</internalNodes>
          <leafValues>
            6.6996377706527710e-01 -2.0594099164009094e-01</leafValues></_>
        <_>
          <internalNodes>
            0 -1 1 -2.2698318958282471e-01</internalNodes>
          <leafValues>
            -9.8643201589584351e-01 1.3433139026165009e-01</leafValues></_>
        <_>
          <internalNodes>
            0 -1 24 5.2136251724732574e-06</internalNodes>
          <leafValues>
            -4.7387683391571045e-01 2.4432939291000366e-01</leafValues></_></weakClassifiers></_>
    <!-- stage 13 -->
    <_>
      <maxWeakCount>7</maxWeakCount>
      <stageThreshold>-1.3501931428909302e+00</stageThreshold>
      <weakClassifiers>
        <_>
          <internalNodes>
            0 -1 37 -8.8280372321605682e-02</internalNodes>
          <leafValues>
            7.7922078780829906e-03 -7.7838897705078125e-01</leafValues></_>
        <_>
          <internalNodes>
            0 -1 15 -8.9706109065446071e-06</internalNodes>
          <leafValues>
            -1. 8.6309745907783508e-02</leafValues></_>
        <_>
          <internalNodes>
            0 -1 31 1.0615703463554382e-01</internalNodes>
          <leafValues>
            2.0616054534912109e-01 -7.5455403327941895e-01</leafValues></_>
        <_>
          <internalNodes>
            0 -1 22 -3.0035432428121567e-03</internalNodes>
          <leafValues>
            4.8351827263832092e-01 -3.1601461768150330e-01</leafValues></_>
        <_>
          <internalNodes>
            0 -1 36 -1.4425446279346943e-02</internalNodes>
          <leafValues>
            4.8593211174011230e-01 -2.5215941667556763e-01</leafValues></_>
        <_>
          <internalNodes>
            0 -1 49 8.4669014904648066e-04</internalNodes>
          <leafValues>
            -2.6277676224708557e-01 4.3345934152603149e-01</leafValues></_>
        <_>
          <internalNodes>
            0 -1 40 1.4089956879615784e-01</internalNodes>
          <leafValues>
            1.4120978116989136e-01 -8.4240132570266724e-01</leafValues></_></weakClassifiers></_>
    <!-- stage 14 -->
    <_>
      <maxWeakCount>3</maxWeakCount>
      <stageThreshold>-2.3695778846740723e-01</stageThreshold>
      <weakClassifiers>
        <_>
          <internalNodes>
            0 -1 44 1.0107341408729553e-01</internalNodes>
          <leafValues>
            -5.3271025419235229e-01 7.6838809251785278e-01</leafValues></_>
        <_>
          <internalNodes>
            0 -1 59 3.1754792871652171e-05</internalNodes>
          <leafValues>
            1.7919348180294037e-01 -1.</leafValues></_>
        <_>
          <internalNodes>
            0 -1 29 2.0503819541772828e-05</internalNodes>
          <leafValues>
            1.1655901372432709e-01 -1.</leafValues></_></weakClassifiers></_>
    <!-- stage 15 -->
    <_>
      <maxWeakCount>2</maxWeakCount>
      <stageThreshold>-1.9137746095657349e-01</stageThreshold>
      <weakClassifiers>
        <_>
          <internalNodes>
            0 -1 4 -1.2994319200515747e-01</internalNodes>
          <leafValues>
            -9.0437436103820801e-01 3.0859887599945068e-01</leafValues></_>
        <_>
          <internalNodes>
            0 -1 28 7.7795937657356262e-02</internalNodes>
          <leafValues>
            -4.9997630715370178e-01 9.0925693511962891e-01</leafValues></_></weakClassifiers></_></stages>
  <features>
    <_>
      <rects>
        <_>
          0 0 26 55 -1.</_>
        <_>
          13 0 13 55 2.</_></rects>
      <tilted>0</tilted></_>
    <_>
      <rects>
        <_>
          0 0 56 50 -1.</_>
        <_>
          28 0 28 50 2.</_></rects>
      <tilted>0</tilted></_>
    <_>
      <rects>
        <_>
          0 0 55 60 -1.</_>
        <_>
          0 30 55 30 2.</_></rects>
      <tilted>0</tilted></_>
    <_>
      <rects>
        <_>
          0 0 60 6 -1.</_>
        <_>
          0 3 60 3 2.</_></rects>
      <tilted>0</tilted></_>
    <_>
      <rects>
        <_>
          0 3 60 52 -1.</_>
        <_>
          0 29 60 26 2.</_></rects>
      <tilted>0</tilted></_>
    <_>
      <rects>
        <_>
          0 4 51 56 -1.</_>
        <_>
          0 32 51 28 2.</_></rects>
      <tilted>0</tilted></_>
    <_>
      <rects>
        <_>
          0 4 60 56 -1.</_>
        <_>
          0 32 60 28 2.</_></rects>
      <tilted>0</tilted></_>
    <_>
      <rects>
        <_>
          0 18 26 41 -1.</_>
        <_>
          13 18 13 41 2.</_></rects>
      <tilted>0</tilted></_>
    <_>
      <rects>
        <_>
          0 18 52 30 -1.</_>
        <_>
          26 18 26 30 2.</_></rects>
      <tilted>0</tilted></_>
    <_>
      <rects>
        <_>
          0 21 38 19 -1.</_>
        <_>
          19 21 19 19 2.</_></rects>
      <tilted>0</tilted></_>
    <_>
      <rects>
        <_>
          0 23 56 17 -1.</_>
        <_>
          28 23 28 17 2.</_></rects>
      <tilted>0</tilted></_>
    <_>
      <rects>
        <_>
          0 25 48 34 -1.</_>
        <_>
          0 25 24 17 2.</_>
        <_>
          24 42 24 17 2.</_></rects>
      <tilted>0</tilted></_>
    <_>
      <rects>
        <_>
          0 37 24 20 -1.</_>
        <_>
          0 47 24 10 2.</_></rects>
      <tilted>0</tilted></_>
    <_>
      <rects>
        <_>
          0 50 40 10 -1.</_>
        <_>
          0 50 20 5 2.</_>
        <_>
          20 55 20 5 2.</_></rects>
      <tilted>0</tilted></_>
    <_>
      <rects>
        <_>
          1 0 33 28 -1.</_>
        <_>
          1 14 33 14 2.</_></rects>
      <tilted>0</tilted></_>
    <_>
      <rects>
        <_>
          1 3 50 2 -1.</_>
        <_>
          26 3 25 2 2.</_></rects>
      <tilted>0</tilted></_>
    <_>
      <rects>
        <_>
          1 40 48 16 -1.</_>
        <_>
          1 40 24 8 2.</_>
        <_>
          25 48 24 8 2.</_></rects>
      <tilted>0</tilted></_>
    <_>
      <rects>
        <_>
          2 0 4 58 -1.</_>
        <_>
          4 0 2 58 2.</_></rects>
      <tilted>0</tilted></_>
    <_>
      <rects>
        <_>
          2 0 4 60 -1.</_>
        <_>
          4 0 2 60 2.</_></rects>
      <tilted>0</tilted></_>
    <_>
      <rects>
        <_>
          2 0 16 11 -1.</_>
        <_>
          10 0 8 11 2.</_></rects>
      <tilted>0</tilted></_>
    <_>
      <rects>
        <_>
          2 0 58 54 -1.</_>
        <_>
          31 0 29 54 2.</_></rects>
      <tilted>0</tilted></_>
    <_>
      <rects>
        <_>
          2 0 58 60 -1.</_>
        <_>
          31 0 29 60 2.</_></rects>
      <tilted>0</tilted></_>
    <_>
      <rects>
        <_>
          2 17 40 4 -1.</_>
        <_>
          2 17 20 2 2.</_>
        <_>
          22 19 20 2 2.</_></rects>
      <tilted>0</tilted></_>
    <_>
      <rects>
        <_>
          2 38 6 1 -1.</_>
        <_>
          4 38 2 1 2.</_></rects>
      <tilted>0</tilted></_>
    <_>
      <rects>
        <_>
          2 46 47 14 -1.</_>
        <_>
          2 53 47 7 2.</_></rects>
      <tilted>0</tilted></_>
    <_>
      <rects>
        <_>
          2 58 57 2 -1.</_>
        <_>
          2 59 57 1 2.</_></rects>
      <tilted>0</tilted></_>
    <_>
      <rects>
        <_>
          3 38 54 6 -1.</_>
        <_>
          3 38 27 3 2.</_>
        <_>
          30 41 27 3 2.</_></rects>
      <tilted>0</tilted></_>
    <_>
      <rects>
        <_>
          4 0 56 51 -1.</_>
        <_>
          32 0 28 51 2.</_></rects>
      <tilted>0</tilted></_>
    <_>
      <rects>
        <_>
          4 34 56 16 -1.</_>
        <_>
          4 42 56 8 2.</_></rects>
      <tilted>0</tilted></_>
    <_>
      <rects>
        <_>
          5 4 16 12 -1.</_>
        <_>
          5 4 8 6 2.</_>
        <_>
          13 10 8 6 2.</_></rects>
      <tilted>0</tilted></_>
    <_>
      <rects>
        <_>
          5 53 36 6 -1.</_>
        <_>
          5 53 18 3 2.</_>
        <_>
          23 56 18 3 2.</_></rects>
      <tilted>0</tilted></_>
    <_>
      <rects>
        <_>
          6 11 54 43 -1.</_>
        <_>
          33 11 27 43 2.</_></rects>
      <tilted>0</tilted></_>
    <_>
      <rects>
        <_>
          9 2 50 4 -1.</_>
        <_>
          9 4 50 2 2.</_></rects>
      <tilted>0</tilted></_>
    <_>
      <rects>
        <_>
          10 15 50 34 -1.</_>
        <_>
          35 15 25 34 2.</_></rects>
      <tilted>0</tilted></_>
    <_>
      <rects>
        <_>
          11 4 45 8 -1.</_>
        <_>
          26 4 15 8 2.</_></rects>
      <tilted>0</tilted></_>
    <_>
      <rects>
        <_>
          12 7 37 16 -1.</_>
        <_>
          12 15 37 8 2.</_></rects>
      <tilted>0</tilted></_>
    <_>
      <rects>
        <_>
          14 27 10 28 -1.</_>
        <_>
          19 27 5 28 2.</_></rects>
      <tilted>0</tilted></_>
    <_>
      <rects>
        <_>
          15 0 36 52 -1.</_>
        <_>
          15 26 36 26 2.</_></rects>
      <tilted>0</tilted></_>
    <_>
      <rects>
        <_>
          16 2 44 54 -1.</_>
        <_>
          38 2 22 54 2.</_></rects>
      <tilted>0</tilted></_>
    <_>
      <rects>
        <_>
          16 2 44 58 -1.</_>
        <_>
          16 31 44 29 2.</_></rects>
      <tilted>0</tilted></_>
    <_>
      <rects>
        <_>
          16 8 35 52 -1.</_>
        <_>
          16 34 35 26 2.</_></rects>
      <tilted>0</tilted></_>
    <_>
      <rects>
        <_>
          18 1 33 56 -1.</_>
        <_>
          18 29 33 28 2.</_></rects>
      <tilted>0</tilted></_>
    <_>
      <rects>
        <_>
          20 5 34 34 -1.</_>
        <_>
          20 5 17 17 2.</_>
        <_>
          37 22 17 17 2.</_></rects>
      <tilted>0</tilted></_>
    <_>
      <rects>
        <_>
          21 0 18 34 -1.</_>
        <_>
          21 17 18 17 2.</_></rects>
      <tilted>0</tilted></_>
    <_>
      <rects>
        <_>
          21 26 33 24 -1.</_>
        <_>
          21 38 33 12 2.</_></rects>
      <tilted>0</tilted></_>
    <_>
      <rects>
        <_>
          26 14 12 46 -1.</_>
        <_>
          26 37 12 23 2.</_></rects>
      <tilted>0</tilted></_>
    <_>
      <rects>
        <_>
          26 18 34 24 -1.</_>
        <_>
          43 18 17 24 2.</_></rects>
      <tilted>0</tilted></_>
    <_>
      <rects>
        <_>
          27 15 14 42 -1.</_>
        <_>
          27 36 14 21 2.</_></rects>
      <tilted>0</tilted></_>
    <_>
      <rects>
        <_>
          30 18 30 25 -1.</_>
        <_>
          45 18 15 25 2.</_></rects>
      <tilted>0</tilted></_>
    <_>
      <rects>
        <_>
          31 36 15 4 -1.</_>
        <_>
          31 38 15 2 2.</_></rects>
      <tilted>0</tilted></_>
    <_>
      <rects>
        <_>
          33 8 22 48 -1.</_>
        <_>
          44 8 11 48 2.</_></rects>
      <tilted>0</tilted></_>
    <_>
      <rects>
        <_>
          35 13 19 20 -1.</_>
        <_>
          35 23 19 10 2.</_></rects>
      <tilted>0</tilted></_>
    <_>
      <rects>
        <_>
          36 3 24 22 -1.</_>
        <_>
          36 14 24 11 2.</_></rects>
      <tilted>0</tilted></_>
    <_>
      <rects>
        <_>
          38 14 22 33 -1.</_>
        <_>
          49 14 11 33 2.</_></rects>
      <tilted>0</tilted></_>
    <_>
      <rects>
        <_>
          38 38 22 7 -1.</_>
        <_>
          49 38 11 7 2.</_></rects>
      <tilted>0</tilted></_>
    <_>
      <rects>
        <_>
          53 4 7 56 -1.</_>
        <_>
          53 32 7 28 2.</_></rects>
      <tilted>0</tilted></_>
    <_>
      <rects>
        <_>
          56 34 1 3 -1.</_>
        <_>
          56 35 1 1 2.</_></rects>
      <tilted>0</tilted></_>
    <_>
      <rects>
        <_>
          57 0 1 36 -1.</_>
        <_>
          57 18 1 18 2.</_></rects>
      <tilted>0</tilted></_>
    <_>
      <rects>
        <_>
          57 22 3 38 -1.</_>
        <_>
          57 41 3 19 2.</_></rects>
      <tilted>0</tilted></_>
    <_>
      <rects>
        <_>
          57 30 3 30 -1.</_>
        <_>
          57 45 3 15 2.</_></rects>
      <tilted>0</tilted></_></features></cascade>
</opencv_storage>
