<?xml version="1.0"?>
<opencv_storage>
<cascade>
  <stageType>BOOST</stageType>
  <featureType>HAAR</featureType>
  <height>40</height>
  <width>40</width>
  <stageParams>
    <boostType>GAB</boostType>
    <minHitRate>9.9500000476837158e-01</minHitRate>
    <maxFalseAlarm>5.0000000000000000e-01</maxFalseAlarm>
    <weightTrimRate>9.4999999999999996e-01</weightTrimRate>
    <maxDepth>1</maxDepth>
    <maxWeakCount>100</maxWeakCount></stageParams>
  <featureParams>
    <maxCatCount>0</maxCatCount>
    <featSize>1</featSize>
    <mode>BASIC</mode></featureParams>
  <stageNum>20</stageNum>
  <stages>
    <!-- stage 0 -->
    <_>
      <maxWeakCount>2</maxWeakCount>
      <stageThreshold>-3.1657007336616516e-01</stageThreshold>
      <weakClassifiers>
        <_>
          <internalNodes>
            0 -1 7 -9.0164639914291911e-06</internalNodes>
          <leafValues>
            7.2737956047058105e-01 -9.3674522638320923e-01</leafValues></_>
        <_>
          <internalNodes>
            0 -1 202 1.0714064956118818e-05</internalNodes>
          <leafValues>
            -9.2935180664062500e-01 6.2017518281936646e-01</leafValues></_></weakClassifiers></_>
    <!-- stage 1 -->
    <_>
      <maxWeakCount>3</maxWeakCount>
      <stageThreshold>-1.0310024023056030e+00</stageThreshold>
      <weakClassifiers>
        <_>
          <internalNodes>
            0 -1 81 1.6190372407436371e-03</internalNodes>
          <leafValues>
            -7.6721405982971191e-01 3.7624341249465942e-01</leafValues></_>
        <_>
          <internalNodes>
            0 -1 22 -1.7343475483357906e-03</internalNodes>
          <leafValues>
            5.7019466161727905e-01 -6.9353502988815308e-01</leafValues></_>
        <_>
          <internalNodes>
            0 -1 79 1.6304187476634979e-02</internalNodes>
          <leafValues>
            -6.9347709417343140e-01 4.2974665760993958e-01</leafValues></_></weakClassifiers></_>
    <!-- stage 2 -->
    <_>
      <maxWeakCount>6</maxWeakCount>
      <stageThreshold>-1.2711119651794434e+00</stageThreshold>
      <weakClassifiers>
        <_>
          <internalNodes>
            0 -1 204 4.0572490543127060e-03</internalNodes>
          <leafValues>
            -6.2473142147064209e-01 6.0242182016372681e-01</leafValues></_>
        <_>
          <internalNodes>
            0 -1 174 2.4765199050307274e-02</internalNodes>
          <leafValues>
            -6.4939743280410767e-01 3.9048823714256287e-01</leafValues></_>
        <_>
          <internalNodes>
            0 -1 12 -3.9202277548611164e-03</internalNodes>
          <leafValues>
            3.1276902556419373e-01 -6.7967939376831055e-01</leafValues></_>
        <_>
          <internalNodes>
            0 -1 10 1.3331979062058963e-05</internalNodes>
          <leafValues>
            1.8815235793590546e-01 -9.5547276735305786e-01</leafValues></_>
        <_>
          <internalNodes>
            0 -1 103 4.5065808808431029e-04</internalNodes>
          <leafValues>
            -6.2724852561950684e-01 3.0065971612930298e-01</leafValues></_>
        <_>
          <internalNodes>
            0 -1 24 -1.0325216862838715e-05</internalNodes>
          <leafValues>
            2.5594121217727661e-01 -7.9856419563293457e-01</leafValues></_></weakClassifiers></_>
    <!-- stage 3 -->
    <_>
      <maxWeakCount>5</maxWeakCount>
      <stageThreshold>-9.4091260433197021e-01</stageThreshold>
      <weakClassifiers>
        <_>
          <internalNodes>
            0 -1 32 -5.1309922710061073e-03</internalNodes>
          <leafValues>
            4.2916667461395264e-01 -5.7630330324172974e-01</leafValues></_>
        <_>
          <internalNodes>
            0 -1 217 -1.0159827979805414e-05</internalNodes>
          <leafValues>
            -9.8320549726486206e-01 1.5509811043739319e-01</leafValues></_>
        <_>
          <internalNodes>
            0 -1 210 5.6418473832309246e-04</internalNodes>
          <leafValues>
            -6.7126834392547607e-01 2.4218432605266571e-01</leafValues></_>
        <_>
          <internalNodes>
            0 -1 191 -1.0471841960679740e-05</internalNodes>
          <leafValues>
            -9.5658397674560547e-01 1.6656748950481415e-01</leafValues></_>
        <_>
          <internalNodes>
            0 -1 227 1.6051100828917697e-05</internalNodes>
          <leafValues>
            1.9469222426414490e-01 -7.3286902904510498e-01</leafValues></_></weakClassifiers></_>
    <!-- stage 4 -->
    <_>
      <maxWeakCount>7</maxWeakCount>
      <stageThreshold>-1.6324274539947510e+00</stageThreshold>
      <weakClassifiers>
        <_>
          <internalNodes>
            0 -1 35 -2.7904873713850975e-03</internalNodes>
          <leafValues>
            2.3932729661464691e-01 -6.5767747163772583e-01</leafValues></_>
        <_>
          <internalNodes>
            0 -1 55 -6.7807342857122421e-03</internalNodes>
          <leafValues>
            1.3636106252670288e-01 -9.0725392103195190e-01</leafValues></_>
        <_>
          <internalNodes>
            0 -1 136 -1.1501302011311054e-02</internalNodes>
          <leafValues>
            3.6856520175933838e-01 -5.2762562036514282e-01</leafValues></_>
        <_>
          <internalNodes>
            0 -1 83 -3.2454067841172218e-03</internalNodes>
          <leafValues>
            5.8382868766784668e-01 -3.4662663936614990e-01</leafValues></_>
        <_>
          <internalNodes>
            0 -1 112 1.5961397439241409e-03</internalNodes>
          <leafValues>
            -4.5568901300430298e-01 5.4456806182861328e-01</leafValues></_>
        <_>
          <internalNodes>
            0 -1 142 9.5652360469102859e-03</internalNodes>
          <leafValues>
            -3.7616166472434998e-01 4.2716169357299805e-01</leafValues></_>
        <_>
          <internalNodes>
            0 -1 208 2.9520727694034576e-03</internalNodes>
          <leafValues>
            -3.0201286077499390e-01 4.8971030116081238e-01</leafValues></_></weakClassifiers></_>
    <!-- stage 5 -->
    <_>
      <maxWeakCount>10</maxWeakCount>
      <stageThreshold>-1.5942599773406982e+00</stageThreshold>
      <weakClassifiers>
        <_>
          <internalNodes>
            0 -1 36 -1.9891643896698952e-03</internalNodes>
          <leafValues>
            4.5387994498014450e-02 -6.7486423254013062e-01</leafValues></_>
        <_>
          <internalNodes>
            0 -1 54 -7.6674323281622492e-06</internalNodes>
          <leafValues>
            -8.9813888072967529e-01 1.0530634969472885e-01</leafValues></_>
        <_>
          <internalNodes>
            0 -1 211 1.7408508938387968e-05</internalNodes>
          <leafValues>
            -7.3357456922531128e-01 1.8869586288928986e-01</leafValues></_>
        <_>
          <internalNodes>
            0 -1 8 7.5345210461819079e-06</internalNodes>
          <leafValues>
            8.0846399068832397e-02 -1.</leafValues></_>
        <_>
          <internalNodes>
            0 -1 72 -2.1479786373674870e-03</internalNodes>
          <leafValues>
            3.3843606710433960e-01 -3.9143726229667664e-01</leafValues></_>
        <_>
          <internalNodes>
            0 -1 80 5.5429065832868218e-04</internalNodes>
          <leafValues>
            -6.3450258970260620e-01 2.5731375813484192e-01</leafValues></_>
        <_>
          <internalNodes>
            0 -1 53 6.8484846451610792e-06</internalNodes>
          <leafValues>
            1.9442662596702576e-01 -6.5139305591583252e-01</leafValues></_>
        <_>
          <internalNodes>
            0 -1 92 -2.9440779238939285e-02</internalNodes>
          <leafValues>
            2.9133686423301697e-01 -4.2775541543960571e-01</leafValues></_>
        <_>
          <internalNodes>
            0 -1 185 9.8700447779265232e-06</internalNodes>
          <leafValues>
            1.2818209826946259e-01 -8.3691871166229248e-01</leafValues></_>
        <_>
          <internalNodes>
            0 -1 195 -7.1259823926084209e-06</internalNodes>
          <leafValues>
            -1. 7.5198486447334290e-02</leafValues></_></weakClassifiers></_>
    <!-- stage 6 -->
    <_>
      <maxWeakCount>11</maxWeakCount>
      <stageThreshold>-1.4345856904983521e+00</stageThreshold>
      <weakClassifiers>
        <_>
          <internalNodes>
            0 -1 34 -9.8398816771805286e-04</internalNodes>
          <leafValues>
            -1.0323468595743179e-01 -7.5637644529342651e-01</leafValues></_>
        <_>
          <internalNodes>
            0 -1 90 -4.1192528442479670e-04</internalNodes>
          <leafValues>
            1.3687364757061005e-01 -6.4637148380279541e-01</leafValues></_>
        <_>
          <internalNodes>
            0 -1 57 1.6722256987122819e-05</internalNodes>
          <leafValues>
            -7.5262862443923950e-01 1.3709653913974762e-01</leafValues></_>
        <_>
          <internalNodes>
            0 -1 53 -6.4714172367530409e-06</internalNodes>
          <leafValues>
            -8.8461029529571533e-01 1.6140498220920563e-01</leafValues></_>
        <_>
          <internalNodes>
            0 -1 205 4.0870979428291321e-03</internalNodes>
          <leafValues>
            -3.0914267897605896e-01 4.6114009618759155e-01</leafValues></_>
        <_>
          <internalNodes>
            0 -1 129 1.8176179379224777e-02</internalNodes>
          <leafValues>
            -3.9471858739852905e-01 3.1036072969436646e-01</leafValues></_>
        <_>
          <internalNodes>
            0 -1 4 -4.7163758426904678e-03</internalNodes>
          <leafValues>
            -7.3607432842254639e-01 1.6783116757869720e-01</leafValues></_>
        <_>
          <internalNodes>
            0 -1 14 -8.0563673691358417e-05</internalNodes>
          <leafValues>
            2.1738207340240479e-01 -4.7858595848083496e-01</leafValues></_>
        <_>
          <internalNodes>
            0 -1 223 7.6107876375317574e-03</internalNodes>
          <leafValues>
            1.3679102063179016e-01 -7.9141408205032349e-01</leafValues></_>
        <_>
          <internalNodes>
            0 -1 30 9.0287625789642334e-03</internalNodes>
          <leafValues>
            1.2106790393590927e-01 -7.8937268257141113e-01</leafValues></_>
        <_>
          <internalNodes>
            0 -1 6 -7.1676862426102161e-03</internalNodes>
          <leafValues>
            -7.2386580705642700e-01 1.1476721614599228e-01</leafValues></_></weakClassifiers></_>
    <!-- stage 7 -->
    <_>
      <maxWeakCount>2</maxWeakCount>
      <stageThreshold>-8.4217375516891479e-01</stageThreshold>
      <weakClassifiers>
        <_>
          <internalNodes>
            0 -1 197 -6.3459455966949463e-02</internalNodes>
          <leafValues>
            4.8436748981475830e-01 -9.7613674402236938e-01</leafValues></_>
        <_>
          <internalNodes>
            0 -1 44 -9.3392739072442055e-03</internalNodes>
          <leafValues>
            1.3396297395229340e-01 -9.7410809993743896e-01</leafValues></_></weakClassifiers></_>
    <!-- stage 8 -->
    <_>
      <maxWeakCount>11</maxWeakCount>
      <stageThreshold>-1.3431326150894165e+00</stageThreshold>
      <weakClassifiers>
        <_>
          <internalNodes>
            0 -1 137 -9.8058721050620079e-03</internalNodes>
          <leafValues>
            4.0434520691633224e-02 -5.9239286184310913e-01</leafValues></_>
        <_>
          <internalNodes>
            0 -1 91 -1.2596846790984273e-03</internalNodes>
          <leafValues>
            2.3045514523983002e-01 -5.0651919841766357e-01</leafValues></_>
        <_>
          <internalNodes>
            0 -1 93 2.7139266021549702e-03</internalNodes>
          <leafValues>
            -3.3658686280250549e-01 3.7833440303802490e-01</leafValues></_>
        <_>
          <internalNodes>
            0 -1 11 1.9527928088791668e-05</internalNodes>
          <leafValues>
            1.2560932338237762e-01 -9.0870767831802368e-01</leafValues></_>
        <_>
          <internalNodes>
            0 -1 184 8.0226018326357007e-05</internalNodes>
          <leafValues>
            -5.2464801073074341e-01 2.0088075101375580e-01</leafValues></_>
        <_>
          <internalNodes>
            0 -1 35 -1.0463169310241938e-03</internalNodes>
          <leafValues>
            2.8096392750740051e-01 -4.6059092879295349e-01</leafValues></_>
        <_>
          <internalNodes>
            0 -1 203 4.6690776944160461e-03</internalNodes>
          <leafValues>
            -2.7530467510223389e-01 4.8190152645111084e-01</leafValues></_>
        <_>
          <internalNodes>
            0 -1 70 -5.1570255309343338e-03</internalNodes>
          <leafValues>
            -8.0345469713211060e-01 1.4335000514984131e-01</leafValues></_>
        <_>
          <internalNodes>
            0 -1 59 6.9656207415391691e-06</internalNodes>
          <leafValues>
            6.9800063967704773e-02 -9.4081360101699829e-01</leafValues></_>
        <_>
          <internalNodes>
            0 -1 114 6.6290721297264099e-03</internalNodes>
          <leafValues>
            1.0594335943460464e-01 -7.6901972293853760e-01</leafValues></_>
        <_>
          <internalNodes>
            0 -1 152 2.9897921194788069e-05</internalNodes>
          <leafValues>
            -5.4368859529495239e-01 2.5885605812072754e-01</leafValues></_></weakClassifiers></_>
    <!-- stage 9 -->
    <_>
      <maxWeakCount>11</maxWeakCount>
      <stageThreshold>-1.2690205574035645e+00</stageThreshold>
      <weakClassifiers>
        <_>
          <internalNodes>
            0 -1 85 -2.5715812807902694e-04</internalNodes>
          <leafValues>
            8.2435002550482750e-03 -5.6425201892852783e-01</leafValues></_>
        <_>
          <internalNodes>
            0 -1 104 2.0656552806030959e-05</internalNodes>
          <leafValues>
            -7.5793391466140747e-01 9.9331036210060120e-02</leafValues></_>
        <_>
          <internalNodes>
            0 -1 71 -2.2514796000905335e-05</internalNodes>
          <leafValues>
            1.7454037070274353e-01 -6.9339764118194580e-01</leafValues></_>
        <_>
          <internalNodes>
            0 -1 15 -6.4750062301754951e-03</internalNodes>
          <leafValues>
            -8.3335250616073608e-01 8.0223374068737030e-02</leafValues></_>
        <_>
          <internalNodes>
            0 -1 64 6.5445447035017423e-06</internalNodes>
          <leafValues>
            8.9568771421909332e-02 -9.7745275497436523e-01</leafValues></_>
        <_>
          <internalNodes>
            0 -1 60 -7.6422574929893017e-03</internalNodes>
          <leafValues>
            -8.6589992046356201e-01 9.0543501079082489e-02</leafValues></_>
        <_>
          <internalNodes>
            0 -1 193 1.1103171345894225e-05</internalNodes>
          <leafValues>
            -5.7403910160064697e-01 1.9116057455539703e-01</leafValues></_>
        <_>
          <internalNodes>
            0 -1 189 3.2350845634937286e-02</internalNodes>
          <leafValues>
            1.1310168355703354e-01 -7.4163734912872314e-01</leafValues></_>
        <_>
          <internalNodes>
            0 -1 77 2.1015295351389796e-04</internalNodes>
          <leafValues>
            -4.1579222679138184e-01 2.1247518062591553e-01</leafValues></_>
        <_>
          <internalNodes>
            0 -1 19 3.3452224731445312e-01</internalNodes>
          <leafValues>
            1.2554486095905304e-01 -9.1330671310424805e-01</leafValues></_>
        <_>
          <internalNodes>
            0 -1 201 6.5598169385339133e-06</internalNodes>
          <leafValues>
            8.2287088036537170e-02 -8.5858446359634399e-01</leafValues></_></weakClassifiers></_>
    <!-- stage 10 -->
    <_>
      <maxWeakCount>13</maxWeakCount>
      <stageThreshold>-1.1514694690704346e+00</stageThreshold>
      <weakClassifiers>
        <_>
          <internalNodes>
            0 -1 143 5.3797783330082893e-03</internalNodes>
          <leafValues>
            -5.9729897975921631e-01 -3.8501560688018799e-02</leafValues></_>
        <_>
          <internalNodes>
            0 -1 220 -8.9207403361797333e-03</internalNodes>
          <leafValues>
            -8.3514243364334106e-01 8.5760228335857391e-02</leafValues></_>
        <_>
          <internalNodes>
            0 -1 18 -7.4860593304038048e-03</internalNodes>
          <leafValues>
            -6.7954337596893311e-01 1.7202609777450562e-01</leafValues></_>
        <_>
          <internalNodes>
            0 -1 58 2.3087506633601151e-05</internalNodes>
          <leafValues>
            -8.0597704648971558e-01 1.1481025815010071e-01</leafValues></_>
        <_>
          <internalNodes>
            0 -1 97 -4.3609878048300743e-03</internalNodes>
          <leafValues>
            3.7536412477493286e-01 -2.6523295044898987e-01</leafValues></_>
        <_>
          <internalNodes>
            0 -1 38 -1.0714037671277765e-05</internalNodes>
          <leafValues>
            1.6665752232074738e-01 -5.8758121728897095e-01</leafValues></_>
        <_>
          <internalNodes>
            0 -1 21 1.3613900542259216e-01</internalNodes>
          <leafValues>
            2.3572725057601929e-01 -4.9488526582717896e-01</leafValues></_>
        <_>
          <internalNodes>
            0 -1 216 -1.9364517356734723e-05</internalNodes>
          <leafValues>
            -9.0464508533477783e-01 8.9790277183055878e-02</leafValues></_>
        <_>
          <internalNodes>
            0 -1 29 -1.5823618014110252e-05</internalNodes>
          <leafValues>
            -7.3015505075454712e-01 8.6825318634510040e-02</leafValues></_>
        <_>
          <internalNodes>
            0 -1 119 -1.8307935679331422e-03</internalNodes>
          <leafValues>
            4.8255842924118042e-01 -2.0538696646690369e-01</leafValues></_>
        <_>
          <internalNodes>
            0 -1 122 1.3103722594678402e-03</internalNodes>
          <leafValues>
            -1.2505470216274261e-01 6.7011517286300659e-01</leafValues></_>
        <_>
          <internalNodes>
            0 -1 86 5.0449930131435394e-03</internalNodes>
          <leafValues>
            -1.7686492204666138e-01 4.2606365680694580e-01</leafValues></_>
        <_>
          <internalNodes>
            0 -1 172 6.8607302382588387e-03</internalNodes>
          <leafValues>
            -1.6990602016448975e-01 5.6645107269287109e-01</leafValues></_></weakClassifiers></_>
    <!-- stage 11 -->
    <_>
      <maxWeakCount>16</maxWeakCount>
      <stageThreshold>-1.4324897527694702e+00</stageThreshold>
      <weakClassifiers>
        <_>
          <internalNodes>
            0 -1 7 -1.6949576092883945e-05</internalNodes>
          <leafValues>
            -2.0000000298023224e-01 -8.6711865663528442e-01</leafValues></_>
        <_>
          <internalNodes>
            0 -1 226 7.9423980787396431e-03</internalNodes>
          <leafValues>
            3.3957939594984055e-02 -8.6921310424804688e-01</leafValues></_>
        <_>
          <internalNodes>
            0 -1 207 1.0453795548528433e-03</internalNodes>
          <leafValues>
            -4.7399747371673584e-01 1.9873355329036713e-01</leafValues></_>
        <_>
          <internalNodes>
            0 -1 20 -1.3075305521488190e-01</internalNodes>
          <leafValues>
            -4.5565009117126465e-01 2.2537606954574585e-01</leafValues></_>
        <_>
          <internalNodes>
            0 -1 96 -2.1583175112027675e-05</internalNodes>
          <leafValues>
            1.4095900952816010e-01 -6.4119619131088257e-01</leafValues></_>
        <_>
          <internalNodes>
            0 -1 2 7.1263139034272172e-06</internalNodes>
          <leafValues>
            7.2676256299018860e-02 -9.5035552978515625e-01</leafValues></_>
        <_>
          <internalNodes>
            0 -1 133 -1.9666682928800583e-03</internalNodes>
          <leafValues>
            3.1643491983413696e-01 -2.8475591540336609e-01</leafValues></_>
        <_>
          <internalNodes>
            0 -1 148 1.8441328406333923e-01</internalNodes>
          <leafValues>
            9.1564163565635681e-02 -9.0368008613586426e-01</leafValues></_>
        <_>
          <internalNodes>
            0 -1 138 -2.7843001298606396e-03</internalNodes>
          <leafValues>
            2.4453039467334747e-01 -3.2142326235771179e-01</leafValues></_>
        <_>
          <internalNodes>
            0 -1 87 1.5649611668777652e-05</internalNodes>
          <leafValues>
            1.4328083395957947e-01 -5.9274542331695557e-01</leafValues></_>
        <_>
          <internalNodes>
            0 -1 105 1.1052921414375305e-02</internalNodes>
          <leafValues>
            -2.2765642404556274e-01 3.5728687047958374e-01</leafValues></_>
        <_>
          <internalNodes>
            0 -1 218 6.3055499595066067e-06</internalNodes>
          <leafValues>
            8.8300056755542755e-02 -9.0376466512680054e-01</leafValues></_>
        <_>
          <internalNodes>
            0 -1 102 2.2038464521756396e-05</internalNodes>
          <leafValues>
            -7.0409876108169556e-01 8.8512957096099854e-02</leafValues></_>
        <_>
          <internalNodes>
            0 -1 135 5.1018078811466694e-03</internalNodes>
          <leafValues>
            7.7656812965869904e-02 -7.4089938402175903e-01</leafValues></_>
        <_>
          <internalNodes>
            0 -1 46 4.4688219204545021e-03</internalNodes>
          <leafValues>
            7.9001367092132568e-02 -7.2814887762069702e-01</leafValues></_>
        <_>
          <internalNodes>
            0 -1 48 -1.1634051334112883e-03</internalNodes>
          <leafValues>
            5.0881320238113403e-01 -1.8378692865371704e-01</leafValues></_></weakClassifiers></_>
    <!-- stage 12 -->
    <_>
      <maxWeakCount>13</maxWeakCount>
      <stageThreshold>-1.2304376363754272e+00</stageThreshold>
      <weakClassifiers>
        <_>
          <internalNodes>
            0 -1 156 3.6034849472343922e-03</internalNodes>
          <leafValues>
            -4.4893792271614075e-01 6.2676054239273071e-01</leafValues></_>
        <_>
          <internalNodes>
            0 -1 40 -1.8216131627559662e-01</internalNodes>
          <leafValues>
            -9.6633440256118774e-01 4.9817804247140884e-02</leafValues></_>
        <_>
          <internalNodes>
            0 -1 94 5.9076109901070595e-03</internalNodes>
          <leafValues>
            1.7825980484485626e-01 -5.8718150854110718e-01</leafValues></_>
        <_>
          <internalNodes>
            0 -1 76 2.2597475349903107e-01</internalNodes>
          <leafValues>
            9.4746567308902740e-02 -8.5922300815582275e-01</leafValues></_>
        <_>
          <internalNodes>
            0 -1 219 -6.1774703681294341e-06</internalNodes>
          <leafValues>
            -1. 6.0895137488842010e-02</leafValues></_>
        <_>
          <internalNodes>
            0 -1 31 -2.7833517378894612e-05</internalNodes>
          <leafValues>
            8.4173977375030518e-02 -6.4749336242675781e-01</leafValues></_>
        <_>
          <internalNodes>
            0 -1 209 2.0794293959625065e-05</internalNodes>
          <leafValues>
            -6.4474499225616455e-01 1.2831793725490570e-01</leafValues></_>
        <_>
          <internalNodes>
            0 -1 69 -7.0714436333219055e-06</internalNodes>
          <leafValues>
            -9.2560517787933350e-01 6.5572336316108704e-02</leafValues></_>
        <_>
          <internalNodes>
            0 -1 61 -5.2483482286334038e-03</internalNodes>
          <leafValues>
            -6.7030268907546997e-01 1.0575179010629654e-01</leafValues></_>
        <_>
          <internalNodes>
            0 -1 120 2.1268180571496487e-03</internalNodes>
          <leafValues>
            -1.7011690139770508e-01 4.8662212491035461e-01</leafValues></_>
        <_>
          <internalNodes>
            0 -1 121 4.4571243051905185e-05</internalNodes>
          <leafValues>
            1.2832839787006378e-01 -5.8417695760726929e-01</leafValues></_>
        <_>
          <internalNodes>
            0 -1 56 6.4791538534336723e-06</internalNodes>
          <leafValues>
            9.0320184826850891e-02 -8.5129976272583008e-01</leafValues></_>
        <_>
          <internalNodes>
            0 -1 23 -1.9598472118377686e-01</internalNodes>
          <leafValues>
            -8.5952192544937134e-01 6.8908199667930603e-02</leafValues></_></weakClassifiers></_>
    <!-- stage 13 -->
    <_>
      <maxWeakCount>15</maxWeakCount>
      <stageThreshold>-1.1968621015548706e+00</stageThreshold>
      <weakClassifiers>
        <_>
          <internalNodes>
            0 -1 125 -1.0779093950986862e-02</internalNodes>
          <leafValues>
            -1.3606613874435425e-01 -7.1365833282470703e-01</leafValues></_>
        <_>
          <internalNodes>
            0 -1 98 -2.2137866835691966e-05</internalNodes>
          <leafValues>
            7.2522021830081940e-02 -7.4919831752777100e-01</leafValues></_>
        <_>
          <internalNodes>
            0 -1 108 2.2743381123291329e-05</internalNodes>
          <leafValues>
            -6.7538338899612427e-01 1.3369293510913849e-01</leafValues></_>
        <_>
          <internalNodes>
            0 -1 0 6.6006391534756403e-06</internalNodes>
          <leafValues>
            5.7536922395229340e-02 -1.</leafValues></_>
        <_>
          <internalNodes>
            0 -1 5 -1.0048983618617058e-02</internalNodes>
          <leafValues>
            -8.9211380481719971e-01 2.4479994550347328e-02</leafValues></_>
        <_>
          <internalNodes>
            0 -1 181 -9.7268157333019190e-06</internalNodes>
          <leafValues>
            1.6446268558502197e-01 -3.6248946189880371e-01</leafValues></_>
        <_>
          <internalNodes>
            0 -1 206 -5.6025155572569929e-06</internalNodes>
          <leafValues>
            -6.8799924850463867e-01 9.9333681166172028e-02</leafValues></_>
        <_>
          <internalNodes>
            0 -1 160 -1.0218972712755203e-01</internalNodes>
          <leafValues>
            -6.5828174352645874e-01 9.9781490862369537e-02</leafValues></_>
        <_>
          <internalNodes>
            0 -1 144 6.3087446615099907e-03</internalNodes>
          <leafValues>
            4.0883772075176239e-02 -8.2463580369949341e-01</leafValues></_>
        <_>
          <internalNodes>
            0 -1 146 2.1655872464179993e-01</internalNodes>
          <leafValues>
            6.0474954545497894e-02 -9.5613026618957520e-01</leafValues></_>
        <_>
          <internalNodes>
            0 -1 51 -3.2732915133237839e-02</internalNodes>
          <leafValues>
            -5.8768188953399658e-01 8.1845015287399292e-02</leafValues></_>
        <_>
          <internalNodes>
            0 -1 66 -2.4017313990043476e-05</internalNodes>
          <leafValues>
            2.0904062688350677e-01 -2.6770678162574768e-01</leafValues></_>
        <_>
          <internalNodes>
            0 -1 130 2.2858328520669602e-05</internalNodes>
          <leafValues>
            1.4428454637527466e-01 -4.0689626336097717e-01</leafValues></_>
        <_>
          <internalNodes>
            0 -1 63 2.8241243853699416e-05</internalNodes>
          <leafValues>
            -2.4015979468822479e-01 2.5715491175651550e-01</leafValues></_>
        <_>
          <internalNodes>
            0 -1 78 -2.3123251594370231e-05</internalNodes>
          <leafValues>
            -4.3691122531890869e-01 1.5710332989692688e-01</leafValues></_></weakClassifiers></_>
    <!-- stage 14 -->
    <_>
      <maxWeakCount>19</maxWeakCount>
      <stageThreshold>-1.2127002477645874e+00</stageThreshold>
      <weakClassifiers>
        <_>
          <internalNodes>
            0 -1 153 -7.7290611807256937e-04</internalNodes>
          <leafValues>
            3.9055794477462769e-01 -4.6711921691894531e-01</leafValues></_>
        <_>
          <internalNodes>
            0 -1 196 -1.5633246221113950e-05</internalNodes>
          <leafValues>
            -8.3205199241638184e-01 5.1855787634849548e-02</leafValues></_>
        <_>
          <internalNodes>
            0 -1 180 -3.4355721436440945e-04</internalNodes>
          <leafValues>
            3.7004721164703369e-01 -1.7399279773235321e-01</leafValues></_>
        <_>
          <internalNodes>
            0 -1 42 2.4809818569337949e-05</internalNodes>
          <leafValues>
            9.3825027346611023e-02 -7.1701335906982422e-01</leafValues></_>
        <_>
          <internalNodes>
            0 -1 33 -1.7107194662094116e-01</internalNodes>
          <leafValues>
            -4.6580064296722412e-01 1.3882771134376526e-01</leafValues></_>
        <_>
          <internalNodes>
            0 -1 207 2.3862008674768731e-05</internalNodes>
          <leafValues>
            -6.3236200809478760e-01 1.1040097475051880e-01</leafValues></_>
        <_>
          <internalNodes>
            0 -1 1 6.6317561504547484e-06</internalNodes>
          <leafValues>
            3.6730699241161346e-02 -9.6823221445083618e-01</leafValues></_>
        <_>
          <internalNodes>
            0 -1 188 2.4517714336980134e-05</internalNodes>
          <leafValues>
            1.6354727745056152e-01 -4.0802785754203796e-01</leafValues></_>
        <_>
          <internalNodes>
            0 -1 134 1.8945286283269525e-03</internalNodes>
          <leafValues>
            -2.8588420152664185e-01 2.2413210570812225e-01</leafValues></_>
        <_>
          <internalNodes>
            0 -1 45 2.4065612256526947e-01</internalNodes>
          <leafValues>
            7.2364479303359985e-02 -8.3108478784561157e-01</leafValues></_>
        <_>
          <internalNodes>
            0 -1 149 7.8131747432053089e-04</internalNodes>
          <leafValues>
            -1.6239076852798462e-01 4.7804951667785645e-01</leafValues></_>
        <_>
          <internalNodes>
            0 -1 49 -6.8469175857899245e-06</internalNodes>
          <leafValues>
            -6.1679571866989136e-01 1.0468716174364090e-01</leafValues></_>
        <_>
          <internalNodes>
            0 -1 123 1.2044506147503853e-03</internalNodes>
          <leafValues>
            -1.5138411521911621e-01 4.5420533418655396e-01</leafValues></_>
        <_>
          <internalNodes>
            0 -1 124 1.6507691144943237e-01</internalNodes>
          <leafValues>
            1.4730073511600494e-01 -4.2519307136535645e-01</leafValues></_>
        <_>
          <internalNodes>
            0 -1 17 -5.4413303732872009e-03</internalNodes>
          <leafValues>
            -5.5668669939041138e-01 1.0889656096696854e-01</leafValues></_>
        <_>
          <internalNodes>
            0 -1 173 -6.1408463807310909e-06</internalNodes>
          <leafValues>
            -5.9944713115692139e-01 1.0805430263280869e-01</leafValues></_>
        <_>
          <internalNodes>
            0 -1 161 -8.9873000979423523e-03</internalNodes>
          <leafValues>
            7.8241527080535889e-01 -9.3907631933689117e-02</leafValues></_>
        <_>
          <internalNodes>
            0 -1 158 4.0349708870053291e-03</internalNodes>
          <leafValues>
            -5.5598121136426926e-02 8.5136181116104126e-01</leafValues></_>
        <_>
          <internalNodes>
            0 -1 166 1.0470002889633179e-03</internalNodes>
          <leafValues>
            -8.1864312291145325e-02 6.1548399925231934e-01</leafValues></_></weakClassifiers></_>
    <!-- stage 15 -->
    <_>
      <maxWeakCount>22</maxWeakCount>
      <stageThreshold>-1.3752709627151489e+00</stageThreshold>
      <weakClassifiers>
        <_>
          <internalNodes>
            0 -1 157 1.9253159407526255e-03</internalNodes>
          <leafValues>
            -4.4993767142295837e-01 3.9890709519386292e-01</leafValues></_>
        <_>
          <internalNodes>
            0 -1 58 6.1146354710217565e-05</internalNodes>
          <leafValues>
            -7.6065105199813843e-01 7.3584899306297302e-02</leafValues></_>
        <_>
          <internalNodes>
            0 -1 99 -1.8842347344616428e-05</internalNodes>
          <leafValues>
            1.2635649740695953e-01 -6.7910933494567871e-01</leafValues></_>
        <_>
          <internalNodes>
            0 -1 27 -7.0602822233922780e-05</internalNodes>
          <leafValues>
            1.1203122884035110e-01 -3.8182702660560608e-01</leafValues></_>
        <_>
          <internalNodes>
            0 -1 198 -5.6815329116943758e-06</internalNodes>
          <leafValues>
            -6.0515397787094116e-01 1.1174803972244263e-01</leafValues></_>
        <_>
          <internalNodes>
            0 -1 220 -8.9390380308032036e-03</internalNodes>
          <leafValues>
            -7.9159438610076904e-01 8.0913797020912170e-02</leafValues></_>
        <_>
          <internalNodes>
            0 -1 223 -2.1370769536588341e-04</internalNodes>
          <leafValues>
            3.1026163697242737e-01 -2.1962662041187286e-01</leafValues></_>
        <_>
          <internalNodes>
            0 -1 222 3.4971308195963502e-05</internalNodes>
          <leafValues>
            -2.7751430869102478e-01 3.3272910118103027e-01</leafValues></_>
        <_>
          <internalNodes>
            0 -1 213 -6.5344229369657114e-06</internalNodes>
          <leafValues>
            -6.1492735147476196e-01 1.0522298514842987e-01</leafValues></_>
        <_>
          <internalNodes>
            0 -1 111 1.2927998322993517e-03</internalNodes>
          <leafValues>
            -1.9636245071887970e-01 3.2450479269027710e-01</leafValues></_>
        <_>
          <internalNodes>
            0 -1 115 -6.3301686168415472e-06</internalNodes>
          <leafValues>
            -3.8645684719085693e-01 1.4501370489597321e-01</leafValues></_>
        <_>
          <internalNodes>
            0 -1 199 1.2559141032397747e-03</internalNodes>
          <leafValues>
            -1.7218153178691864e-01 3.1250718235969543e-01</leafValues></_>
        <_>
          <internalNodes>
            0 -1 41 -8.5823689005337656e-05</internalNodes>
          <leafValues>
            1.1089824885129929e-01 -5.1434600353240967e-01</leafValues></_>
        <_>
          <internalNodes>
            0 -1 116 3.5096658393740654e-03</internalNodes>
          <leafValues>
            -8.3388119935989380e-02 6.7883121967315674e-01</leafValues></_>
        <_>
          <internalNodes>
            0 -1 127 3.7024452467449009e-05</internalNodes>
          <leafValues>
            1.3434757292270660e-01 -4.2349657416343689e-01</leafValues></_>
        <_>
          <internalNodes>
            0 -1 95 -1.6178324585780501e-03</internalNodes>
          <leafValues>
            3.5260957479476929e-01 -1.8555140495300293e-01</leafValues></_>
        <_>
          <internalNodes>
            0 -1 163 -7.3311853157065343e-06</internalNodes>
          <leafValues>
            -6.9031554460525513e-01 8.2210980355739594e-02</leafValues></_>
        <_>
          <internalNodes>
            0 -1 37 2.4563713371753693e-01</internalNodes>
          <leafValues>
            7.6075933873653412e-02 -6.5506720542907715e-01</leafValues></_>
        <_>
          <internalNodes>
            0 -1 75 1.8246865365654230e-03</internalNodes>
          <leafValues>
            -1.4679165184497833e-01 4.3315798044204712e-01</leafValues></_>
        <_>
          <internalNodes>
            0 -1 132 3.9746775291860104e-03</internalNodes>
          <leafValues>
            -7.1069806814193726e-02 7.2194373607635498e-01</leafValues></_>
        <_>
          <internalNodes>
            0 -1 131 -1.2135864794254303e-01</internalNodes>
          <leafValues>
            -9.4565379619598389e-01 6.9831125438213348e-02</leafValues></_>
        <_>
          <internalNodes>
            0 -1 110 2.4875386152416468e-03</internalNodes>
          <leafValues>
            -1.9731715321540833e-01 3.5290110111236572e-01</leafValues></_></weakClassifiers></_>
    <!-- stage 16 -->
    <_>
      <maxWeakCount>17</maxWeakCount>
      <stageThreshold>-1.1420478820800781e+00</stageThreshold>
      <weakClassifiers>
        <_>
          <internalNodes>
            0 -1 169 -1.5013008378446102e-03</internalNodes>
          <leafValues>
            5.5084747076034546e-01 -4.3487054109573364e-01</leafValues></_>
        <_>
          <internalNodes>
            0 -1 200 2.4933782697189599e-05</internalNodes>
          <leafValues>
            -6.6079306602478027e-01 4.4003471732139587e-02</leafValues></_>
        <_>
          <internalNodes>
            0 -1 139 -6.1155551520641893e-06</internalNodes>
          <leafValues>
            -6.7743122577667236e-01 9.5188111066818237e-02</leafValues></_>
        <_>
          <internalNodes>
            0 -1 74 1.9428899884223938e-01</internalNodes>
          <leafValues>
            1.8742938339710236e-01 -3.5755577683448792e-01</leafValues></_>
        <_>
          <internalNodes>
            0 -1 68 -8.6735584773123264e-04</internalNodes>
          <leafValues>
            -4.9221292138099670e-01 7.5887888669967651e-02</leafValues></_>
        <_>
          <internalNodes>
            0 -1 192 6.1783989622199442e-06</internalNodes>
          <leafValues>
            8.4228068590164185e-02 -8.4972375631332397e-01</leafValues></_>
        <_>
          <internalNodes>
            0 -1 170 6.7918999120593071e-03</internalNodes>
          <leafValues>
            -1.7177018523216248e-01 3.2010835409164429e-01</leafValues></_>
        <_>
          <internalNodes>
            0 -1 162 -8.8507757754996419e-04</internalNodes>
          <leafValues>
            4.1572484374046326e-01 -1.2041530013084412e-01</leafValues></_>
        <_>
          <internalNodes>
            0 -1 178 2.5645182467997074e-03</internalNodes>
          <leafValues>
            -6.9612145423889160e-02 6.9558638334274292e-01</leafValues></_>
        <_>
          <internalNodes>
            0 -1 190 -6.9789280132681597e-06</internalNodes>
          <leafValues>
            -9.1888701915740967e-01 6.6510304808616638e-02</leafValues></_>
        <_>
          <internalNodes>
            0 -1 118 -7.8511051833629608e-03</internalNodes>
          <leafValues>
            4.1126388311386108e-01 -1.4692269265651703e-01</leafValues></_>
        <_>
          <internalNodes>
            0 -1 67 -1.7096060514450073e-01</internalNodes>
          <leafValues>
            -8.8315147161483765e-01 6.1759080737829208e-02</leafValues></_>
        <_>
          <internalNodes>
            0 -1 154 -3.0698953196406364e-03</internalNodes>
          <leafValues>
            7.7126365900039673e-01 -8.3597950637340546e-02</leafValues></_>
        <_>
          <internalNodes>
            0 -1 145 1.0943630337715149e-01</internalNodes>
          <leafValues>
            1.9198115170001984e-01 -3.0538165569305420e-01</leafValues></_>
        <_>
          <internalNodes>
            0 -1 214 1.0090192779898643e-02</internalNodes>
          <leafValues>
            1.0045426338911057e-01 -6.6029036045074463e-01</leafValues></_>
        <_>
          <internalNodes>
            0 -1 177 3.1847013160586357e-03</internalNodes>
          <leafValues>
            -1.2649756669998169e-01 5.0058591365814209e-01</leafValues></_>
        <_>
          <internalNodes>
            0 -1 164 6.1070345509506296e-06</internalNodes>
          <leafValues>
            9.8788097500801086e-02 -6.7560446262359619e-01</leafValues></_></weakClassifiers></_>
    <!-- stage 17 -->
    <_>
      <maxWeakCount>21</maxWeakCount>
      <stageThreshold>-1.2845977544784546e+00</stageThreshold>
      <weakClassifiers>
        <_>
          <internalNodes>
            0 -1 140 -1.7646190826781094e-05</internalNodes>
          <leafValues>
            -1.4009287953376770e-01 -6.3867485523223877e-01</leafValues></_>
        <_>
          <internalNodes>
            0 -1 65 -1.9952438378822990e-05</internalNodes>
          <leafValues>
            4.0128853172063828e-02 -7.5180828571319580e-01</leafValues></_>
        <_>
          <internalNodes>
            0 -1 3 6.7527394094213378e-06</internalNodes>
          <leafValues>
            1.4557534456253052e-01 -6.3691508769989014e-01</leafValues></_>
        <_>
          <internalNodes>
            0 -1 57 1.9274360965937376e-05</internalNodes>
          <leafValues>
            -7.1983486413955688e-01 5.4124571382999420e-02</leafValues></_>
        <_>
          <internalNodes>
            0 -1 155 2.8415650594979525e-03</internalNodes>
          <leafValues>
            -8.3106532692909241e-02 7.8188216686248779e-01</leafValues></_>
        <_>
          <internalNodes>
            0 -1 39 -2.0970590412616730e-05</internalNodes>
          <leafValues>
            1.0881096124649048e-01 -5.8292365074157715e-01</leafValues></_>
        <_>
          <internalNodes>
            0 -1 6 -9.2556327581405640e-03</internalNodes>
          <leafValues>
            -6.8006169795989990e-01 5.3223419934511185e-02</leafValues></_>
        <_>
          <internalNodes>
            0 -1 194 -3.2634568924549967e-05</internalNodes>
          <leafValues>
            -4.4752502441406250e-01 1.2372005730867386e-01</leafValues></_>
        <_>
          <internalNodes>
            0 -1 212 -6.7803557612933218e-06</internalNodes>
          <leafValues>
            -6.6802793741226196e-01 9.9334709346294403e-02</leafValues></_>
        <_>
          <internalNodes>
            0 -1 150 -1.2887878343462944e-02</internalNodes>
          <leafValues>
            7.0161032676696777e-01 -9.2464886605739594e-02</leafValues></_>
        <_>
          <internalNodes>
            0 -1 176 -6.3831166698946618e-06</internalNodes>
          <leafValues>
            -7.1572476625442505e-01 9.1208748519420624e-02</leafValues></_>
        <_>
          <internalNodes>
            0 -1 94 -9.7362775704823434e-05</internalNodes>
          <leafValues>
            3.2470053434371948e-01 -2.0186987519264221e-01</leafValues></_>
        <_>
          <internalNodes>
            0 -1 18 -1.7685729835648090e-04</internalNodes>
          <leafValues>
            2.8410926461219788e-01 -2.4865555763244629e-01</leafValues></_>
        <_>
          <internalNodes>
            0 -1 16 -3.5678118001669645e-03</internalNodes>
          <leafValues>
            -4.4652649760246277e-01 1.4555177092552185e-01</leafValues></_>
        <_>
          <internalNodes>
            0 -1 147 6.5694615477696061e-04</internalNodes>
          <leafValues>
            -1.8699368834495544e-01 3.4803867340087891e-01</leafValues></_>
        <_>
          <internalNodes>
            0 -1 141 4.5811263844370842e-03</internalNodes>
          <leafValues>
            -7.6300986111164093e-02 6.7701703310012817e-01</leafValues></_>
        <_>
          <internalNodes>
            0 -1 165 1.4274504501372576e-03</internalNodes>
          <leafValues>
            1.1692168563604355e-01 -5.2858722209930420e-01</leafValues></_>
        <_>
          <internalNodes>
            0 -1 88 6.3479292293777689e-06</internalNodes>
          <leafValues>
            6.1967197805643082e-02 -7.8254830837249756e-01</leafValues></_>
        <_>
          <internalNodes>
            0 -1 13 -3.5943299531936646e-02</internalNodes>
          <leafValues>
            -6.4060318470001221e-01 7.3542840778827667e-02</leafValues></_>
        <_>
          <internalNodes>
            0 -1 168 1.4759901678189635e-03</internalNodes>
          <leafValues>
            -1.2434224784374237e-01 4.8098614811897278e-01</leafValues></_>
        <_>
          <internalNodes>
            0 -1 186 -6.2874100876797456e-06</internalNodes>
          <leafValues>
            -4.1446560621261597e-01 1.3557730615139008e-01</leafValues></_></weakClassifiers></_>
    <!-- stage 18 -->
    <_>
      <maxWeakCount>16</maxWeakCount>
      <stageThreshold>-1.1448622941970825e+00</stageThreshold>
      <weakClassifiers>
        <_>
          <internalNodes>
            0 -1 179 7.0313969627022743e-03</internalNodes>
          <leafValues>
            -4.9113753437995911e-01 2.3374827206134796e-01</leafValues></_>
        <_>
          <internalNodes>
            0 -1 25 -3.4645944833755493e-01</internalNodes>
          <leafValues>
            -6.7577642202377319e-01 8.1668846309185028e-02</leafValues></_>
        <_>
          <internalNodes>
            0 -1 117 5.1371688023209572e-03</internalNodes>
          <leafValues>
            -1.2184607982635498e-01 5.8247029781341553e-01</leafValues></_>
        <_>
          <internalNodes>
            0 -1 28 -4.3869990110397339e-01</internalNodes>
          <leafValues>
            -9.2558896541595459e-01 7.4554629623889923e-02</leafValues></_>
        <_>
          <internalNodes>
            0 -1 9 7.6932810770813376e-06</internalNodes>
          <leafValues>
            6.7303232848644257e-02 -9.2759722471237183e-01</leafValues></_>
        <_>
          <internalNodes>
            0 -1 215 -2.0912520994897932e-05</internalNodes>
          <leafValues>
            -6.4961683750152588e-01 7.9006046056747437e-02</leafValues></_>
        <_>
          <internalNodes>
            0 -1 225 -2.0423595560714602e-04</internalNodes>
          <leafValues>
            3.3258512616157532e-01 -2.0451812446117401e-01</leafValues></_>
        <_>
          <internalNodes>
            0 -1 224 2.2653759515378624e-05</internalNodes>
          <leafValues>
            -3.0861708521842957e-01 2.5843238830566406e-01</leafValues></_>
        <_>
          <internalNodes>
            0 -1 221 8.4399636834859848e-03</internalNodes>
          <leafValues>
            1.0469004511833191e-01 -6.0991781949996948e-01</leafValues></_>
        <_>
          <internalNodes>
            0 -1 101 7.5781829655170441e-03</internalNodes>
          <leafValues>
            -1.2228641659021378e-01 4.7290736436843872e-01</leafValues></_>
        <_>
          <internalNodes>
            0 -1 73 1.1745125520974398e-03</internalNodes>
          <leafValues>
            -1.3916316628456116e-01 3.7127262353897095e-01</leafValues></_>
        <_>
          <internalNodes>
            0 -1 171 -3.2674730755388737e-03</internalNodes>
          <leafValues>
            5.9102946519851685e-01 -8.2354262471199036e-02</leafValues></_>
        <_>
          <internalNodes>
            0 -1 187 -4.2752226363518275e-06</internalNodes>
          <leafValues>
            -7.6558881998062134e-01 7.3091141879558563e-02</leafValues></_>
        <_>
          <internalNodes>
            0 -1 109 7.9167708754539490e-03</internalNodes>
          <leafValues>
            -1.0889647901058197e-01 5.5819112062454224e-01</leafValues></_>
        <_>
          <internalNodes>
            0 -1 106 -4.5323933591134846e-04</internalNodes>
          <leafValues>
            3.2899361848831177e-01 -1.9240988790988922e-01</leafValues></_>
        <_>
          <internalNodes>
            0 -1 50 6.8355561779753771e-06</internalNodes>
          <leafValues>
            8.2446530461311340e-02 -6.8680042028427124e-01</leafValues></_></weakClassifiers></_>
    <!-- stage 19 -->
    <_>
      <maxWeakCount>19</maxWeakCount>
      <stageThreshold>-1.3593678474426270e+00</stageThreshold>
      <weakClassifiers>
        <_>
          <internalNodes>
            0 -1 175 -8.9327397290617228e-04</internalNodes>
          <leafValues>
            5.5147057771682739e-01 -4.4213530421257019e-01</leafValues></_>
        <_>
          <internalNodes>
            0 -1 84 -1.9750466942787170e-01</internalNodes>
          <leafValues>
            -4.6276682615280151e-01 1.1849465221166611e-01</leafValues></_>
        <_>
          <internalNodes>
            0 -1 82 -1.0104621946811676e-01</internalNodes>
          <leafValues>
            -7.3061650991439819e-01 1.2561793625354767e-01</leafValues></_>
        <_>
          <internalNodes>
            0 -1 62 -8.8459793478250504e-03</internalNodes>
          <leafValues>
            -7.4905943870544434e-01 9.1177321970462799e-02</leafValues></_>
        <_>
          <internalNodes>
            0 -1 159 -1.9898437894880772e-03</internalNodes>
          <leafValues>
            3.7865847349166870e-01 -1.8245281279087067e-01</leafValues></_>
        <_>
          <internalNodes>
            0 -1 151 -3.9052758365869522e-02</internalNodes>
          <leafValues>
            -4.1460546851158142e-01 1.5233877301216125e-01</leafValues></_>
        <_>
          <internalNodes>
            0 -1 126 -1.4077833294868469e-01</internalNodes>
          <leafValues>
            -8.2555097341537476e-01 1.0637217015028000e-01</leafValues></_>
        <_>
          <internalNodes>
            0 -1 113 1.8416891180095263e-05</internalNodes>
          <leafValues>
            6.7475788295269012e-02 -7.9043698310852051e-01</leafValues></_>
        <_>
          <internalNodes>
            0 -1 107 2.1078714053146541e-04</internalNodes>
          <leafValues>
            -2.6896902918815613e-01 2.1771189570426941e-01</leafValues></_>
        <_>
          <internalNodes>
            0 -1 26 -3.1848260550759733e-04</internalNodes>
          <leafValues>
            2.9257687926292419e-01 -2.2793954610824585e-01</leafValues></_>
        <_>
          <internalNodes>
            0 -1 52 6.7533969879150391e-02</internalNodes>
          <leafValues>
            1.2961995601654053e-01 -6.0936778783798218e-01</leafValues></_>
        <_>
          <internalNodes>
            0 -1 47 2.5462616235017776e-02</internalNodes>
          <leafValues>
            7.1650676429271698e-02 -7.2316896915435791e-01</leafValues></_>
        <_>
          <internalNodes>
            0 -1 183 -5.3340377053245902e-04</internalNodes>
          <leafValues>
            -7.3682963848114014e-01 6.3812643289566040e-02</leafValues></_>
        <_>
          <internalNodes>
            0 -1 43 -4.0423138998448849e-03</internalNodes>
          <leafValues>
            3.3214971423149109e-01 -2.0082649588584900e-01</leafValues></_>
        <_>
          <internalNodes>
            0 -1 167 3.2895077019929886e-03</internalNodes>
          <leafValues>
            -7.9408846795558929e-02 7.5983148813247681e-01</leafValues></_>
        <_>
          <internalNodes>
            0 -1 182 2.7622692869044840e-05</internalNodes>
          <leafValues>
            2.1190316975116730e-01 -3.0451759696006775e-01</leafValues></_>
        <_>
          <internalNodes>
            0 -1 128 1.5084803104400635e-01</internalNodes>
          <leafValues>
            7.6723881065845490e-02 -8.2653558254241943e-01</leafValues></_>
        <_>
          <internalNodes>
            0 -1 100 -5.6846179068088531e-03</internalNodes>
          <leafValues>
            5.3981244564056396e-01 -1.3701248168945312e-01</leafValues></_>
        <_>
          <internalNodes>
            0 -1 89 2.6583278668113053e-05</internalNodes>
          <leafValues>
            -1.9680108129978180e-01 2.9149535298347473e-01</leafValues></_></weakClassifiers></_></stages>
  <features>
    <_>
      <rects>
        <_>
          0 0 2 1 -1.</_>
        <_>
          1 0 1 1 2.</_></rects>
      <tilted>0</tilted></_>
    <_>
      <rects>
        <_>
          0 0 2 2 -1.</_>
        <_>
          0 0 1 1 2.</_>
        <_>
          1 1 1 1 2.</_></rects>
      <tilted>0</tilted></_>
    <_>
      <rects>
        <_>
          0 0 1 4 -1.</_>
        <_>
          0 2 1 2 2.</_></rects>
      <tilted>0</tilted></_>
    <_>
      <rects>
        <_>
          0 0 2 8 -1.</_>
        <_>
          0 0 1 4 2.</_>
        <_>
          1 4 1 4 2.</_></rects>
      <tilted>0</tilted></_>
    <_>
      <rects>
        <_>
          0 0 1 26 -1.</_>
        <_>
          0 13 1 13 2.</_></rects>
      <tilted>0</tilted></_>
    <_>
      <rects>
        <_>
          0 0 1 30 -1.</_>
        <_>
          0 15 1 15 2.</_></rects>
      <tilted>0</tilted></_>
    <_>
      <rects>
        <_>
          0 0 1 38 -1.</_>
        <_>
          0 19 1 19 2.</_></rects>
      <tilted>0</tilted></_>
    <_>
      <rects>
        <_>
          0 0 2 33 -1.</_>
        <_>
          1 0 1 33 2.</_></rects>
      <tilted>0</tilted></_>
    <_>
      <rects>
        <_>
          0 0 4 1 -1.</_>
        <_>
          2 0 2 1 2.</_></rects>
      <tilted>0</tilted></_>
    <_>
      <rects>
        <_>
          0 0 4 2 -1.</_>
        <_>
          2 0 2 2 2.</_></rects>
      <tilted>0</tilted></_>
    <_>
      <rects>
        <_>
          0 0 2 6 -1.</_>
        <_>
          0 3 2 3 2.</_></rects>
      <tilted>0</tilted></_>
    <_>
      <rects>
        <_>
          0 0 2 8 -1.</_>
        <_>
          0 4 2 4 2.</_></rects>
      <tilted>0</tilted></_>
    <_>
      <rects>
        <_>
          0 0 6 40 -1.</_>
        <_>
          3 0 3 40 2.</_></rects>
      <tilted>0</tilted></_>
    <_>
      <rects>
        <_>
          0 0 6 20 -1.</_>
        <_>
          0 10 6 10 2.</_></rects>
      <tilted>0</tilted></_>
    <_>
      <rects>
        <_>
          0 0 9 20 -1.</_>
        <_>
          0 10 9 10 2.</_></rects>
      <tilted>0</tilted></_>
    <_>
      <rects>
        <_>
          0 0 28 1 -1.</_>
        <_>
          14 0 14 1 2.</_></rects>
      <tilted>0</tilted></_>
    <_>
      <rects>
        <_>
          0 0 34 1 -1.</_>
        <_>
          17 0 17 1 2.</_></rects>
      <tilted>0</tilted></_>
    <_>
      <rects>
        <_>
          0 0 36 1 -1.</_>
        <_>
          18 0 18 1 2.</_></rects>
      <tilted>0</tilted></_>
    <_>
      <rects>
        <_>
          0 0 40 1 -1.</_>
        <_>
          20 0 20 1 2.</_></rects>
      <tilted>0</tilted></_>
    <_>
      <rects>
        <_>
          0 0 40 32 -1.</_>
        <_>
          20 0 20 32 2.</_></rects>
      <tilted>0</tilted></_>
    <_>
      <rects>
        <_>
          0 0 40 39 -1.</_>
        <_>
          20 0 20 39 2.</_></rects>
      <tilted>0</tilted></_>
    <_>
      <rects>
        <_>
          0 0 40 40 -1.</_>
        <_>
          20 0 20 40 2.</_></rects>
      <tilted>0</tilted></_>
    <_>
      <rects>
        <_>
          0 0 38 2 -1.</_>
        <_>
          0 1 38 1 2.</_></rects>
      <tilted>0</tilted></_>
    <_>
      <rects>
        <_>
          0 0 38 18 -1.</_>
        <_>
          0 9 38 9 2.</_></rects>
      <tilted>0</tilted></_>
    <_>
      <rects>
        <_>
          0 0 40 2 -1.</_>
        <_>
          0 1 40 1 2.</_></rects>
      <tilted>0</tilted></_>
    <_>
      <rects>
        <_>
          0 0 40 40 -1.</_>
        <_>
          0 20 40 20 2.</_></rects>
      <tilted>0</tilted></_>
    <_>
      <rects>
        <_>
          0 1 1 34 -1.</_>
        <_>
          0 18 1 17 2.</_></rects>
      <tilted>0</tilted></_>
    <_>
      <rects>
        <_>
          0 1 8 20 -1.</_>
        <_>
          0 11 8 10 2.</_></rects>
      <tilted>0</tilted></_>
    <_>
      <rects>
        <_>
          0 1 40 38 -1.</_>
        <_>
          20 1 20 38 2.</_></rects>
      <tilted>0</tilted></_>
    <_>
      <rects>
        <_>
          0 2 1 2 -1.</_>
        <_>
          0 3 1 1 2.</_></rects>
      <tilted>0</tilted></_>
    <_>
      <rects>
        <_>
          0 2 1 38 -1.</_>
        <_>
          0 21 1 19 2.</_></rects>
      <tilted>0</tilted></_>
    <_>
      <rects>
        <_>
          0 2 2 32 -1.</_>
        <_>
          1 2 1 32 2.</_></rects>
      <tilted>0</tilted></_>
    <_>
      <rects>
        <_>
          0 3 2 36 -1.</_>
        <_>
          1 3 1 36 2.</_></rects>
      <tilted>0</tilted></_>
    <_>
      <rects>
        <_>
          0 3 28 36 -1.</_>
        <_>
          14 3 14 36 2.</_></rects>
      <tilted>0</tilted></_>
    <_>
      <rects>
        <_>
          0 4 2 32 -1.</_>
        <_>
          1 4 1 32 2.</_></rects>
      <tilted>0</tilted></_>
    <_>
      <rects>
        <_>
          0 5 2 31 -1.</_>
        <_>
          1 5 1 31 2.</_></rects>
      <tilted>0</tilted></_>
    <_>
      <rects>
        <_>
          0 6 2 30 -1.</_>
        <_>
          1 6 1 30 2.</_></rects>
      <tilted>0</tilted></_>
    <_>
      <rects>
        <_>
          0 6 35 30 -1.</_>
        <_>
          0 21 35 15 2.</_></rects>
      <tilted>0</tilted></_>
    <_>
      <rects>
        <_>
          0 7 2 32 -1.</_>
        <_>
          1 7 1 32 2.</_></rects>
      <tilted>0</tilted></_>
    <_>
      <rects>
        <_>
          0 7 2 33 -1.</_>
        <_>
          1 7 1 33 2.</_></rects>
      <tilted>0</tilted></_>
    <_>
      <rects>
        <_>
          0 7 22 25 -1.</_>
        <_>
          11 7 11 25 2.</_></rects>
      <tilted>0</tilted></_>
    <_>
      <rects>
        <_>
          0 8 2 28 -1.</_>
        <_>
          1 8 1 28 2.</_></rects>
      <tilted>0</tilted></_>
    <_>
      <rects>
        <_>
          0 10 2 6 -1.</_>
        <_>
          1 10 1 6 2.</_></rects>
      <tilted>0</tilted></_>
    <_>
      <rects>
        <_>
          0 10 2 27 -1.</_>
        <_>
          1 10 1 27 2.</_></rects>
      <tilted>0</tilted></_>
    <_>
      <rects>
        <_>
          0 13 1 9 -1.</_>
        <_>
          0 16 1 3 2.</_></rects>
      <tilted>0</tilted></_>
    <_>
      <rects>
        <_>
          0 16 35 24 -1.</_>
        <_>
          0 28 35 12 2.</_></rects>
      <tilted>0</tilted></_>
    <_>
      <rects>
        <_>
          0 19 1 20 -1.</_>
        <_>
          0 29 1 10 2.</_></rects>
      <tilted>0</tilted></_>
    <_>
      <rects>
        <_>
          0 22 4 18 -1.</_>
        <_>
          0 31 4 9 2.</_></rects>
      <tilted>0</tilted></_>
    <_>
      <rects>
        <_>
          0 26 20 2 -1.</_>
        <_>
          0 26 10 1 2.</_>
        <_>
          10 27 10 1 2.</_></rects>
      <tilted>0</tilted></_>
    <_>
      <rects>
        <_>
          0 32 2 8 -1.</_>
        <_>
          0 32 1 4 2.</_>
        <_>
          1 36 1 4 2.</_></rects>
      <tilted>0</tilted></_>
    <_>
      <rects>
        <_>
          0 33 6 7 -1.</_>
        <_>
          3 33 3 7 2.</_></rects>
      <tilted>0</tilted></_>
    <_>
      <rects>
        <_>
          0 34 2 6 -1.</_>
        <_>
          0 36 2 2 2.</_></rects>
      <tilted>0</tilted></_>
    <_>
      <rects>
        <_>
          0 34 36 6 -1.</_>
        <_>
          18 34 18 6 2.</_></rects>
      <tilted>0</tilted></_>
    <_>
      <rects>
        <_>
          0 36 1 4 -1.</_>
        <_>
          0 38 1 2 2.</_></rects>
      <tilted>0</tilted></_>
    <_>
      <rects>
        <_>
          0 36 3 4 -1.</_>
        <_>
          0 38 3 2 2.</_></rects>
      <tilted>0</tilted></_>
    <_>
      <rects>
        <_>
          0 37 2 3 -1.</_>
        <_>
          0 38 2 1 2.</_></rects>
      <tilted>0</tilted></_>
    <_>
      <rects>
        <_>
          0 38 4 2 -1.</_>
        <_>
          2 38 2 2 2.</_></rects>
      <tilted>0</tilted></_>
    <_>
      <rects>
        <_>
          0 38 35 2 -1.</_>
        <_>
          0 39 35 1 2.</_></rects>
      <tilted>0</tilted></_>
    <_>
      <rects>
        <_>
          0 38 40 2 -1.</_>
        <_>
          0 39 40 1 2.</_></rects>
      <tilted>0</tilted></_>
    <_>
      <rects>
        <_>
          0 39 4 1 -1.</_>
        <_>
          2 39 2 1 2.</_></rects>
      <tilted>0</tilted></_>
    <_>
      <rects>
        <_>
          0 39 32 1 -1.</_>
        <_>
          16 39 16 1 2.</_></rects>
      <tilted>0</tilted></_>
    <_>
      <rects>
        <_>
          0 39 36 1 -1.</_>
        <_>
          18 39 18 1 2.</_></rects>
      <tilted>0</tilted></_>
    <_>
      <rects>
        <_>
          0 39 38 1 -1.</_>
        <_>
          19 39 19 1 2.</_></rects>
      <tilted>0</tilted></_>
    <_>
      <rects>
        <_>
          0 39 40 1 -1.</_>
        <_>
          20 39 20 1 2.</_></rects>
      <tilted>0</tilted></_>
    <_>
      <rects>
        <_>
          1 0 2 2 -1.</_>
        <_>
          1 1 2 1 2.</_></rects>
      <tilted>0</tilted></_>
    <_>
      <rects>
        <_>
          1 0 39 2 -1.</_>
        <_>
          1 1 39 1 2.</_></rects>
      <tilted>0</tilted></_>
    <_>
      <rects>
        <_>
          1 7 24 2 -1.</_>
        <_>
          1 7 12 1 2.</_>
        <_>
          13 8 12 1 2.</_></rects>
      <tilted>0</tilted></_>
    <_>
      <rects>
        <_>
          1 7 26 19 -1.</_>
        <_>
          14 7 13 19 2.</_></rects>
      <tilted>0</tilted></_>
    <_>
      <rects>
        <_>
          1 28 4 6 -1.</_>
        <_>
          1 31 4 3 2.</_></rects>
      <tilted>0</tilted></_>
    <_>
      <rects>
        <_>
          1 38 3 2 -1.</_>
        <_>
          1 39 3 1 2.</_></rects>
      <tilted>0</tilted></_>
    <_>
      <rects>
        <_>
          1 39 24 1 -1.</_>
        <_>
          13 39 12 1 2.</_></rects>
      <tilted>0</tilted></_>
    <_>
      <rects>
        <_>
          2 0 33 2 -1.</_>
        <_>
          2 1 33 1 2.</_></rects>
      <tilted>0</tilted></_>
    <_>
      <rects>
        <_>
          2 0 36 2 -1.</_>
        <_>
          2 1 36 1 2.</_></rects>
      <tilted>0</tilted></_>
    <_>
      <rects>
        <_>
          2 10 4 12 -1.</_>
        <_>
          2 10 2 6 2.</_>
        <_>
          4 16 2 6 2.</_></rects>
      <tilted>0</tilted></_>
    <_>
      <rects>
        <_>
          2 10 36 30 -1.</_>
        <_>
          2 25 36 15 2.</_></rects>
      <tilted>0</tilted></_>
    <_>
      <rects>
        <_>
          2 15 38 2 -1.</_>
        <_>
          2 16 38 1 2.</_></rects>
      <tilted>0</tilted></_>
    <_>
      <rects>
        <_>
          2 18 37 22 -1.</_>
        <_>
          2 29 37 11 2.</_></rects>
      <tilted>0</tilted></_>
    <_>
      <rects>
        <_>
          2 20 7 20 -1.</_>
        <_>
          2 30 7 10 2.</_></rects>
      <tilted>0</tilted></_>
    <_>
      <rects>
        <_>
          2 25 3 2 -1.</_>
        <_>
          2 26 3 1 2.</_></rects>
      <tilted>0</tilted></_>
    <_>
      <rects>
        <_>
          2 28 35 12 -1.</_>
        <_>
          2 34 35 6 2.</_></rects>
      <tilted>0</tilted></_>
    <_>
      <rects>
        <_>
          2 38 34 2 -1.</_>
        <_>
          2 39 34 1 2.</_></rects>
      <tilted>0</tilted></_>
    <_>
      <rects>
        <_>
          2 38 38 2 -1.</_>
        <_>
          2 39 38 1 2.</_></rects>
      <tilted>0</tilted></_>
    <_>
      <rects>
        <_>
          3 0 30 12 -1.</_>
        <_>
          3 6 30 6 2.</_></rects>
      <tilted>0</tilted></_>
    <_>
      <rects>
        <_>
          3 0 33 2 -1.</_>
        <_>
          3 1 33 1 2.</_></rects>
      <tilted>0</tilted></_>
    <_>
      <rects>
        <_>
          3 0 34 32 -1.</_>
        <_>
          3 16 34 16 2.</_></rects>
      <tilted>0</tilted></_>
    <_>
      <rects>
        <_>
          3 16 8 2 -1.</_>
        <_>
          3 16 4 1 2.</_>
        <_>
          7 17 4 1 2.</_></rects>
      <tilted>0</tilted></_>
    <_>
      <rects>
        <_>
          3 38 35 2 -1.</_>
        <_>
          3 39 35 1 2.</_></rects>
      <tilted>0</tilted></_>
    <_>
      <rects>
        <_>
          3 39 6 1 -1.</_>
        <_>
          6 39 3 1 2.</_></rects>
      <tilted>0</tilted></_>
    <_>
      <rects>
        <_>
          4 0 2 2 -1.</_>
        <_>
          4 1 2 1 2.</_></rects>
      <tilted>0</tilted></_>
    <_>
      <rects>
        <_>
          4 0 36 1 -1.</_>
        <_>
          22 0 18 1 2.</_></rects>
      <tilted>0</tilted></_>
    <_>
      <rects>
        <_>
          4 0 31 2 -1.</_>
        <_>
          4 1 31 1 2.</_></rects>
      <tilted>0</tilted></_>
    <_>
      <rects>
        <_>
          4 0 34 2 -1.</_>
        <_>
          4 1 34 1 2.</_></rects>
      <tilted>0</tilted></_>
    <_>
      <rects>
        <_>
          4 0 36 12 -1.</_>
        <_>
          4 6 36 6 2.</_></rects>
      <tilted>0</tilted></_>
    <_>
      <rects>
        <_>
          4 38 30 2 -1.</_>
        <_>
          4 39 30 1 2.</_></rects>
      <tilted>0</tilted></_>
    <_>
      <rects>
        <_>
          4 39 36 1 -1.</_>
        <_>
          22 39 18 1 2.</_></rects>
      <tilted>0</tilted></_>
    <_>
      <rects>
        <_>
          5 0 13 2 -1.</_>
        <_>
          5 1 13 1 2.</_></rects>
      <tilted>0</tilted></_>
    <_>
      <rects>
        <_>
          5 0 29 2 -1.</_>
        <_>
          5 1 29 1 2.</_></rects>
      <tilted>0</tilted></_>
    <_>
      <rects>
        <_>
          5 0 32 2 -1.</_>
        <_>
          5 1 32 1 2.</_></rects>
      <tilted>0</tilted></_>
    <_>
      <rects>
        <_>
          5 0 34 2 -1.</_>
        <_>
          5 1 34 1 2.</_></rects>
      <tilted>0</tilted></_>
    <_>
      <rects>
        <_>
          5 0 35 2 -1.</_>
        <_>
          5 1 35 1 2.</_></rects>
      <tilted>0</tilted></_>
    <_>
      <rects>
        <_>
          5 12 14 4 -1.</_>
        <_>
          5 14 14 2 2.</_></rects>
      <tilted>0</tilted></_>
    <_>
      <rects>
        <_>
          5 18 32 4 -1.</_>
        <_>
          5 18 16 2 2.</_>
        <_>
          21 20 16 2 2.</_></rects>
      <tilted>0</tilted></_>
    <_>
      <rects>
        <_>
          5 38 30 2 -1.</_>
        <_>
          5 39 30 1 2.</_></rects>
      <tilted>0</tilted></_>
    <_>
      <rects>
        <_>
          5 38 31 2 -1.</_>
        <_>
          5 39 31 1 2.</_></rects>
      <tilted>0</tilted></_>
    <_>
      <rects>
        <_>
          5 38 33 2 -1.</_>
        <_>
          5 39 33 1 2.</_></rects>
      <tilted>0</tilted></_>
    <_>
      <rects>
        <_>
          6 5 12 16 -1.</_>
        <_>
          6 5 6 8 2.</_>
        <_>
          12 13 6 8 2.</_></rects>
      <tilted>0</tilted></_>
    <_>
      <rects>
        <_>
          6 11 20 2 -1.</_>
        <_>
          6 12 20 1 2.</_></rects>
      <tilted>0</tilted></_>
    <_>
      <rects>
        <_>
          6 23 8 6 -1.</_>
        <_>
          6 26 8 3 2.</_></rects>
      <tilted>0</tilted></_>
    <_>
      <rects>
        <_>
          6 38 30 2 -1.</_>
        <_>
          6 39 30 1 2.</_></rects>
      <tilted>0</tilted></_>
    <_>
      <rects>
        <_>
          7 10 22 4 -1.</_>
        <_>
          7 12 22 2 2.</_></rects>
      <tilted>0</tilted></_>
    <_>
      <rects>
        <_>
          7 25 14 4 -1.</_>
        <_>
          7 27 14 2 2.</_></rects>
      <tilted>0</tilted></_>
    <_>
      <rects>
        <_>
          7 30 19 2 -1.</_>
        <_>
          7 31 19 1 2.</_></rects>
      <tilted>0</tilted></_>
    <_>
      <rects>
        <_>
          7 38 31 2 -1.</_>
        <_>
          7 39 31 1 2.</_></rects>
      <tilted>0</tilted></_>
    <_>
      <rects>
        <_>
          8 0 4 2 -1.</_>
        <_>
          8 1 4 1 2.</_></rects>
      <tilted>0</tilted></_>
    <_>
      <rects>
        <_>
          8 0 32 1 -1.</_>
        <_>
          24 0 16 1 2.</_></rects>
      <tilted>0</tilted></_>
    <_>
      <rects>
        <_>
          8 5 4 2 -1.</_>
        <_>
          8 6 4 1 2.</_></rects>
      <tilted>0</tilted></_>
    <_>
      <rects>
        <_>
          8 14 16 2 -1.</_>
        <_>
          8 14 8 1 2.</_>
        <_>
          16 15 8 1 2.</_></rects>
      <tilted>0</tilted></_>
    <_>
      <rects>
        <_>
          8 19 12 4 -1.</_>
        <_>
          8 21 12 2 2.</_></rects>
      <tilted>0</tilted></_>
    <_>
      <rects>
        <_>
          9 4 10 8 -1.</_>
        <_>
          9 4 5 4 2.</_>
        <_>
          14 8 5 4 2.</_></rects>
      <tilted>0</tilted></_>
    <_>
      <rects>
        <_>
          9 8 21 2 -1.</_>
        <_>
          9 9 21 1 2.</_></rects>
      <tilted>0</tilted></_>
    <_>
      <rects>
        <_>
          9 24 5 4 -1.</_>
        <_>
          9 26 5 2 2.</_></rects>
      <tilted>0</tilted></_>
    <_>
      <rects>
        <_>
          10 0 4 1 -1.</_>
        <_>
          12 0 2 1 2.</_></rects>
      <tilted>0</tilted></_>
    <_>
      <rects>
        <_>
          10 14 2 6 -1.</_>
        <_>
          10 14 1 3 2.</_>
        <_>
          11 17 1 3 2.</_></rects>
      <tilted>0</tilted></_>
    <_>
      <rects>
        <_>
          11 27 12 2 -1.</_>
        <_>
          11 27 6 1 2.</_>
        <_>
          17 28 6 1 2.</_></rects>
      <tilted>0</tilted></_>
    <_>
      <rects>
        <_>
          12 0 28 31 -1.</_>
        <_>
          26 0 14 31 2.</_></rects>
      <tilted>0</tilted></_>
    <_>
      <rects>
        <_>
          12 0 16 12 -1.</_>
        <_>
          12 6 16 6 2.</_></rects>
      <tilted>0</tilted></_>
    <_>
      <rects>
        <_>
          12 0 17 24 -1.</_>
        <_>
          12 12 17 12 2.</_></rects>
      <tilted>0</tilted></_>
    <_>
      <rects>
        <_>
          12 1 6 1 -1.</_>
        <_>
          15 1 3 1 2.</_></rects>
      <tilted>0</tilted></_>
    <_>
      <rects>
        <_>
          12 15 28 15 -1.</_>
        <_>
          26 15 14 15 2.</_></rects>
      <tilted>0</tilted></_>
    <_>
      <rects>
        <_>
          12 28 19 12 -1.</_>
        <_>
          12 34 19 6 2.</_></rects>
      <tilted>0</tilted></_>
    <_>
      <rects>
        <_>
          12 38 4 2 -1.</_>
        <_>
          14 38 2 2 2.</_></rects>
      <tilted>0</tilted></_>
    <_>
      <rects>
        <_>
          13 0 13 26 -1.</_>
        <_>
          13 13 13 13 2.</_></rects>
      <tilted>0</tilted></_>
    <_>
      <rects>
        <_>
          13 16 2 22 -1.</_>
        <_>
          13 16 1 11 2.</_>
        <_>
          14 27 1 11 2.</_></rects>
      <tilted>0</tilted></_>
    <_>
      <rects>
        <_>
          13 31 24 4 -1.</_>
        <_>
          13 31 12 2 2.</_>
        <_>
          25 33 12 2 2.</_></rects>
      <tilted>0</tilted></_>
    <_>
      <rects>
        <_>
          13 31 15 4 -1.</_>
        <_>
          13 33 15 2 2.</_></rects>
      <tilted>0</tilted></_>
    <_>
      <rects>
        <_>
          13 39 22 1 -1.</_>
        <_>
          24 39 11 1 2.</_></rects>
      <tilted>0</tilted></_>
    <_>
      <rects>
        <_>
          14 0 14 12 -1.</_>
        <_>
          14 6 14 6 2.</_></rects>
      <tilted>0</tilted></_>
    <_>
      <rects>
        <_>
          14 3 10 8 -1.</_>
        <_>
          14 7 10 4 2.</_></rects>
      <tilted>0</tilted></_>
    <_>
      <rects>
        <_>
          14 4 12 6 -1.</_>
        <_>
          14 7 12 3 2.</_></rects>
      <tilted>0</tilted></_>
    <_>
      <rects>
        <_>
          14 38 3 2 -1.</_>
        <_>
          14 39 3 1 2.</_></rects>
      <tilted>0</tilted></_>
    <_>
      <rects>
        <_>
          15 6 10 2 -1.</_>
        <_>
          15 7 10 1 2.</_></rects>
      <tilted>0</tilted></_>
    <_>
      <rects>
        <_>
          15 9 2 6 -1.</_>
        <_>
          15 12 2 3 2.</_></rects>
      <tilted>0</tilted></_>
    <_>
      <rects>
        <_>
          15 28 10 10 -1.</_>
        <_>
          15 33 10 5 2.</_></rects>
      <tilted>0</tilted></_>
    <_>
      <rects>
        <_>
          15 30 11 6 -1.</_>
        <_>
          15 33 11 3 2.</_></rects>
      <tilted>0</tilted></_>
    <_>
      <rects>
        <_>
          16 0 24 1 -1.</_>
        <_>
          28 0 12 1 2.</_></rects>
      <tilted>0</tilted></_>
    <_>
      <rects>
        <_>
          16 3 24 37 -1.</_>
        <_>
          28 3 12 37 2.</_></rects>
      <tilted>0</tilted></_>
    <_>
      <rects>
        <_>
          16 5 24 29 -1.</_>
        <_>
          28 5 12 29 2.</_></rects>
      <tilted>0</tilted></_>
    <_>
      <rects>
        <_>
          16 11 12 2 -1.</_>
        <_>
          16 11 6 1 2.</_>
        <_>
          22 12 6 1 2.</_></rects>
      <tilted>0</tilted></_>
    <_>
      <rects>
        <_>
          16 11 24 24 -1.</_>
        <_>
          28 11 12 24 2.</_></rects>
      <tilted>0</tilted></_>
    <_>
      <rects>
        <_>
          16 19 8 2 -1.</_>
        <_>
          16 19 4 1 2.</_>
        <_>
          20 20 4 1 2.</_></rects>
      <tilted>0</tilted></_>
    <_>
      <rects>
        <_>
          16 22 23 4 -1.</_>
        <_>
          16 24 23 2 2.</_></rects>
      <tilted>0</tilted></_>
    <_>
      <rects>
        <_>
          17 38 18 1 -1.</_>
        <_>
          23 38 6 1 2.</_></rects>
      <tilted>0</tilted></_>
    <_>
      <rects>
        <_>
          18 0 22 11 -1.</_>
        <_>
          29 0 11 11 2.</_></rects>
      <tilted>0</tilted></_>
    <_>
      <rects>
        <_>
          19 17 2 2 -1.</_>
        <_>
          19 18 2 1 2.</_></rects>
      <tilted>0</tilted></_>
    <_>
      <rects>
        <_>
          19 17 2 4 -1.</_>
        <_>
          19 19 2 2 2.</_></rects>
      <tilted>0</tilted></_>
    <_>
      <rects>
        <_>
          19 18 1 6 -1.</_>
        <_>
          19 21 1 3 2.</_></rects>
      <tilted>0</tilted></_>
    <_>
      <rects>
        <_>
          19 18 4 2 -1.</_>
        <_>
          21 18 2 2 2.</_></rects>
      <tilted>0</tilted></_>
    <_>
      <rects>
        <_>
          19 20 4 1 -1.</_>
        <_>
          21 20 2 1 2.</_></rects>
      <tilted>0</tilted></_>
    <_>
      <rects>
        <_>
          20 4 2 18 -1.</_>
        <_>
          20 4 1 9 2.</_>
        <_>
          21 13 1 9 2.</_></rects>
      <tilted>0</tilted></_>
    <_>
      <rects>
        <_>
          20 10 13 4 -1.</_>
        <_>
          20 12 13 2 2.</_></rects>
      <tilted>0</tilted></_>
    <_>
      <rects>
        <_>
          22 0 18 20 -1.</_>
        <_>
          22 10 18 10 2.</_></rects>
      <tilted>0</tilted></_>
    <_>
      <rects>
        <_>
          22 12 9 4 -1.</_>
        <_>
          22 14 9 2 2.</_></rects>
      <tilted>0</tilted></_>
    <_>
      <rects>
        <_>
          22 25 2 10 -1.</_>
        <_>
          22 25 1 5 2.</_>
        <_>
          23 30 1 5 2.</_></rects>
      <tilted>0</tilted></_>
    <_>
      <rects>
        <_>
          22 38 4 2 -1.</_>
        <_>
          22 39 4 1 2.</_></rects>
      <tilted>0</tilted></_>
    <_>
      <rects>
        <_>
          23 0 3 2 -1.</_>
        <_>
          23 1 3 1 2.</_></rects>
      <tilted>0</tilted></_>
    <_>
      <rects>
        <_>
          23 5 8 1 -1.</_>
        <_>
          27 5 4 1 2.</_></rects>
      <tilted>0</tilted></_>
    <_>
      <rects>
        <_>
          23 7 2 6 -1.</_>
        <_>
          23 7 1 3 2.</_>
        <_>
          24 10 1 3 2.</_></rects>
      <tilted>0</tilted></_>
    <_>
      <rects>
        <_>
          23 18 3 4 -1.</_>
        <_>
          23 20 3 2 2.</_></rects>
      <tilted>0</tilted></_>
    <_>
      <rects>
        <_>
          24 6 1 8 -1.</_>
        <_>
          24 10 1 4 2.</_></rects>
      <tilted>0</tilted></_>
    <_>
      <rects>
        <_>
          25 24 2 2 -1.</_>
        <_>
          26 24 1 2 2.</_></rects>
      <tilted>0</tilted></_>
    <_>
      <rects>
        <_>
          26 22 13 6 -1.</_>
        <_>
          26 25 13 3 2.</_></rects>
      <tilted>0</tilted></_>
    <_>
      <rects>
        <_>
          27 11 2 24 -1.</_>
        <_>
          27 11 1 12 2.</_>
        <_>
          28 23 1 12 2.</_></rects>
      <tilted>0</tilted></_>
    <_>
      <rects>
        <_>
          27 23 8 6 -1.</_>
        <_>
          27 26 8 3 2.</_></rects>
      <tilted>0</tilted></_>
    <_>
      <rects>
        <_>
          27 39 2 1 -1.</_>
        <_>
          28 39 1 1 2.</_></rects>
      <tilted>0</tilted></_>
    <_>
      <rects>
        <_>
          28 3 12 37 -1.</_>
        <_>
          34 3 6 37 2.</_></rects>
      <tilted>0</tilted></_>
    <_>
      <rects>
        <_>
          28 21 2 1 -1.</_>
        <_>
          29 21 1 1 2.</_></rects>
      <tilted>0</tilted></_>
    <_>
      <rects>
        <_>
          28 38 4 2 -1.</_>
        <_>
          28 39 4 1 2.</_></rects>
      <tilted>0</tilted></_>
    <_>
      <rects>
        <_>
          29 4 2 33 -1.</_>
        <_>
          30 4 1 33 2.</_></rects>
      <tilted>0</tilted></_>
    <_>
      <rects>
        <_>
          29 14 2 4 -1.</_>
        <_>
          29 16 2 2 2.</_></rects>
      <tilted>0</tilted></_>
    <_>
      <rects>
        <_>
          29 17 6 5 -1.</_>
        <_>
          32 17 3 5 2.</_></rects>
      <tilted>0</tilted></_>
    <_>
      <rects>
        <_>
          29 22 8 2 -1.</_>
        <_>
          29 22 4 1 2.</_>
        <_>
          33 23 4 1 2.</_></rects>
      <tilted>0</tilted></_>
    <_>
      <rects>
        <_>
          31 0 7 20 -1.</_>
        <_>
          31 10 7 10 2.</_></rects>
      <tilted>0</tilted></_>
    <_>
      <rects>
        <_>
          31 29 6 4 -1.</_>
        <_>
          34 29 3 4 2.</_></rects>
      <tilted>0</tilted></_>
    <_>
      <rects>
        <_>
          32 0 8 4 -1.</_>
        <_>
          36 0 4 4 2.</_></rects>
      <tilted>0</tilted></_>
    <_>
      <rects>
        <_>
          32 13 8 20 -1.</_>
        <_>
          36 13 4 20 2.</_></rects>
      <tilted>0</tilted></_>
    <_>
      <rects>
        <_>
          34 0 6 2 -1.</_>
        <_>
          34 1 6 1 2.</_></rects>
      <tilted>0</tilted></_>
    <_>
      <rects>
        <_>
          34 9 1 2 -1.</_>
        <_>
          34 10 1 1 2.</_></rects>
      <tilted>0</tilted></_>
    <_>
      <rects>
        <_>
          34 38 1 2 -1.</_>
        <_>
          34 39 1 1 2.</_></rects>
      <tilted>0</tilted></_>
    <_>
      <rects>
        <_>
          35 13 3 2 -1.</_>
        <_>
          35 14 3 1 2.</_></rects>
      <tilted>0</tilted></_>
    <_>
      <rects>
        <_>
          35 20 5 20 -1.</_>
        <_>
          35 30 5 10 2.</_></rects>
      <tilted>0</tilted></_>
    <_>
      <rects>
        <_>
          35 38 4 2 -1.</_>
        <_>
          37 38 2 2 2.</_></rects>
      <tilted>0</tilted></_>
    <_>
      <rects>
        <_>
          36 0 4 1 -1.</_>
        <_>
          38 0 2 1 2.</_></rects>
      <tilted>0</tilted></_>
    <_>
      <rects>
        <_>
          36 0 4 2 -1.</_>
        <_>
          36 1 4 1 2.</_></rects>
      <tilted>0</tilted></_>
    <_>
      <rects>
        <_>
          36 9 4 21 -1.</_>
        <_>
          38 9 2 21 2.</_></rects>
      <tilted>0</tilted></_>
    <_>
      <rects>
        <_>
          36 23 3 14 -1.</_>
        <_>
          36 30 3 7 2.</_></rects>
      <tilted>0</tilted></_>
    <_>
      <rects>
        <_>
          36 39 4 1 -1.</_>
        <_>
          38 39 2 1 2.</_></rects>
      <tilted>0</tilted></_>
    <_>
      <rects>
        <_>
          37 0 2 3 -1.</_>
        <_>
          38 0 1 3 2.</_></rects>
      <tilted>0</tilted></_>
    <_>
      <rects>
        <_>
          37 12 3 20 -1.</_>
        <_>
          38 12 1 20 2.</_></rects>
      <tilted>0</tilted></_>
    <_>
      <rects>
        <_>
          38 0 2 8 -1.</_>
        <_>
          38 0 1 4 2.</_>
        <_>
          39 4 1 4 2.</_></rects>
      <tilted>0</tilted></_>
    <_>
      <rects>
        <_>
          38 0 2 34 -1.</_>
        <_>
          38 0 1 17 2.</_>
        <_>
          39 17 1 17 2.</_></rects>
      <tilted>0</tilted></_>
    <_>
      <rects>
        <_>
          38 0 2 38 -1.</_>
        <_>
          39 0 1 38 2.</_></rects>
      <tilted>0</tilted></_>
    <_>
      <rects>
        <_>
          38 0 2 4 -1.</_>
        <_>
          38 2 2 2 2.</_></rects>
      <tilted>0</tilted></_>
    <_>
      <rects>
        <_>
          38 2 2 31 -1.</_>
        <_>
          39 2 1 31 2.</_></rects>
      <tilted>0</tilted></_>
    <_>
      <rects>
        <_>
          38 2 2 32 -1.</_>
        <_>
          39 2 1 32 2.</_></rects>
      <tilted>0</tilted></_>
    <_>
      <rects>
        <_>
          38 2 2 34 -1.</_>
        <_>
          39 2 1 34 2.</_></rects>
      <tilted>0</tilted></_>
    <_>
      <rects>
        <_>
          38 3 2 34 -1.</_>
        <_>
          39 3 1 34 2.</_></rects>
      <tilted>0</tilted></_>
    <_>
      <rects>
        <_>
          38 4 2 4 -1.</_>
        <_>
          39 4 1 4 2.</_></rects>
      <tilted>0</tilted></_>
    <_>
      <rects>
        <_>
          38 4 2 31 -1.</_>
        <_>
          39 4 1 31 2.</_></rects>
      <tilted>0</tilted></_>
    <_>
      <rects>
        <_>
          38 5 2 30 -1.</_>
        <_>
          39 5 1 30 2.</_></rects>
      <tilted>0</tilted></_>
    <_>
      <rects>
        <_>
          38 6 2 27 -1.</_>
        <_>
          39 6 1 27 2.</_></rects>
      <tilted>0</tilted></_>
    <_>
      <rects>
        <_>
          38 6 2 29 -1.</_>
        <_>
          39 6 1 29 2.</_></rects>
      <tilted>0</tilted></_>
    <_>
      <rects>
        <_>
          38 7 2 33 -1.</_>
        <_>
          39 7 1 33 2.</_></rects>
      <tilted>0</tilted></_>
    <_>
      <rects>
        <_>
          38 10 2 3 -1.</_>
        <_>
          39 10 1 3 2.</_></rects>
      <tilted>0</tilted></_>
    <_>
      <rects>
        <_>
          38 12 2 2 -1.</_>
        <_>
          39 12 1 2 2.</_></rects>
      <tilted>0</tilted></_>
    <_>
      <rects>
        <_>
          38 20 2 20 -1.</_>
        <_>
          38 30 2 10 2.</_></rects>
      <tilted>0</tilted></_>
    <_>
      <rects>
        <_>
          38 24 2 3 -1.</_>
        <_>
          39 24 1 3 2.</_></rects>
      <tilted>0</tilted></_>
    <_>
      <rects>
        <_>
          38 32 2 8 -1.</_>
        <_>
          38 36 2 4 2.</_></rects>
      <tilted>0</tilted></_>
    <_>
      <rects>
        <_>
          38 36 2 4 -1.</_>
        <_>
          38 38 2 2 2.</_></rects>
      <tilted>0</tilted></_>
    <_>
      <rects>
        <_>
          38 38 2 2 -1.</_>
        <_>
          38 38 1 1 2.</_>
        <_>
          39 39 1 1 2.</_></rects>
      <tilted>0</tilted></_>
    <_>
      <rects>
        <_>
          38 39 2 1 -1.</_>
        <_>
          39 39 1 1 2.</_></rects>
      <tilted>0</tilted></_>
    <_>
      <rects>
        <_>
          39 0 1 38 -1.</_>
        <_>
          39 19 1 19 2.</_></rects>
      <tilted>0</tilted></_>
    <_>
      <rects>
        <_>
          39 0 1 40 -1.</_>
        <_>
          39 20 1 20 2.</_></rects>
      <tilted>0</tilted></_>
    <_>
      <rects>
        <_>
          39 1 1 36 -1.</_>
        <_>
          39 19 1 18 2.</_></rects>
      <tilted>0</tilted></_>
    <_>
      <rects>
        <_>
          39 2 1 38 -1.</_>
        <_>
          39 21 1 19 2.</_></rects>
      <tilted>0</tilted></_>
    <_>
      <rects>
        <_>
          39 5 1 34 -1.</_>
        <_>
          39 22 1 17 2.</_></rects>
      <tilted>0</tilted></_>
    <_>
      <rects>
        <_>
          39 6 1 30 -1.</_>
        <_>
          39 21 1 15 2.</_></rects>
      <tilted>0</tilted></_>
    <_>
      <rects>
        <_>
          39 12 1 28 -1.</_>
        <_>
          39 26 1 14 2.</_></rects>
      <tilted>0</tilted></_>
    <_>
      <rects>
        <_>
          39 36 1 4 -1.</_>
        <_>
          39 38 1 2 2.</_></rects>
      <tilted>0</tilted></_></features></cascade>
</opencv_storage>
