<?xml version="1.0"?>
<opencv_storage>
<stage10>
  <maxWeakCount>13</maxWeakCount>
  <stageThreshold>-1.1514694690704346e+00</stageThreshold>
  <weakClassifiers>
    <_>
      <internalNodes>
        0 -1 791199 5.3797783330082893e-03</internalNodes>
      <leafValues>
        -5.9729897975921631e-01 -3.8501560688018799e-02</leafValues></_>
    <_>
      <internalNodes>
        0 -1 1241771 -8.9207403361797333e-03</internalNodes>
      <leafValues>
        -8.3514243364334106e-01 8.5760228335857391e-02</leafValues></_>
    <_>
      <internalNodes>
        0 -1 2287 -7.4860593304038048e-03</internalNodes>
      <leafValues>
        -6.7954337596893311e-01 1.7202609777450562e-01</leafValues></_>
    <_>
      <internalNodes>
        0 -1 61426 2.3087506633601151e-05</internalNodes>
      <leafValues>
        -8.0597704648971558e-01 1.1481025815010071e-01</leafValues></_>
    <_>
      <internalNodes>
        0 -1 293403 -4.3609878048300743e-03</internalNodes>
      <leafValues>
        3.7536412477493286e-01 -2.6523295044898987e-01</leafValues></_>
    <_>
      <internalNodes>
        0 -1 19692 -1.0714037671277765e-05</internalNodes>
      <leafValues>
        1.6665752232074738e-01 -5.8758121728897095e-01</leafValues></_>
    <_>
      <internalNodes>
        0 -1 2379 1.3613900542259216e-01</internalNodes>
      <leafValues>
        2.3572725057601929e-01 -4.9488526582717896e-01</leafValues></_>
    <_>
      <internalNodes>
        0 -1 1241661 -1.9364517356734723e-05</internalNodes>
      <leafValues>
        -9.0464508533477783e-01 8.9790277183055878e-02</leafValues></_>
    <_>
      <internalNodes>
        0 -1 5988 -1.5823618014110252e-05</internalNodes>
      <leafValues>
        -7.3015505075454712e-01 8.6825318634510040e-02</leafValues></_>
    <_>
      <internalNodes>
        0 -1 513569 -1.8307935679331422e-03</internalNodes>
      <leafValues>
        4.8255842924118042e-01 -2.0538696646690369e-01</leafValues></_>
    <_>
      <internalNodes>
        0 -1 568794 1.3103722594678402e-03</internalNodes>
      <leafValues>
        -1.2505470216274261e-01 6.7011517286300659e-01</leafValues></_>
    <_>
      <internalNodes>
        0 -1 235327 5.0449930131435394e-03</internalNodes>
      <leafValues>
        -1.7686492204666138e-01 4.2606365680694580e-01</leafValues></_>
    <_>
      <internalNodes>
        0 -1 1125790 6.8607302382588387e-03</internalNodes>
      <leafValues>
        -1.6990602016448975e-01 5.6645107269287109e-01</leafValues></_></weakClassifiers></stage10>
</opencv_storage>
