<?xml version="1.0"?>
<opencv_storage>
<cascade>
  <stageType>BOOST</stageType>
  <featureType>HAAR</featureType>
  <height>60</height>
  <width>60</width>
  <stageParams>
    <boostType>GAB</boostType>
    <minHitRate>9.9500000476837158e-01</minHitRate>
    <maxFalseAlarm>5.0000000000000000e-01</maxFalseAlarm>
    <weightTrimRate>9.4999999999999996e-01</weightTrimRate>
    <maxDepth>1</maxDepth>
    <maxWeakCount>100</maxWeakCount></stageParams>
  <featureParams>
    <maxCatCount>0</maxCatCount>
    <featSize>1</featSize>
    <mode>BASIC</mode></featureParams>
  <stageNum>13</stageNum>
  <stages>
    <!-- stage 0 -->
    <_>
      <maxWeakCount>2</maxWeakCount>
      <stageThreshold>-2.2565793991088867e-01</stageThreshold>
      <weakClassifiers>
        <_>
          <internalNodes>
            0 -1 24 -2.4497888982295990e-02</internalNodes>
          <leafValues>
            8.5104733705520630e-01 -9.9594318866729736e-01</leafValues></_>
        <_>
          <internalNodes>
            0 -1 10 -6.4950215816497803e-01</internalNodes>
          <leafValues>
            7.7028524875640869e-01 -9.9761193990707397e-01</leafValues></_></weakClassifiers></_>
    <!-- stage 1 -->
    <_>
      <maxWeakCount>2</maxWeakCount>
      <stageThreshold>-4.9783143401145935e-01</stageThreshold>
      <weakClassifiers>
        <_>
          <internalNodes>
            0 -1 52 8.2078397274017334e-02</internalNodes>
          <leafValues>
            -9.7038793563842773e-01 6.8745416402816772e-01</leafValues></_>
        <_>
          <internalNodes>
            0 -1 51 7.2216615080833435e-02</internalNodes>
          <leafValues>
            -9.5104330778121948e-01 4.7255650162696838e-01</leafValues></_></weakClassifiers></_>
    <!-- stage 2 -->
    <_>
      <maxWeakCount>1</maxWeakCount>
      <stageThreshold>9.6399343013763428e-01</stageThreshold>
      <weakClassifiers>
        <_>
          <internalNodes>
            0 -1 58 -4.2188201099634171e-02</internalNodes>
          <leafValues>
            9.6399343013763428e-01 -1.</leafValues></_></weakClassifiers></_>
    <!-- stage 3 -->
    <_>
      <maxWeakCount>4</maxWeakCount>
      <stageThreshold>-1.3847754001617432e+00</stageThreshold>
      <weakClassifiers>
        <_>
          <internalNodes>
            0 -1 8 -1.6005501151084900e-01</internalNodes>
          <leafValues>
            5.8339983224868774e-01 -8.8069975376129150e-01</leafValues></_>
        <_>
          <internalNodes>
            0 -1 28 -7.4373736977577209e-02</internalNodes>
          <leafValues>
            2.2778163850307465e-01 -9.2304998636245728e-01</leafValues></_>
        <_>
          <internalNodes>
            0 -1 6 -6.9197610020637512e-02</internalNodes>
          <leafValues>
            3.0144116282463074e-01 -9.4516295194625854e-01</leafValues></_>
        <_>
          <internalNodes>
            0 -1 0 -1.1404528049752116e-04</internalNodes>
          <leafValues>
            -1. 2.1330566704273224e-01</leafValues></_></weakClassifiers></_>
    <!-- stage 4 -->
    <_>
      <maxWeakCount>5</maxWeakCount>
      <stageThreshold>-1.1268944740295410e+00</stageThreshold>
      <weakClassifiers>
        <_>
          <internalNodes>
            0 -1 9 -1.7138308286666870e-01</internalNodes>
          <leafValues>
            5.3243571519851685e-01 -7.0736682415008545e-01</leafValues></_>
        <_>
          <internalNodes>
            0 -1 20 3.1032558530569077e-02</internalNodes>
          <leafValues>
            -9.8672920465469360e-01 1.7788115143775940e-01</leafValues></_>
        <_>
          <internalNodes>
            0 -1 32 -2.4218621850013733e-01</internalNodes>
          <leafValues>
            7.6978319883346558e-01 -3.8409233093261719e-01</leafValues></_>
        <_>
          <internalNodes>
            0 -1 48 1.1092209815979004e-01</internalNodes>
          <leafValues>
            -6.7733782529830933e-01 4.3699884414672852e-01</leafValues></_>
        <_>
          <internalNodes>
            0 -1 37 -3.7363894283771515e-02</internalNodes>
          <leafValues>
            4.6402132511138916e-01 -6.0525107383728027e-01</leafValues></_></weakClassifiers></_>
    <!-- stage 5 -->
    <_>
      <maxWeakCount>5</maxWeakCount>
      <stageThreshold>-1.0568864345550537e+00</stageThreshold>
      <weakClassifiers>
        <_>
          <internalNodes>
            0 -1 25 -1.9365879893302917e-01</internalNodes>
          <leafValues>
            2.9217198491096497e-01 -6.7962431907653809e-01</leafValues></_>
        <_>
          <internalNodes>
            0 -1 35 -2.9283958673477173e-01</internalNodes>
          <leafValues>
            6.7310130596160889e-01 -4.3728956580162048e-01</leafValues></_>
        <_>
          <internalNodes>
            0 -1 2 -6.7899972200393677e-02</internalNodes>
          <leafValues>
            2.8218063712120056e-01 -9.6217036247253418e-01</leafValues></_>
        <_>
          <internalNodes>
            0 -1 44 -3.1111543066799641e-03</internalNodes>
          <leafValues>
            6.9403791427612305e-01 -3.7984293699264526e-01</leafValues></_>
        <_>
          <internalNodes>
            0 -1 26 3.8316052268783096e-06</internalNodes>
          <leafValues>
            3.8914319872856140e-01 -8.1410658359527588e-01</leafValues></_></weakClassifiers></_>
    <!-- stage 6 -->
    <_>
      <maxWeakCount>6</maxWeakCount>
      <stageThreshold>-1.2460378408432007e+00</stageThreshold>
      <weakClassifiers>
        <_>
          <internalNodes>
            0 -1 43 4.8676035366952419e-03</internalNodes>
          <leafValues>
            -6.6892594099044800e-01 2.5000000000000000e-01</leafValues></_>
        <_>
          <internalNodes>
            0 -1 50 -1.5881648659706116e-01</internalNodes>
          <leafValues>
            5.5499738454818726e-01 -4.6032044291496277e-01</leafValues></_>
        <_>
          <internalNodes>
            0 -1 16 -2.8232846409082413e-02</internalNodes>
          <leafValues>
            2.1079376339912415e-01 -9.5557159185409546e-01</leafValues></_>
        <_>
          <internalNodes>
            0 -1 30 -8.8247925043106079e-02</internalNodes>
          <leafValues>
            3.7524446845054626e-01 -5.5797821283340454e-01</leafValues></_>
        <_>
          <internalNodes>
            0 -1 53 4.3256752192974091e-02</internalNodes>
          <leafValues>
            -9.6346360445022583e-01 1.2849035859107971e-01</leafValues></_>
        <_>
          <internalNodes>
            0 -1 5 -7.3053017258644104e-02</internalNodes>
          <leafValues>
            2.6063397526741028e-01 -6.5049040317535400e-01</leafValues></_></weakClassifiers></_>
    <!-- stage 7 -->
    <_>
      <maxWeakCount>7</maxWeakCount>
      <stageThreshold>-1.1267907619476318e+00</stageThreshold>
      <weakClassifiers>
        <_>
          <internalNodes>
            0 -1 57 7.4978265911340714e-04</internalNodes>
          <leafValues>
            -6.1019283533096313e-01 8.2812500000000000e-01</leafValues></_>
        <_>
          <internalNodes>
            0 -1 41 1.3819484040141106e-02</internalNodes>
          <leafValues>
            -6.8472301959991455e-01 6.1380904912948608e-01</leafValues></_>
        <_>
          <internalNodes>
            0 -1 47 1.7867723107337952e-01</internalNodes>
          <leafValues>
            -2.4514164030551910e-01 7.7273529767990112e-01</leafValues></_>
        <_>
          <internalNodes>
            0 -1 18 -6.1946315690875053e-04</internalNodes>
          <leafValues>
            -8.2085078954696655e-01 2.1714733541011810e-01</leafValues></_>
        <_>
          <internalNodes>
            0 -1 15 3.5599377952166833e-06</internalNodes>
          <leafValues>
            1.5658922493457794e-01 -1.</leafValues></_>
        <_>
          <internalNodes>
            0 -1 40 -4.3103829957544804e-03</internalNodes>
          <leafValues>
            4.8221540451049805e-01 -3.7302511930465698e-01</leafValues></_>
        <_>
          <internalNodes>
            0 -1 55 1.3253696262836456e-02</internalNodes>
          <leafValues>
            -4.7700619697570801e-01 4.1255524754524231e-01</leafValues></_></weakClassifiers></_>
    <!-- stage 8 -->
    <_>
      <maxWeakCount>3</maxWeakCount>
      <stageThreshold>-5.6557089090347290e-01</stageThreshold>
      <weakClassifiers>
        <_>
          <internalNodes>
            0 -1 19 9.3642041087150574e-02</internalNodes>
          <leafValues>
            -8.3664262294769287e-01 -1.9255150854587555e-01</leafValues></_>
        <_>
          <internalNodes>
            0 -1 22 -1.7285958165302873e-05</internalNodes>
          <leafValues>
            -9.9673080444335938e-01 8.8846392929553986e-02</leafValues></_>
        <_>
          <internalNodes>
            0 -1 1 -1.1625314800767228e-04</internalNodes>
          <leafValues>
            -1. 1.8222531676292419e-01</leafValues></_></weakClassifiers></_>
    <!-- stage 9 -->
    <_>
      <maxWeakCount>7</maxWeakCount>
      <stageThreshold>-1.4064781665802002e+00</stageThreshold>
      <weakClassifiers>
        <_>
          <internalNodes>
            0 -1 29 3.3148258924484253e-01</internalNodes>
          <leafValues>
            -5.9770387411117554e-01 2.8443649411201477e-01</leafValues></_>
        <_>
          <internalNodes>
            0 -1 23 -7.7077941969037056e-03</internalNodes>
          <leafValues>
            3.3424904942512512e-01 -4.8440557718276978e-01</leafValues></_>
        <_>
          <internalNodes>
            0 -1 60 -3.6209278277965495e-06</internalNodes>
          <leafValues>
            -1. 1.7300532758235931e-01</leafValues></_>
        <_>
          <internalNodes>
            0 -1 42 -2.8185397386550903e-03</internalNodes>
          <leafValues>
            1.3483497500419617e-01 -8.8839489221572876e-01</leafValues></_>
        <_>
          <internalNodes>
            0 -1 11 3.7279710173606873e-02</internalNodes>
          <leafValues>
            -8.5939407348632812e-01 1.2889045476913452e-01</leafValues></_>
        <_>
          <internalNodes>
            0 -1 17 3.4832983510568738e-04</internalNodes>
          <leafValues>
            1.3020117580890656e-01 -1.</leafValues></_>
        <_>
          <internalNodes>
            0 -1 13 -4.1082412280957215e-06</internalNodes>
          <leafValues>
            -1. 9.6983872354030609e-02</leafValues></_></weakClassifiers></_>
    <!-- stage 10 -->
    <_>
      <maxWeakCount>5</maxWeakCount>
      <stageThreshold>-1.1515687704086304e+00</stageThreshold>
      <weakClassifiers>
        <_>
          <internalNodes>
            0 -1 59 -1.9029561430215836e-02</internalNodes>
          <leafValues>
            7.3946362733840942e-01 -5.6552803516387939e-01</leafValues></_>
        <_>
          <internalNodes>
            0 -1 39 1.9655447453260422e-02</internalNodes>
          <leafValues>
            -9.2567110061645508e-01 1.1649101972579956e-01</leafValues></_>
        <_>
          <internalNodes>
            0 -1 38 -4.5956072426633909e-05</internalNodes>
          <leafValues>
            -1. 1.2788842618465424e-01</leafValues></_>
        <_>
          <internalNodes>
            0 -1 21 -3.7059289752505720e-06</internalNodes>
          <leafValues>
            -1. 9.0713143348693848e-02</leafValues></_>
        <_>
          <internalNodes>
            0 -1 56 -7.6810021710116416e-05</internalNodes>
          <leafValues>
            -1. 1.2102878838777542e-01</leafValues></_></weakClassifiers></_>
    <!-- stage 11 -->
    <_>
      <maxWeakCount>7</maxWeakCount>
      <stageThreshold>-1.0565316677093506e+00</stageThreshold>
      <weakClassifiers>
        <_>
          <internalNodes>
            0 -1 4 -3.1880056858062744e-01</internalNodes>
          <leafValues>
            4.5220589637756348e-01 -6.1630123853683472e-01</leafValues></_>
        <_>
          <internalNodes>
            0 -1 7 -2.5771427154541016e-01</internalNodes>
          <leafValues>
            6.3746130466461182e-01 -3.7694931030273438e-01</leafValues></_>
        <_>
          <internalNodes>
            0 -1 27 -1.4104377478361130e-02</internalNodes>
          <leafValues>
            3.8769012689590454e-01 -4.7269251942634583e-01</leafValues></_>
        <_>
          <internalNodes>
            0 -1 45 -6.1921431915834546e-04</internalNodes>
          <leafValues>
            6.7933076620101929e-01 -2.3560725152492523e-01</leafValues></_>
        <_>
          <internalNodes>
            0 -1 3 -5.1329344511032104e-02</internalNodes>
          <leafValues>
            2.3421795666217804e-01 -7.3497885465621948e-01</leafValues></_>
        <_>
          <internalNodes>
            0 -1 33 -2.0042416872456670e-04</internalNodes>
          <leafValues>
            2.9235330224037170e-01 -6.1894637346267700e-01</leafValues></_>
        <_>
          <internalNodes>
            0 -1 14 -3.9524547901237383e-06</internalNodes>
          <leafValues>
            -1. 1.7270621657371521e-01</leafValues></_></weakClassifiers></_>
    <!-- stage 12 -->
    <_>
      <maxWeakCount>7</maxWeakCount>
      <stageThreshold>-9.6405023336410522e-01</stageThreshold>
      <weakClassifiers>
        <_>
          <internalNodes>
            0 -1 36 4.3997202068567276e-02</internalNodes>
          <leafValues>
            -9.0144348144531250e-01 -1.9370193779468536e-01</leafValues></_>
        <_>
          <internalNodes>
            0 -1 49 -2.2553526796400547e-03</internalNodes>
          <leafValues>
            1.6435424983501434e-01 -6.5064662694931030e-01</leafValues></_>
        <_>
          <internalNodes>
            0 -1 46 2.1765287965536118e-03</internalNodes>
          <leafValues>
            -7.1032941341400146e-01 2.1754293143749237e-01</leafValues></_>
        <_>
          <internalNodes>
            0 -1 34 -9.4892950728535652e-03</internalNodes>
          <leafValues>
            4.2071339488029480e-01 -3.4078344702720642e-01</leafValues></_>
        <_>
          <internalNodes>
            0 -1 12 -6.0054576351831201e-06</internalNodes>
          <leafValues>
            -3.0657875537872314e-01 4.9974557757377625e-01</leafValues></_>
        <_>
          <internalNodes>
            0 -1 31 4.5931401473353617e-06</internalNodes>
          <leafValues>
            1.7363889515399933e-01 -1.</leafValues></_>
        <_>
          <internalNodes>
            0 -1 54 9.1104429884580895e-06</internalNodes>
          <leafValues>
            3.1350144743919373e-01 -5.1214665174484253e-01</leafValues></_></weakClassifiers></_></stages>
  <features>
    <_>
      <rects>
        <_>
          0 0 6 60 -1.</_>
        <_>
          3 0 3 60 2.</_></rects>
      <tilted>0</tilted></_>
    <_>
      <rects>
        <_>
          0 0 6 48 -1.</_>
        <_>
          0 24 6 24 2.</_></rects>
      <tilted>0</tilted></_>
    <_>
      <rects>
        <_>
          0 0 28 60 -1.</_>
        <_>
          14 0 14 60 2.</_></rects>
      <tilted>0</tilted></_>
    <_>
      <rects>
        <_>
          0 0 46 54 -1.</_>
        <_>
          0 27 46 27 2.</_></rects>
      <tilted>0</tilted></_>
    <_>
      <rects>
        <_>
          0 3 57 36 -1.</_>
        <_>
          0 21 57 18 2.</_></rects>
      <tilted>0</tilted></_>
    <_>
      <rects>
        <_>
          0 12 26 40 -1.</_>
        <_>
          13 12 13 40 2.</_></rects>
      <tilted>0</tilted></_>
    <_>
      <rects>
        <_>
          0 12 28 41 -1.</_>
        <_>
          14 12 14 41 2.</_></rects>
      <tilted>0</tilted></_>
    <_>
      <rects>
        <_>
          0 15 42 28 -1.</_>
        <_>
          21 15 21 28 2.</_></rects>
      <tilted>0</tilted></_>
    <_>
      <rects>
        <_>
          0 22 40 20 -1.</_>
        <_>
          20 22 20 20 2.</_></rects>
      <tilted>0</tilted></_>
    <_>
      <rects>
        <_>
          0 23 40 16 -1.</_>
        <_>
          20 23 20 16 2.</_></rects>
      <tilted>0</tilted></_>
    <_>
      <rects>
        <_>
          0 24 60 16 -1.</_>
        <_>
          20 24 20 16 2.</_></rects>
      <tilted>0</tilted></_>
    <_>
      <rects>
        <_>
          0 38 60 22 -1.</_>
        <_>
          0 49 60 11 2.</_></rects>
      <tilted>0</tilted></_>
    <_>
      <rects>
        <_>
          0 39 24 9 -1.</_>
        <_>
          12 39 12 9 2.</_></rects>
      <tilted>0</tilted></_>
    <_>
      <rects>
        <_>
          0 56 26 3 -1.</_>
        <_>
          13 56 13 3 2.</_></rects>
      <tilted>0</tilted></_>
    <_>
      <rects>
        <_>
          1 1 13 16 -1.</_>
        <_>
          1 9 13 8 2.</_></rects>
      <tilted>0</tilted></_>
    <_>
      <rects>
        <_>
          2 0 58 7 -1.</_>
        <_>
          31 0 29 7 2.</_></rects>
      <tilted>0</tilted></_>
    <_>
      <rects>
        <_>
          2 2 50 22 -1.</_>
        <_>
          2 13 50 11 2.</_></rects>
      <tilted>0</tilted></_>
    <_>
      <rects>
        <_>
          2 3 58 5 -1.</_>
        <_>
          31 3 29 5 2.</_></rects>
      <tilted>0</tilted></_>
    <_>
      <rects>
        <_>
          3 15 38 2 -1.</_>
        <_>
          3 15 19 1 2.</_>
        <_>
          22 16 19 1 2.</_></rects>
      <tilted>0</tilted></_>
    <_>
      <rects>
        <_>
          3 24 38 34 -1.</_>
        <_>
          3 24 19 17 2.</_>
        <_>
          22 41 19 17 2.</_></rects>
      <tilted>0</tilted></_>
    <_>
      <rects>
        <_>
          3 38 47 22 -1.</_>
        <_>
          3 49 47 11 2.</_></rects>
      <tilted>0</tilted></_>
    <_>
      <rects>
        <_>
          3 44 10 12 -1.</_>
        <_>
          8 44 5 12 2.</_></rects>
      <tilted>0</tilted></_>
    <_>
      <rects>
        <_>
          4 2 56 5 -1.</_>
        <_>
          32 2 28 5 2.</_></rects>
      <tilted>0</tilted></_>
    <_>
      <rects>
        <_>
          4 4 34 14 -1.</_>
        <_>
          4 4 17 7 2.</_>
        <_>
          21 11 17 7 2.</_></rects>
      <tilted>0</tilted></_>
    <_>
      <rects>
        <_>
          4 26 26 12 -1.</_>
        <_>
          17 26 13 12 2.</_></rects>
      <tilted>0</tilted></_>
    <_>
      <rects>
        <_>
          6 18 32 28 -1.</_>
        <_>
          22 18 16 28 2.</_></rects>
      <tilted>0</tilted></_>
    <_>
      <rects>
        <_>
          6 56 53 4 -1.</_>
        <_>
          6 58 53 2 2.</_></rects>
      <tilted>0</tilted></_>
    <_>
      <rects>
        <_>
          7 0 12 55 -1.</_>
        <_>
          13 0 6 55 2.</_></rects>
      <tilted>0</tilted></_>
    <_>
      <rects>
        <_>
          8 0 43 28 -1.</_>
        <_>
          8 14 43 14 2.</_></rects>
      <tilted>0</tilted></_>
    <_>
      <rects>
        <_>
          8 22 46 38 -1.</_>
        <_>
          8 41 46 19 2.</_></rects>
      <tilted>0</tilted></_>
    <_>
      <rects>
        <_>
          8 37 48 2 -1.</_>
        <_>
          24 37 16 2 2.</_></rects>
      <tilted>0</tilted></_>
    <_>
      <rects>
        <_>
          9 2 50 1 -1.</_>
        <_>
          34 2 25 1 2.</_></rects>
      <tilted>0</tilted></_>
    <_>
      <rects>
        <_>
          9 7 44 30 -1.</_>
        <_>
          9 22 44 15 2.</_></rects>
      <tilted>0</tilted></_>
    <_>
      <rects>
        <_>
          10 21 28 4 -1.</_>
        <_>
          10 21 14 2 2.</_>
        <_>
          24 23 14 2 2.</_></rects>
      <tilted>0</tilted></_>
    <_>
      <rects>
        <_>
          11 2 36 21 -1.</_>
        <_>
          29 2 18 21 2.</_></rects>
      <tilted>0</tilted></_>
    <_>
      <rects>
        <_>
          11 2 43 38 -1.</_>
        <_>
          11 21 43 19 2.</_></rects>
      <tilted>0</tilted></_>
    <_>
      <rects>
        <_>
          12 10 45 50 -1.</_>
        <_>
          12 35 45 25 2.</_></rects>
      <tilted>0</tilted></_>
    <_>
      <rects>
        <_>
          12 25 39 1 -1.</_>
        <_>
          25 25 13 1 2.</_></rects>
      <tilted>0</tilted></_>
    <_>
      <rects>
        <_>
          12 55 42 3 -1.</_>
        <_>
          33 55 21 3 2.</_></rects>
      <tilted>0</tilted></_>
    <_>
      <rects>
        <_>
          13 40 47 18 -1.</_>
        <_>
          13 49 47 9 2.</_></rects>
      <tilted>0</tilted></_>
    <_>
      <rects>
        <_>
          15 7 34 6 -1.</_>
        <_>
          15 10 34 3 2.</_></rects>
      <tilted>0</tilted></_>
    <_>
      <rects>
        <_>
          15 47 32 12 -1.</_>
        <_>
          15 53 32 6 2.</_></rects>
      <tilted>0</tilted></_>
    <_>
      <rects>
        <_>
          18 4 10 36 -1.</_>
        <_>
          18 4 5 18 2.</_>
        <_>
          23 22 5 18 2.</_></rects>
      <tilted>0</tilted></_>
    <_>
      <rects>
        <_>
          18 50 28 6 -1.</_>
        <_>
          18 53 28 3 2.</_></rects>
      <tilted>0</tilted></_>
    <_>
      <rects>
        <_>
          19 9 25 4 -1.</_>
        <_>
          19 11 25 2 2.</_></rects>
      <tilted>0</tilted></_>
    <_>
      <rects>
        <_>
          20 15 8 1 -1.</_>
        <_>
          24 15 4 1 2.</_></rects>
      <tilted>0</tilted></_>
    <_>
      <rects>
        <_>
          20 18 40 8 -1.</_>
        <_>
          20 18 20 4 2.</_>
        <_>
          40 22 20 4 2.</_></rects>
      <tilted>0</tilted></_>
    <_>
      <rects>
        <_>
          22 26 19 34 -1.</_>
        <_>
          22 43 19 17 2.</_></rects>
      <tilted>0</tilted></_>
    <_>
      <rects>
        <_>
          24 22 36 17 -1.</_>
        <_>
          42 22 18 17 2.</_></rects>
      <tilted>0</tilted></_>
    <_>
      <rects>
        <_>
          24 37 32 6 -1.</_>
        <_>
          24 37 16 3 2.</_>
        <_>
          40 40 16 3 2.</_></rects>
      <tilted>0</tilted></_>
    <_>
      <rects>
        <_>
          25 0 14 42 -1.</_>
        <_>
          25 21 14 21 2.</_></rects>
      <tilted>0</tilted></_>
    <_>
      <rects>
        <_>
          25 27 16 32 -1.</_>
        <_>
          25 43 16 16 2.</_></rects>
      <tilted>0</tilted></_>
    <_>
      <rects>
        <_>
          26 24 34 16 -1.</_>
        <_>
          43 24 17 16 2.</_></rects>
      <tilted>0</tilted></_>
    <_>
      <rects>
        <_>
          36 2 24 58 -1.</_>
        <_>
          48 2 12 58 2.</_></rects>
      <tilted>0</tilted></_>
    <_>
      <rects>
        <_>
          38 48 22 10 -1.</_>
        <_>
          38 53 22 5 2.</_></rects>
      <tilted>0</tilted></_>
    <_>
      <rects>
        <_>
          45 0 12 55 -1.</_>
        <_>
          51 0 6 55 2.</_></rects>
      <tilted>0</tilted></_>
    <_>
      <rects>
        <_>
          51 0 9 20 -1.</_>
        <_>
          51 10 9 10 2.</_></rects>
      <tilted>0</tilted></_>
    <_>
      <rects>
        <_>
          52 26 2 10 -1.</_>
        <_>
          53 26 1 10 2.</_></rects>
      <tilted>0</tilted></_>
    <_>
      <rects>
        <_>
          53 29 5 15 -1.</_>
        <_>
          53 34 5 5 2.</_></rects>
      <tilted>0</tilted></_>
    <_>
      <rects>
        <_>
          54 34 1 12 -1.</_>
        <_>
          54 38 1 4 2.</_></rects>
      <tilted>0</tilted></_>
    <_>
      <rects>
        <_>
          58 0 2 50 -1.</_>
        <_>
          58 25 2 25 2.</_></rects>
      <tilted>0</tilted></_></features></cascade>
</opencv_storage>
